digraph Tree {
node [shape=box] ;
0 [label="molecular_weight <= 360.1\nmse = 1241.28\nsamples = 782\nvalue = 73.765"] ;
1 [label="xlogp <= 1.65\nmse = 860.71\nsamples = 313\nvalue = 86.336"] ;
0 -> 1 [labeldistance=2.5, labelangle=45, headlabel="True"] ;
2 [label="complexity <= 696.0\nmse = 526.339\nsamples = 153\nvalue = 94.475"] ;
1 -> 2 ;
3 [label="complexity <= 232.0\nmse = 497.119\nsamples = 152\nvalue = 94.834"] ;
2 -> 3 ;
4 [label="atom_stereo_count <= 2.5\nmse = 221.943\nsamples = 36\nvalue = 103.464"] ;
3 -> 4 ;
5 [label="xlogp <= -1.25\nmse = 62.464\nsamples = 34\nvalue = 105.212"] ;
4 -> 5 ;
6 [label="rotable_bond_count <= 3.5\nmse = 22.362\nsamples = 5\nvalue = 114.553"] ;
5 -> 6 ;
7 [label="tpsa <= 102.5\nmse = 3.606\nsamples = 4\nvalue = 110.651"] ;
6 -> 7 ;
8 [label="rotable_bond_count <= 1.0\nmse = 0.897\nsamples = 3\nvalue = 111.64"] ;
7 -> 8 ;
9 [label="mse = 0.0\nsamples = 1\nvalue = 112.975"] ;
8 -> 9 ;
10 [label="exact_mass <= 160.082\nmse = 0.009\nsamples = 2\nvalue = 110.972"] ;
8 -> 10 ;
11 [label="mse = 0.0\nsamples = 1\nvalue = 111.069"] ;
10 -> 11 ;
12 [label="mse = 0.0\nsamples = 1\nvalue = 110.876"] ;
10 -> 12 ;
13 [label="mse = 0.0\nsamples = 1\nvalue = 107.685"] ;
7 -> 13 ;
14 [label="mse = -0.0\nsamples = 1\nvalue = 119.756"] ;
6 -> 14 ;
15 [label="h_bond_donor_count <= 2.5\nmse = 53.946\nsamples = 29\nvalue = 103.877"] ;
5 -> 15 ;
16 [label="tpsa <= 31.55\nmse = 33.474\nsamples = 24\nvalue = 104.862"] ;
15 -> 16 ;
17 [label="tpsa <= 25.25\nmse = 68.428\nsamples = 4\nvalue = 110.125"] ;
16 -> 17 ;
18 [label="monoisotopic_mass <= 197.623\nmse = 1.101\nsamples = 2\nvalue = 100.858"] ;
17 -> 18 ;
19 [label="mse = 0.0\nsamples = 1\nvalue = 102.342"] ;
18 -> 19 ;
20 [label="mse = -0.0\nsamples = 1\nvalue = 100.116"] ;
18 -> 20 ;
21 [label="exact_mass <= 171.104\nmse = 6.212\nsamples = 2\nvalue = 117.075"] ;
17 -> 21 ;
22 [label="mse = 0.0\nsamples = 1\nvalue = 112.758"] ;
21 -> 22 ;
23 [label="mse = 0.0\nsamples = 1\nvalue = 118.514"] ;
21 -> 23 ;
24 [label="tpsa <= 87.05\nmse = 20.629\nsamples = 20\nvalue = 103.866"] ;
16 -> 24 ;
25 [label="monoisotopic_mass <= 122.546\nmse = 16.418\nsamples = 18\nvalue = 102.776"] ;
24 -> 25 ;
26 [label="tpsa <= 65.25\nmse = 32.128\nsamples = 2\nvalue = 109.021"] ;
25 -> 26 ;
27 [label="mse = 0.0\nsamples = 1\nvalue = 113.029"] ;
26 -> 27 ;
28 [label="mse = 0.0\nsamples = 1\nvalue = 101.005"] ;
26 -> 28 ;
29 [label="molecular_weight <= 136.15\nmse = 10.109\nsamples = 16\nvalue = 102.107"] ;
25 -> 29 ;
30 [label="xlogp <= -0.65\nmse = 1.219\nsamples = 3\nvalue = 98.554"] ;
29 -> 30 ;
31 [label="xlogp <= -0.8\nmse = 0.003\nsamples = 2\nvalue = 98.002"] ;
30 -> 31 ;
32 [label="mse = 0.0\nsamples = 1\nvalue = 97.948"] ;
31 -> 32 ;
33 [label="mse = 0.0\nsamples = 1\nvalue = 98.057"] ;
31 -> 33 ;
34 [label="mse = -0.0\nsamples = 1\nvalue = 100.76"] ;
30 -> 34 ;
35 [label="tpsa <= 62.75\nmse = 8.7\nsamples = 13\nvalue = 102.88"] ;
29 -> 35 ;
36 [label="molecular_weight <= 145.35\nmse = 3.699\nsamples = 8\nvalue = 101.461"] ;
35 -> 36 ;
37 [label="monoisotopic_mass <= 140.582\nmse = 3.059\nsamples = 2\nvalue = 104.361"] ;
36 -> 37 ;
38 [label="mse = 0.0\nsamples = 1\nvalue = 103.124"] ;
37 -> 38 ;
39 [label="mse = -0.0\nsamples = 1\nvalue = 106.834"] ;
37 -> 39 ;
40 [label="molecular_weight <= 152.855\nmse = 0.954\nsamples = 6\nvalue = 100.67"] ;
36 -> 40 ;
41 [label="mse = 0.0\nsamples = 1\nvalue = 98.018"] ;
40 -> 41 ;
42 [label="h_bond_acceptor_count <= 3.5\nmse = 0.276\nsamples = 5\nvalue = 100.935"] ;
40 -> 42 ;
43 [label="tpsa <= 46.2\nmse = 0.1\nsamples = 4\nvalue = 100.714"] ;
42 -> 43 ;
44 [label="tpsa <= 36.85\nmse = 0.002\nsamples = 2\nvalue = 101.027"] ;
43 -> 44 ;
45 [label="mse = 0.0\nsamples = 1\nvalue = 100.978"] ;
44 -> 45 ;
46 [label="mse = 0.0\nsamples = 1\nvalue = 101.076"] ;
44 -> 46 ;
47 [label="exact_mass <= 178.081\nmse = 0.0\nsamples = 2\nvalue = 100.4"] ;
43 -> 47 ;
48 [label="mse = 0.0\nsamples = 1\nvalue = 100.365"] ;
47 -> 48 ;
49 [label="mse = 0.0\nsamples = 1\nvalue = 100.412"] ;
47 -> 49 ;
50 [label="mse = 0.0\nsamples = 1\nvalue = 101.821"] ;
42 -> 50 ;
51 [label="molecular_weight <= 153.15\nmse = 8.476\nsamples = 5\nvalue = 105.087"] ;
35 -> 51 ;
52 [label="mse = 0.0\nsamples = 1\nvalue = 99.872"] ;
51 -> 52 ;
53 [label="monoisotopic_mass <= 175.062\nmse = 0.907\nsamples = 4\nvalue = 106.577"] ;
51 -> 53 ;
54 [label="h_bond_donor_count <= 1.5\nmse = 0.243\nsamples = 3\nvalue = 106.918"] ;
53 -> 54 ;
55 [label="exact_mass <= 158.998\nmse = 0.036\nsamples = 2\nvalue = 106.588"] ;
54 -> 55 ;
56 [label="mse = 0.0\nsamples = 1\nvalue = 106.776"] ;
55 -> 56 ;
57 [label="mse = -0.0\nsamples = 1\nvalue = 106.399"] ;
55 -> 57 ;
58 [label="mse = 0.0\nsamples = 1\nvalue = 107.58"] ;
54 -> 58 ;
59 [label="mse = -0.0\nsamples = 1\nvalue = 104.529"] ;
53 -> 59 ;
60 [label="molecular_weight <= 237.105\nmse = 4.539\nsamples = 2\nvalue = 109.498"] ;
24 -> 60 ;
61 [label="mse = 0.0\nsamples = 1\nvalue = 107.367"] ;
60 -> 61 ;
62 [label="mse = -0.0\nsamples = 1\nvalue = 111.628"] ;
60 -> 62 ;
63 [label="xlogp <= 0.2\nmse = 150.499\nsamples = 5\nvalue = 95.213"] ;
15 -> 63 ;
64 [label="complexity <= 94.4\nmse = 17.447\nsamples = 3\nvalue = 104.575"] ;
63 -> 64 ;
65 [label="molecular_weight <= 225.225\nmse = 6.061\nsamples = 2\nvalue = 107.164"] ;
64 -> 65 ;
66 [label="mse = 0.0\nsamples = 1\nvalue = 104.702"] ;
65 -> 66 ;
67 [label="mse = 0.0\nsamples = 1\nvalue = 109.626"] ;
65 -> 67 ;
68 [label="mse = 0.0\nsamples = 1\nvalue = 99.397"] ;
64 -> 68 ;
69 [label="complexity <= 180.0\nmse = 21.4\nsamples = 2\nvalue = 81.17"] ;
63 -> 69 ;
70 [label="mse = 0.0\nsamples = 1\nvalue = 85.796"] ;
69 -> 70 ;
71 [label="mse = -0.0\nsamples = 1\nvalue = 76.544"] ;
69 -> 71 ;
72 [label="h_bond_donor_count <= 3.5\nmse = 2077.675\nsamples = 2\nvalue = 70.842"] ;
4 -> 72 ;
73 [label="mse = 0.0\nsamples = 1\nvalue = 6.38"] ;
72 -> 73 ;
74 [label="mse = 0.0\nsamples = 1\nvalue = 103.073"] ;
72 -> 74 ;
75 [label="tpsa <= 103.5\nmse = 554.084\nsamples = 116\nvalue = 92.052"] ;
3 -> 75 ;
76 [label="exact_mass <= 306.08\nmse = 647.902\nsamples = 70\nvalue = 87.723"] ;
75 -> 76 ;
77 [label="rotable_bond_count <= 7.5\nmse = 729.589\nsamples = 45\nvalue = 83.61"] ;
76 -> 77 ;
78 [label="monoisotopic_mass <= 304.579\nmse = 653.594\nsamples = 44\nvalue = 85.16"] ;
77 -> 78 ;
79 [label="atom_stereo_count <= 2.5\nmse = 572.766\nsamples = 43\nvalue = 86.238"] ;
78 -> 79 ;
80 [label="complexity <= 237.5\nmse = 370.997\nsamples = 36\nvalue = 89.714"] ;
79 -> 80 ;
81 [label="mse = 0.0\nsamples = 1\nvalue = 45.297"] ;
80 -> 81 ;
82 [label="monoisotopic_mass <= 214.085\nmse = 318.156\nsamples = 35\nvalue = 91.124"] ;
80 -> 82 ;
83 [label="rotable_bond_count <= 0.5\nmse = 928.106\nsamples = 8\nvalue = 82.422"] ;
82 -> 83 ;
84 [label="exact_mass <= 179.046\nmse = 1169.366\nsamples = 2\nvalue = 39.04"] ;
83 -> 84 ;
85 [label="mse = 0.0\nsamples = 1\nvalue = 73.236"] ;
84 -> 85 ;
86 [label="mse = 0.0\nsamples = 1\nvalue = 4.844"] ;
84 -> 86 ;
87 [label="monoisotopic_mass <= 213.083\nmse = 479.85\nsamples = 6\nvalue = 90.309"] ;
83 -> 87 ;
88 [label="molecular_weight <= 165.15\nmse = 45.807\nsamples = 5\nvalue = 96.929"] ;
87 -> 88 ;
89 [label="mse = 0.0\nsamples = 1\nvalue = 112.746"] ;
88 -> 89 ;
90 [label="xlogp <= 0.65\nmse = 20.01\nsamples = 4\nvalue = 95.172"] ;
88 -> 90 ;
91 [label="molecular_weight <= 212.205\nmse = 14.431\nsamples = 3\nvalue = 92.892"] ;
90 -> 91 ;
92 [label="h_bond_acceptor_count <= 3.5\nmse = 6.113\nsamples = 2\nvalue = 91.526"] ;
91 -> 92 ;
93 [label="mse = 0.0\nsamples = 1\nvalue = 86.581"] ;
92 -> 93 ;
94 [label="mse = 0.0\nsamples = 1\nvalue = 92.762"] ;
92 -> 94 ;
95 [label="mse = -0.0\nsamples = 1\nvalue = 99.725"] ;
91 -> 95 ;
96 [label="mse = -0.0\nsamples = 1\nvalue = 99.73"] ;
90 -> 96 ;
97 [label="mse = 0.0\nsamples = 1\nvalue = 24.112"] ;
87 -> 97 ;
98 [label="monoisotopic_mass <= 280.627\nmse = 134.76\nsamples = 27\nvalue = 93.387"] ;
82 -> 98 ;
99 [label="bond_stereo_count <= 0.5\nmse = 64.058\nsamples = 22\nvalue = 95.401"] ;
98 -> 99 ;
100 [label="complexity <= 443.0\nmse = 63.24\nsamples = 20\nvalue = 97.215"] ;
99 -> 100 ;
101 [label="complexity <= 271.0\nmse = 54.374\nsamples = 19\nvalue = 97.769"] ;
100 -> 101 ;
102 [label="rotable_bond_count <= 3.5\nmse = 42.451\nsamples = 5\nvalue = 93.518"] ;
101 -> 102 ;
103 [label="complexity <= 250.0\nmse = 5.697\nsamples = 4\nvalue = 96.134"] ;
102 -> 103 ;
104 [label="molecular_weight <= 227.98\nmse = 0.544\nsamples = 2\nvalue = 98.57"] ;
103 -> 104 ;
105 [label="mse = 0.0\nsamples = 1\nvalue = 99.172"] ;
104 -> 105 ;
106 [label="mse = 0.0\nsamples = 1\nvalue = 97.667"] ;
104 -> 106 ;
107 [label="covalent_unit_count <= 1.5\nmse = 0.925\nsamples = 2\nvalue = 94.104"] ;
103 -> 107 ;
108 [label="mse = 0.0\nsamples = 1\nvalue = 95.066"] ;
107 -> 108 ;
109 [label="mse = -0.0\nsamples = 1\nvalue = 93.142"] ;
107 -> 109 ;
110 [label="mse = -0.0\nsamples = 1\nvalue = 79.132"] ;
102 -> 110 ;
111 [label="heavy_atom_count <= 19.5\nmse = 43.645\nsamples = 14\nvalue = 100.4"] ;
101 -> 111 ;
112 [label="monoisotopic_mass <= 266.634\nmse = 28.904\nsamples = 13\nvalue = 101.757"] ;
111 -> 112 ;
113 [label="monoisotopic_mass <= 257.046\nmse = 18.166\nsamples = 11\nvalue = 100.717"] ;
112 -> 113 ;
114 [label="heavy_atom_count <= 16.5\nmse = 13.472\nsamples = 9\nvalue = 102.246"] ;
113 -> 114 ;
115 [label="h_bond_donor_count <= 1.5\nmse = 0.959\nsamples = 3\nvalue = 99.887"] ;
114 -> 115 ;
116 [label="mse = 0.0\nsamples = 1\nvalue = 101.409"] ;
115 -> 116 ;
117 [label="exact_mass <= 222.082\nmse = 0.046\nsamples = 2\nvalue = 99.279"] ;
115 -> 117 ;
118 [label="mse = 0.0\nsamples = 1\nvalue = 99.104"] ;
117 -> 118 ;
119 [label="mse = 0.0\nsamples = 1\nvalue = 99.541"] ;
117 -> 119 ;
120 [label="h_bond_acceptor_count <= 2.5\nmse = 14.01\nsamples = 6\nvalue = 104.998"] ;
114 -> 120 ;
121 [label="mse = 0.0\nsamples = 1\nvalue = 112.523"] ;
120 -> 121 ;
122 [label="h_bond_acceptor_count <= 3.5\nmse = 3.22\nsamples = 5\nvalue = 103.493"] ;
120 -> 122 ;
123 [label="xlogp <= 0.75\nmse = 0.14\nsamples = 2\nvalue = 101.325"] ;
122 -> 123 ;
124 [label="mse = 0.0\nsamples = 1\nvalue = 100.951"] ;
123 -> 124 ;
125 [label="mse = 0.0\nsamples = 1\nvalue = 101.699"] ;
123 -> 125 ;
126 [label="atom_stereo_count <= 1.5\nmse = 0.054\nsamples = 3\nvalue = 104.938"] ;
122 -> 126 ;
127 [label="tpsa <= 88.85\nmse = 0.003\nsamples = 2\nvalue = 105.098"] ;
126 -> 127 ;
128 [label="mse = 0.0\nsamples = 1\nvalue = 105.151"] ;
127 -> 128 ;
129 [label="mse = 0.0\nsamples = 1\nvalue = 105.046"] ;
127 -> 129 ;
130 [label="mse = -0.0\nsamples = 1\nvalue = 104.616"] ;
126 -> 130 ;
131 [label="exact_mass <= 260.122\nmse = 1.135\nsamples = 2\nvalue = 95.748"] ;
113 -> 131 ;
132 [label="mse = 0.0\nsamples = 1\nvalue = 94.683"] ;
131 -> 132 ;
133 [label="mse = -0.0\nsamples = 1\nvalue = 96.814"] ;
131 -> 133 ;
134 [label="atom_stereo_count <= 0.5\nmse = 32.787\nsamples = 2\nvalue = 110.6"] ;
112 -> 134 ;
135 [label="mse = 0.0\nsamples = 1\nvalue = 104.874"] ;
134 -> 135 ;
136 [label="mse = -0.0\nsamples = 1\nvalue = 116.326"] ;
134 -> 136 ;
137 [label="mse = 0.0\nsamples = 1\nvalue = 87.509"] ;
111 -> 137 ;
138 [label="mse = 0.0\nsamples = 1\nvalue = 78.393"] ;
100 -> 138 ;
139 [label="heavy_atom_count <= 17.0\nmse = 4.665\nsamples = 2\nvalue = 88.346"] ;
99 -> 139 ;
140 [label="mse = -0.0\nsamples = 1\nvalue = 86.819"] ;
139 -> 140 ;
141 [label="mse = -0.0\nsamples = 1\nvalue = 91.401"] ;
139 -> 141 ;
142 [label="molecular_weight <= 286.745\nmse = 405.17\nsamples = 5\nvalue = 78.611"] ;
98 -> 142 ;
143 [label="monoisotopic_mass <= 282.632\nmse = 198.263\nsamples = 3\nvalue = 66.928"] ;
142 -> 143 ;
144 [label="heavy_atom_count <= 19.5\nmse = 1.597\nsamples = 2\nvalue = 75.033"] ;
143 -> 144 ;
145 [label="mse = 0.0\nsamples = 1\nvalue = 75.927"] ;
144 -> 145 ;
146 [label="mse = 0.0\nsamples = 1\nvalue = 73.246"] ;
144 -> 146 ;
147 [label="mse = -0.0\nsamples = 1\nvalue = 42.614"] ;
143 -> 147 ;
148 [label="h_bond_donor_count <= 1.5\nmse = 0.028\nsamples = 2\nvalue = 101.977"] ;
142 -> 148 ;
149 [label="mse = 0.0\nsamples = 1\nvalue = 102.146"] ;
148 -> 149 ;
150 [label="mse = 0.0\nsamples = 1\nvalue = 101.809"] ;
148 -> 150 ;
151 [label="complexity <= 346.0\nmse = 1271.674\nsamples = 7\nvalue = 65.696"] ;
79 -> 151 ;
152 [label="mse = 0.0\nsamples = 1\nvalue = 6.792"] ;
151 -> 152 ;
153 [label="complexity <= 383.5\nmse = 1017.175\nsamples = 6\nvalue = 71.586"] ;
151 -> 153 ;
154 [label="molecular_weight <= 244.21\nmse = 74.99\nsamples = 2\nvalue = 103.217"] ;
153 -> 154 ;
155 [label="mse = 0.0\nsamples = 1\nvalue = 90.97"] ;
154 -> 155 ;
156 [label="mse = 0.0\nsamples = 1\nvalue = 109.34"] ;
154 -> 156 ;
157 [label="h_bond_donor_count <= 1.5\nmse = 808.438\nsamples = 4\nvalue = 58.031"] ;
153 -> 157 ;
158 [label="mse = 0.0\nsamples = 1\nvalue = 97.39"] ;
157 -> 158 ;
159 [label="complexity <= 390.0\nmse = 264.287\nsamples = 3\nvalue = 42.287"] ;
157 -> 159 ;
160 [label="mse = 0.0\nsamples = 1\nvalue = 11.093"] ;
159 -> 160 ;
161 [label="exact_mass <= 278.557\nmse = 26.276\nsamples = 2\nvalue = 50.086"] ;
159 -> 161 ;
162 [label="mse = 0.0\nsamples = 1\nvalue = 47.126"] ;
161 -> 162 ;
163 [label="mse = 0.0\nsamples = 1\nvalue = 58.964"] ;
161 -> 163 ;
164 [label="mse = 0.0\nsamples = 1\nvalue = 3.256"] ;
78 -> 164 ;
165 [label="mse = 0.0\nsamples = 1\nvalue = 23.92"] ;
77 -> 165 ;
166 [label="molecular_weight <= 331.57\nmse = 327.443\nsamples = 25\nvalue = 97.28"] ;
76 -> 166 ;
167 [label="molecular_weight <= 323.6\nmse = 120.747\nsamples = 15\nvalue = 103.689"] ;
166 -> 167 ;
168 [label="exact_mass <= 321.629\nmse = 109.266\nsamples = 11\nvalue = 99.717"] ;
167 -> 168 ;
169 [label="complexity <= 322.0\nmse = 81.137\nsamples = 10\nvalue = 101.409"] ;
168 -> 169 ;
170 [label="exact_mass <= 316.075\nmse = 0.019\nsamples = 2\nvalue = 106.652"] ;
169 -> 170 ;
171 [label="mse = 0.0\nsamples = 1\nvalue = 106.893"] ;
170 -> 171 ;
172 [label="mse = -0.0\nsamples = 1\nvalue = 106.572"] ;
170 -> 172 ;
173 [label="complexity <= 348.5\nmse = 101.078\nsamples = 8\nvalue = 98.788"] ;
169 -> 173 ;
174 [label="molecular_weight <= 314.795\nmse = 25.624\nsamples = 2\nvalue = 86.98"] ;
173 -> 174 ;
175 [label="mse = 0.0\nsamples = 1\nvalue = 81.918"] ;
174 -> 175 ;
176 [label="mse = 0.0\nsamples = 1\nvalue = 92.042"] ;
174 -> 176 ;
177 [label="complexity <= 479.5\nmse = 64.266\nsamples = 6\nvalue = 102.723"] ;
173 -> 177 ;
178 [label="rotable_bond_count <= 4.5\nmse = 14.868\nsamples = 3\nvalue = 108.477"] ;
177 -> 178 ;
179 [label="heavy_atom_count <= 22.5\nmse = 5.555\nsamples = 2\nvalue = 106.114"] ;
178 -> 179 ;
180 [label="mse = 0.0\nsamples = 1\nvalue = 108.471"] ;
179 -> 180 ;
181 [label="mse = 0.0\nsamples = 1\nvalue = 103.757"] ;
179 -> 181 ;
182 [label="mse = -0.0\nsamples = 1\nvalue = 113.202"] ;
178 -> 182 ;
183 [label="molecular_weight <= 313.885\nmse = 47.462\nsamples = 3\nvalue = 96.97"] ;
177 -> 183 ;
184 [label="mse = 0.0\nsamples = 1\nvalue = 88.346"] ;
183 -> 184 ;
185 [label="molecular_weight <= 317.86\nmse = 15.413\nsamples = 2\nvalue = 101.282"] ;
183 -> 185 ;
186 [label="mse = 0.0\nsamples = 1\nvalue = 105.208"] ;
185 -> 186 ;
187 [label="mse = -0.0\nsamples = 1\nvalue = 97.356"] ;
185 -> 187 ;
188 [label="mse = 0.0\nsamples = 1\nvalue = 79.408"] ;
168 -> 188 ;
189 [label="tpsa <= 46.05\nmse = 37.336\nsamples = 4\nvalue = 112.297"] ;
167 -> 189 ;
190 [label="molecular_weight <= 327.1\nmse = 1.869\nsamples = 2\nvalue = 103.786"] ;
189 -> 190 ;
191 [label="mse = 0.0\nsamples = 1\nvalue = 105.153"] ;
190 -> 191 ;
192 [label="mse = -0.0\nsamples = 1\nvalue = 102.419"] ;
190 -> 192 ;
193 [label="atom_stereo_count <= 1.0\nmse = 0.743\nsamples = 2\nvalue = 116.552"] ;
189 -> 193 ;
194 [label="mse = 0.0\nsamples = 1\nvalue = 115.06"] ;
193 -> 194 ;
195 [label="mse = 0.0\nsamples = 1\nvalue = 117.05"] ;
193 -> 195 ;
196 [label="h_bond_donor_count <= 2.5\nmse = 471.326\nsamples = 10\nvalue = 89.162"] ;
166 -> 196 ;
197 [label="rotable_bond_count <= 5.0\nmse = 142.84\nsamples = 8\nvalue = 98.456"] ;
196 -> 197 ;
198 [label="exact_mass <= 342.658\nmse = 16.141\nsamples = 4\nvalue = 111.291"] ;
197 -> 198 ;
199 [label="mse = 0.0\nsamples = 1\nvalue = 104.391"] ;
198 -> 199 ;
200 [label="tpsa <= 56.05\nmse = 5.299\nsamples = 3\nvalue = 113.016"] ;
198 -> 200 ;
201 [label="mse = 0.0\nsamples = 1\nvalue = 116.866"] ;
200 -> 201 ;
202 [label="molecular_weight <= 353.47\nmse = 0.476\nsamples = 2\nvalue = 111.732"] ;
200 -> 202 ;
203 [label="mse = 0.0\nsamples = 1\nvalue = 112.22"] ;
202 -> 203 ;
204 [label="mse = -0.0\nsamples = 1\nvalue = 110.756"] ;
202 -> 204 ;
205 [label="complexity <= 336.5\nmse = 31.646\nsamples = 4\nvalue = 89.289"] ;
197 -> 205 ;
206 [label="atom_stereo_count <= 2.0\nmse = 1.681\nsamples = 2\nvalue = 92.351"] ;
205 -> 206 ;
207 [label="mse = 0.0\nsamples = 1\nvalue = 94.596"] ;
206 -> 207 ;
208 [label="mse = 0.0\nsamples = 1\nvalue = 91.602"] ;
206 -> 208 ;
209 [label="molecular_weight <= 338.7\nmse = 42.443\nsamples = 2\nvalue = 85.207"] ;
205 -> 209 ;
210 [label="mse = 0.0\nsamples = 1\nvalue = 89.814"] ;
209 -> 210 ;
211 [label="mse = -0.0\nsamples = 1\nvalue = 75.994"] ;
209 -> 211 ;
212 [label="exact_mass <= 337.15\nmse = 57.645\nsamples = 2\nvalue = 51.986"] ;
196 -> 212 ;
213 [label="mse = 0.0\nsamples = 1\nvalue = 46.617"] ;
212 -> 213 ;
214 [label="mse = 0.0\nsamples = 1\nvalue = 62.723"] ;
212 -> 214 ;
215 [label="h_bond_donor_count <= 6.5\nmse = 323.543\nsamples = 46\nvalue = 99.04"] ;
75 -> 215 ;
216 [label="atom_stereo_count <= 0.5\nmse = 190.361\nsamples = 42\nvalue = 100.709"] ;
215 -> 216 ;
217 [label="xlogp <= -1.4\nmse = 309.985\nsamples = 17\nvalue = 94.798"] ;
216 -> 217 ;
218 [label="exact_mass <= 237.051\nmse = 195.534\nsamples = 3\nvalue = 73.141"] ;
217 -> 218 ;
219 [label="mse = 0.0\nsamples = 1\nvalue = 57.072"] ;
218 -> 219 ;
220 [label="exact_mass <= 273.509\nmse = 38.973\nsamples = 2\nvalue = 83.854"] ;
218 -> 220 ;
221 [label="mse = 0.0\nsamples = 1\nvalue = 92.683"] ;
220 -> 221 ;
222 [label="mse = 0.0\nsamples = 1\nvalue = 79.44"] ;
220 -> 222 ;
223 [label="xlogp <= 1.3\nmse = 165.125\nsamples = 14\nvalue = 101.168"] ;
217 -> 223 ;
224 [label="tpsa <= 140.0\nmse = 34.09\nsamples = 13\nvalue = 104.052"] ;
223 -> 224 ;
225 [label="xlogp <= 0.4\nmse = 23.259\nsamples = 10\nvalue = 106.272"] ;
224 -> 225 ;
226 [label="monoisotopic_mass <= 196.047\nmse = 8.546\nsamples = 5\nvalue = 108.275"] ;
225 -> 226 ;
227 [label="mse = 0.0\nsamples = 1\nvalue = 102.349"] ;
226 -> 227 ;
228 [label="xlogp <= 0.25\nmse = 1.826\nsamples = 4\nvalue = 109.461"] ;
226 -> 228 ;
229 [label="complexity <= 332.5\nmse = 0.377\nsamples = 2\nvalue = 110.968"] ;
228 -> 229 ;
230 [label="mse = 0.0\nsamples = 1\nvalue = 110.354"] ;
229 -> 230 ;
231 [label="mse = 0.0\nsamples = 1\nvalue = 111.582"] ;
229 -> 231 ;
232 [label="exact_mass <= 268.485\nmse = 0.267\nsamples = 2\nvalue = 108.456"] ;
228 -> 232 ;
233 [label="mse = 0.0\nsamples = 1\nvalue = 108.09"] ;
232 -> 233 ;
234 [label="mse = 0.0\nsamples = 1\nvalue = 109.187"] ;
232 -> 234 ;
235 [label="xlogp <= 0.55\nmse = 29.942\nsamples = 5\nvalue = 104.268"] ;
225 -> 235 ;
236 [label="mse = 0.0\nsamples = 1\nvalue = 93.506"] ;
235 -> 236 ;
237 [label="xlogp <= 0.8\nmse = 8.133\nsamples = 4\nvalue = 106.421"] ;
235 -> 237 ;
238 [label="rotable_bond_count <= 6.0\nmse = 2.869\nsamples = 2\nvalue = 104.355"] ;
237 -> 238 ;
239 [label="mse = 0.0\nsamples = 1\nvalue = 101.96"] ;
238 -> 239 ;
240 [label="mse = 0.0\nsamples = 1\nvalue = 105.553"] ;
238 -> 240 ;
241 [label="tpsa <= 121.5\nmse = 0.034\nsamples = 2\nvalue = 109.518"] ;
237 -> 241 ;
242 [label="mse = 0.0\nsamples = 1\nvalue = 109.333"] ;
241 -> 242 ;
243 [label="mse = 0.0\nsamples = 1\nvalue = 109.704"] ;
241 -> 243 ;
244 [label="exact_mass <= 327.541\nmse = 7.441\nsamples = 3\nvalue = 97.392"] ;
224 -> 244 ;
245 [label="complexity <= 430.0\nmse = 1.598\nsamples = 2\nvalue = 95.949"] ;
244 -> 245 ;
246 [label="mse = 0.0\nsamples = 1\nvalue = 94.161"] ;
245 -> 246 ;
247 [label="mse = 0.0\nsamples = 1\nvalue = 96.843"] ;
245 -> 247 ;
248 [label="mse = 0.0\nsamples = 1\nvalue = 101.719"] ;
244 -> 248 ;
249 [label="mse = 0.0\nsamples = 1\nvalue = 55.031"] ;
223 -> 249 ;
250 [label="tpsa <= 143.5\nmse = 104.348\nsamples = 25\nvalue = 103.664"] ;
216 -> 250 ;
251 [label="xlogp <= -1.95\nmse = 108.037\nsamples = 19\nvalue = 101.509"] ;
250 -> 251 ;
252 [label="h_bond_acceptor_count <= 5.5\nmse = 79.837\nsamples = 3\nvalue = 108.66"] ;
251 -> 252 ;
253 [label="mse = -0.0\nsamples = 1\nvalue = 98.928"] ;
252 -> 253 ;
254 [label="rotable_bond_count <= 3.0\nmse = 15.406\nsamples = 2\nvalue = 115.959"] ;
252 -> 254 ;
255 [label="mse = 0.0\nsamples = 1\nvalue = 119.884"] ;
254 -> 255 ;
256 [label="mse = 0.0\nsamples = 1\nvalue = 112.034"] ;
254 -> 256 ;
257 [label="heavy_atom_count <= 15.5\nmse = 98.653\nsamples = 16\nvalue = 99.655"] ;
251 -> 257 ;
258 [label="rotable_bond_count <= 4.0\nmse = 84.448\nsamples = 3\nvalue = 108.061"] ;
257 -> 258 ;
259 [label="mse = 0.0\nsamples = 1\nvalue = 97.049"] ;
258 -> 259 ;
260 [label="molecular_weight <= 234.265\nmse = 6.018\nsamples = 2\nvalue = 115.402"] ;
258 -> 260 ;
261 [label="mse = 0.0\nsamples = 1\nvalue = 113.667"] ;
260 -> 261 ;
262 [label="mse = 0.0\nsamples = 1\nvalue = 118.871"] ;
260 -> 262 ;
263 [label="xlogp <= -1.25\nmse = 82.176\nsamples = 13\nvalue = 97.745"] ;
257 -> 263 ;
264 [label="mse = 0.0\nsamples = 1\nvalue = 73.864"] ;
263 -> 264 ;
265 [label="tpsa <= 120.5\nmse = 57.639\nsamples = 12\nvalue = 98.882"] ;
263 -> 265 ;
266 [label="atom_stereo_count <= 5.5\nmse = 27.271\nsamples = 7\nvalue = 103.365"] ;
265 -> 266 ;
267 [label="monoisotopic_mass <= 305.126\nmse = 7.17\nsamples = 6\nvalue = 101.993"] ;
266 -> 267 ;
268 [label="molecular_weight <= 273.775\nmse = 2.766\nsamples = 4\nvalue = 100.642"] ;
267 -> 268 ;
269 [label="h_bond_donor_count <= 2.5\nmse = 1.274\nsamples = 2\nvalue = 99.196"] ;
268 -> 269 ;
270 [label="mse = 0.0\nsamples = 1\nvalue = 99.848"] ;
269 -> 270 ;
271 [label="mse = 0.0\nsamples = 1\nvalue = 97.241"] ;
269 -> 271 ;
272 [label="heavy_atom_count <= 21.5\nmse = 0.076\nsamples = 2\nvalue = 102.088"] ;
268 -> 272 ;
273 [label="mse = 0.0\nsamples = 1\nvalue = 101.812"] ;
272 -> 273 ;
274 [label="mse = 0.0\nsamples = 1\nvalue = 102.364"] ;
272 -> 274 ;
275 [label="h_bond_acceptor_count <= 5.5\nmse = 1.071\nsamples = 2\nvalue = 105.596"] ;
267 -> 275 ;
276 [label="mse = 0.0\nsamples = 1\nvalue = 104.864"] ;
275 -> 276 ;
277 [label="mse = -0.0\nsamples = 1\nvalue = 107.059"] ;
275 -> 277 ;
278 [label="mse = 0.0\nsamples = 1\nvalue = 118.454"] ;
266 -> 278 ;
279 [label="monoisotopic_mass <= 302.558\nmse = 35.611\nsamples = 5\nvalue = 92.905"] ;
265 -> 279 ;
280 [label="mse = 0.0\nsamples = 1\nvalue = 78.225"] ;
279 -> 280 ;
281 [label="molecular_weight <= 359.29\nmse = 9.757\nsamples = 4\nvalue = 94.74"] ;
279 -> 281 ;
282 [label="atom_stereo_count <= 1.5\nmse = 2.195\nsamples = 3\nvalue = 95.798"] ;
281 -> 282 ;
283 [label="mse = 0.0\nsamples = 1\nvalue = 96.953"] ;
282 -> 283 ;
284 [label="h_bond_acceptor_count <= 6.5\nmse = 0.973\nsamples = 2\nvalue = 94.258"] ;
282 -> 284 ;
285 [label="mse = 0.0\nsamples = 1\nvalue = 92.863"] ;
284 -> 285 ;
286 [label="mse = 0.0\nsamples = 1\nvalue = 94.956"] ;
284 -> 286 ;
287 [label="mse = -0.0\nsamples = 1\nvalue = 87.334"] ;
281 -> 287 ;
288 [label="xlogp <= -2.9\nmse = 22.323\nsamples = 6\nvalue = 110.992"] ;
250 -> 288 ;
289 [label="mse = 0.0\nsamples = 1\nvalue = 100.544"] ;
288 -> 289 ;
290 [label="xlogp <= -0.85\nmse = 11.328\nsamples = 5\nvalue = 112.152"] ;
288 -> 290 ;
291 [label="exact_mass <= 245.604\nmse = 0.281\nsamples = 3\nvalue = 109.89"] ;
290 -> 291 ;
292 [label="mse = 0.0\nsamples = 1\nvalue = 110.531"] ;
291 -> 292 ;
293 [label="xlogp <= -1.6\nmse = 0.013\nsamples = 2\nvalue = 109.463"] ;
291 -> 293 ;
294 [label="mse = 0.0\nsamples = 1\nvalue = 109.624"] ;
293 -> 294 ;
295 [label="mse = 0.0\nsamples = 1\nvalue = 109.383"] ;
293 -> 295 ;
296 [label="atom_stereo_count <= 2.5\nmse = 10.745\nsamples = 2\nvalue = 114.98"] ;
290 -> 296 ;
297 [label="mse = 0.0\nsamples = 1\nvalue = 111.702"] ;
296 -> 297 ;
298 [label="mse = 0.0\nsamples = 1\nvalue = 118.258"] ;
296 -> 298 ;
299 [label="xlogp <= -3.35\nmse = 1717.151\nsamples = 4\nvalue = 71.509"] ;
215 -> 299 ;
300 [label="monoisotopic_mass <= 325.611\nmse = 2061.387\nsamples = 2\nvalue = 45.402"] ;
299 -> 300 ;
301 [label="mse = 0.0\nsamples = 1\nvalue = 0.0"] ;
300 -> 301 ;
302 [label="mse = 0.0\nsamples = 1\nvalue = 90.805"] ;
300 -> 302 ;
303 [label="atom_stereo_count <= 3.0\nmse = 9.791\nsamples = 2\nvalue = 97.616"] ;
299 -> 303 ;
304 [label="mse = 0.0\nsamples = 1\nvalue = 94.487"] ;
303 -> 304 ;
305 [label="mse = -0.0\nsamples = 1\nvalue = 100.745"] ;
303 -> 305 ;
306 [label="mse = 0.0\nsamples = 1\nvalue = 7.49"] ;
2 -> 306 ;
307 [label="h_bond_donor_count <= 1.5\nmse = 1050.89\nsamples = 160\nvalue = 78.873"] ;
1 -> 307 ;
308 [label="molecular_weight <= 242.485\nmse = 578.441\nsamples = 79\nvalue = 90.345"] ;
307 -> 308 ;
309 [label="tpsa <= 31.3\nmse = 1259.404\nsamples = 11\nvalue = 64.861"] ;
308 -> 309 ;
310 [label="tpsa <= 24.75\nmse = 222.12\nsamples = 4\nvalue = 96.167"] ;
309 -> 310 ;
311 [label="rotable_bond_count <= 2.5\nmse = 1.638\nsamples = 2\nvalue = 109.015"] ;
310 -> 311 ;
312 [label="mse = 0.0\nsamples = 1\nvalue = 111.232"] ;
311 -> 312 ;
313 [label="mse = -0.0\nsamples = 1\nvalue = 108.276"] ;
311 -> 313 ;
314 [label="heavy_atom_count <= 14.0\nmse = 2.506\nsamples = 2\nvalue = 79.035"] ;
310 -> 314 ;
315 [label="mse = 0.0\nsamples = 1\nvalue = 81.274"] ;
314 -> 315 ;
316 [label="mse = 0.0\nsamples = 1\nvalue = 77.916"] ;
314 -> 316 ;
317 [label="tpsa <= 44.95\nmse = 959.3\nsamples = 7\nvalue = 46.599"] ;
309 -> 317 ;
318 [label="molecular_weight <= 228.155\nmse = 36.89\nsamples = 2\nvalue = 23.703"] ;
317 -> 318 ;
319 [label="mse = 0.0\nsamples = 1\nvalue = 16.264"] ;
318 -> 319 ;
320 [label="mse = 0.0\nsamples = 1\nvalue = 28.662"] ;
318 -> 320 ;
321 [label="complexity <= 228.5\nmse = 976.238\nsamples = 5\nvalue = 62.954"] ;
317 -> 321 ;
322 [label="rotable_bond_count <= 3.5\nmse = 102.553\nsamples = 2\nvalue = 36.794"] ;
321 -> 322 ;
323 [label="mse = 0.0\nsamples = 1\nvalue = 42.641"] ;
322 -> 323 ;
324 [label="mse = 0.0\nsamples = 1\nvalue = 19.254"] ;
322 -> 324 ;
325 [label="molecular_weight <= 233.73\nmse = 12.185\nsamples = 3\nvalue = 97.833"] ;
321 -> 325 ;
326 [label="molecular_weight <= 204.715\nmse = 0.0\nsamples = 2\nvalue = 100.301"] ;
325 -> 326 ;
327 [label="mse = 0.0\nsamples = 1\nvalue = 100.295"] ;
326 -> 327 ;
328 [label="mse = 0.0\nsamples = 1\nvalue = 100.307"] ;
326 -> 328 ;
329 [label="mse = -0.0\nsamples = 1\nvalue = 92.896"] ;
325 -> 329 ;
330 [label="bond_stereo_count <= 0.5\nmse = 336.378\nsamples = 68\nvalue = 94.631"] ;
308 -> 330 ;
331 [label="h_bond_acceptor_count <= 7.5\nmse = 161.474\nsamples = 62\nvalue = 98.337"] ;
330 -> 331 ;
332 [label="heavy_atom_count <= 25.5\nmse = 157.207\nsamples = 60\nvalue = 97.55"] ;
331 -> 332 ;
333 [label="molecular_weight <= 267.28\nmse = 106.808\nsamples = 54\nvalue = 98.82"] ;
332 -> 333 ;
334 [label="tpsa <= 40.1\nmse = 26.901\nsamples = 11\nvalue = 105.001"] ;
333 -> 334 ;
335 [label="tpsa <= 36.4\nmse = 16.146\nsamples = 5\nvalue = 108.675"] ;
334 -> 335 ;
336 [label="rotable_bond_count <= 4.0\nmse = 0.268\nsamples = 3\nvalue = 105.453"] ;
335 -> 336 ;
337 [label="h_bond_acceptor_count <= 2.5\nmse = 0.146\nsamples = 2\nvalue = 105.895"] ;
336 -> 337 ;
338 [label="mse = 0.0\nsamples = 1\nvalue = 105.354"] ;
337 -> 338 ;
339 [label="mse = -0.0\nsamples = 1\nvalue = 106.165"] ;
337 -> 339 ;
340 [label="mse = -0.0\nsamples = 1\nvalue = 105.011"] ;
336 -> 340 ;
341 [label="heavy_atom_count <= 18.5\nmse = 1.029\nsamples = 2\nvalue = 113.508"] ;
335 -> 341 ;
342 [label="mse = 0.0\nsamples = 1\nvalue = 114.094"] ;
341 -> 342 ;
343 [label="mse = -0.0\nsamples = 1\nvalue = 111.751"] ;
341 -> 343 ;
344 [label="xlogp <= 2.55\nmse = 7.196\nsamples = 6\nvalue = 100.92"] ;
334 -> 344 ;
345 [label="atom_stereo_count <= 0.5\nmse = 0.817\nsamples = 4\nvalue = 102.707"] ;
344 -> 345 ;
346 [label="xlogp <= 1.85\nmse = 0.168\nsamples = 2\nvalue = 103.29"] ;
345 -> 346 ;
347 [label="mse = 0.0\nsamples = 1\nvalue = 103.7"] ;
346 -> 347 ;
348 [label="mse = 0.0\nsamples = 1\nvalue = 102.88"] ;
346 -> 348 ;
349 [label="rotable_bond_count <= 2.5\nmse = 0.075\nsamples = 2\nvalue = 101.54"] ;
345 -> 349 ;
350 [label="mse = 0.0\nsamples = 1\nvalue = 101.814"] ;
349 -> 350 ;
351 [label="mse = -0.0\nsamples = 1\nvalue = 101.267"] ;
349 -> 351 ;
352 [label="atom_stereo_count <= 1.5\nmse = 0.79\nsamples = 2\nvalue = 97.345"] ;
344 -> 352 ;
353 [label="mse = 0.0\nsamples = 1\nvalue = 97.974"] ;
352 -> 353 ;
354 [label="mse = 0.0\nsamples = 1\nvalue = 96.088"] ;
352 -> 354 ;
355 [label="monoisotopic_mass <= 323.147\nmse = 115.477\nsamples = 43\nvalue = 97.093"] ;
333 -> 355 ;
356 [label="heavy_atom_count <= 21.5\nmse = 77.461\nsamples = 32\nvalue = 94.688"] ;
355 -> 356 ;
357 [label="h_bond_acceptor_count <= 2.5\nmse = 64.636\nsamples = 14\nvalue = 89.945"] ;
356 -> 357 ;
358 [label="complexity <= 246.5\nmse = 39.361\nsamples = 5\nvalue = 82.704"] ;
357 -> 358 ;
359 [label="mse = 0.0\nsamples = 1\nvalue = 70.651"] ;
358 -> 359 ;
360 [label="atom_stereo_count <= 2.5\nmse = 12.37\nsamples = 4\nvalue = 85.114"] ;
358 -> 360 ;
361 [label="exact_mass <= 307.545\nmse = 2.312\nsamples = 2\nvalue = 88.886"] ;
360 -> 361 ;
362 [label="mse = 0.0\nsamples = 1\nvalue = 87.365"] ;
361 -> 362 ;
363 [label="mse = -0.0\nsamples = 1\nvalue = 90.406"] ;
361 -> 363 ;
364 [label="complexity <= 463.0\nmse = 3.272\nsamples = 2\nvalue = 82.6"] ;
360 -> 364 ;
365 [label="mse = 0.0\nsamples = 1\nvalue = 83.879"] ;
364 -> 365 ;
366 [label="mse = 0.0\nsamples = 1\nvalue = 80.042"] ;
364 -> 366 ;
367 [label="h_bond_acceptor_count <= 4.5\nmse = 43.367\nsamples = 9\nvalue = 93.048"] ;
357 -> 367 ;
368 [label="tpsa <= 65.7\nmse = 8.948\nsamples = 4\nvalue = 99.701"] ;
367 -> 368 ;
369 [label="monoisotopic_mass <= 281.1\nmse = 2.972\nsamples = 3\nvalue = 97.515"] ;
368 -> 369 ;
370 [label="monoisotopic_mass <= 274.092\nmse = 0.084\nsamples = 2\nvalue = 98.722"] ;
369 -> 370 ;
371 [label="mse = 0.0\nsamples = 1\nvalue = 99.012"] ;
370 -> 371 ;
372 [label="mse = 0.0\nsamples = 1\nvalue = 98.433"] ;
370 -> 372 ;
373 [label="mse = 0.0\nsamples = 1\nvalue = 95.1"] ;
369 -> 373 ;
374 [label="mse = -0.0\nsamples = 1\nvalue = 102.979"] ;
368 -> 374 ;
375 [label="exact_mass <= 302.602\nmse = 24.24\nsamples = 5\nvalue = 89.352"] ;
367 -> 375 ;
376 [label="heavy_atom_count <= 20.5\nmse = 5.033\nsamples = 4\nvalue = 90.924"] ;
375 -> 376 ;
377 [label="h_bond_donor_count <= 0.5\nmse = 0.755\nsamples = 2\nvalue = 88.888"] ;
376 -> 377 ;
378 [label="mse = 0.0\nsamples = 1\nvalue = 88.386"] ;
377 -> 378 ;
379 [label="mse = 0.0\nsamples = 1\nvalue = 90.392"] ;
377 -> 379 ;
380 [label="complexity <= 362.0\nmse = 1.02\nsamples = 2\nvalue = 92.96"] ;
376 -> 380 ;
381 [label="mse = 0.0\nsamples = 1\nvalue = 91.211"] ;
380 -> 381 ;
382 [label="mse = 0.0\nsamples = 1\nvalue = 93.543"] ;
380 -> 382 ;
383 [label="mse = -0.0\nsamples = 1\nvalue = 76.777"] ;
375 -> 383 ;
384 [label="atom_stereo_count <= 6.5\nmse = 60.084\nsamples = 18\nvalue = 97.96"] ;
356 -> 384 ;
385 [label="xlogp <= 2.05\nmse = 49.708\nsamples = 17\nvalue = 97.303"] ;
384 -> 385 ;
386 [label="xlogp <= 1.85\nmse = 5.641\nsamples = 2\nvalue = 85.759"] ;
385 -> 386 ;
387 [label="mse = 0.0\nsamples = 1\nvalue = 88.134"] ;
386 -> 387 ;
388 [label="mse = -0.0\nsamples = 1\nvalue = 83.384"] ;
386 -> 388 ;
389 [label="xlogp <= 2.25\nmse = 42.058\nsamples = 15\nvalue = 98.191"] ;
385 -> 389 ;
390 [label="mse = 0.0\nsamples = 1\nvalue = 121.811"] ;
389 -> 390 ;
391 [label="xlogp <= 2.75\nmse = 20.531\nsamples = 14\nvalue = 97.246"] ;
389 -> 391 ;
392 [label="h_bond_acceptor_count <= 2.5\nmse = 15.989\nsamples = 6\nvalue = 93.864"] ;
391 -> 392 ;
393 [label="mse = 0.0\nsamples = 1\nvalue = 104.71"] ;
392 -> 393 ;
394 [label="complexity <= 416.0\nmse = 1.445\nsamples = 5\nvalue = 92.508"] ;
392 -> 394 ;
395 [label="rotable_bond_count <= 4.5\nmse = 0.137\nsamples = 2\nvalue = 93.767"] ;
394 -> 395 ;
396 [label="mse = 0.0\nsamples = 1\nvalue = 94.029"] ;
395 -> 396 ;
397 [label="mse = -0.0\nsamples = 1\nvalue = 93.244"] ;
395 -> 397 ;
398 [label="tpsa <= 45.65\nmse = 0.708\nsamples = 3\nvalue = 91.753"] ;
394 -> 398 ;
399 [label="mse = 0.0\nsamples = 1\nvalue = 92.741"] ;
398 -> 399 ;
400 [label="monoisotopic_mass <= 293.645\nmse = 0.095\nsamples = 2\nvalue = 91.094"] ;
398 -> 400 ;
401 [label="mse = 0.0\nsamples = 1\nvalue = 91.53"] ;
400 -> 401 ;
402 [label="mse = -0.0\nsamples = 1\nvalue = 90.876"] ;
400 -> 402 ;
403 [label="tpsa <= 39.05\nmse = 13.034\nsamples = 8\nvalue = 99.148"] ;
391 -> 403 ;
404 [label="rotable_bond_count <= 7.0\nmse = 12.136\nsamples = 5\nvalue = 102.168"] ;
403 -> 404 ;
405 [label="complexity <= 594.0\nmse = 3.284\nsamples = 4\nvalue = 103.539"] ;
404 -> 405 ;
406 [label="monoisotopic_mass <= 303.674\nmse = 0.994\nsamples = 3\nvalue = 104.328"] ;
405 -> 406 ;
407 [label="mse = 0.0\nsamples = 1\nvalue = 105.819"] ;
406 -> 407 ;
408 [label="tpsa <= 38.55\nmse = 0.337\nsamples = 2\nvalue = 103.831"] ;
406 -> 408 ;
409 [label="mse = 0.0\nsamples = 1\nvalue = 104.242"] ;
408 -> 409 ;
410 [label="mse = -0.0\nsamples = 1\nvalue = 103.01"] ;
408 -> 410 ;
411 [label="mse = -0.0\nsamples = 1\nvalue = 100.384"] ;
405 -> 411 ;
412 [label="mse = 0.0\nsamples = 1\nvalue = 95.313"] ;
404 -> 412 ;
413 [label="tpsa <= 99.55\nmse = 4.817\nsamples = 3\nvalue = 97.336"] ;
403 -> 413 ;
414 [label="h_bond_acceptor_count <= 3.5\nmse = 0.475\nsamples = 2\nvalue = 98.035"] ;
413 -> 414 ;
415 [label="mse = 0.0\nsamples = 1\nvalue = 98.522"] ;
414 -> 415 ;
416 [label="mse = -0.0\nsamples = 1\nvalue = 97.06"] ;
414 -> 416 ;
417 [label="mse = -0.0\nsamples = 1\nvalue = 91.051"] ;
413 -> 417 ;
418 [label="mse = 0.0\nsamples = 1\nvalue = 116.359"] ;
384 -> 418 ;
419 [label="rotable_bond_count <= 4.5\nmse = 160.131\nsamples = 11\nvalue = 103.296"] ;
355 -> 419 ;
420 [label="tpsa <= 34.8\nmse = 43.794\nsamples = 6\nvalue = 113.582"] ;
419 -> 420 ;
421 [label="complexity <= 451.5\nmse = 4.205\nsamples = 3\nvalue = 109.288"] ;
420 -> 421 ;
422 [label="exact_mass <= 335.119\nmse = 0.169\nsamples = 2\nvalue = 110.19"] ;
421 -> 422 ;
423 [label="mse = -0.0\nsamples = 1\nvalue = 110.525"] ;
422 -> 423 ;
424 [label="mse = -0.0\nsamples = 1\nvalue = 109.687"] ;
422 -> 424 ;
425 [label="mse = 0.0\nsamples = 1\nvalue = 104.78"] ;
421 -> 425 ;
426 [label="xlogp <= 3.65\nmse = 12.343\nsamples = 3\nvalue = 122.17"] ;
420 -> 426 ;
427 [label="tpsa <= 56.45\nmse = 1.293\nsamples = 2\nvalue = 124.566"] ;
426 -> 427 ;
428 [label="mse = 0.0\nsamples = 1\nvalue = 123.429"] ;
427 -> 428 ;
429 [label="mse = 0.0\nsamples = 1\nvalue = 125.703"] ;
427 -> 429 ;
430 [label="mse = 0.0\nsamples = 1\nvalue = 117.378"] ;
426 -> 430 ;
431 [label="h_bond_donor_count <= 0.5\nmse = 83.896\nsamples = 5\nvalue = 94.038"] ;
419 -> 431 ;
432 [label="mse = 0.0\nsamples = 1\nvalue = 76.296"] ;
431 -> 432 ;
433 [label="monoisotopic_mass <= 358.123\nmse = 6.504\nsamples = 4\nvalue = 98.473"] ;
431 -> 433 ;
434 [label="molecular_weight <= 358.05\nmse = 0.633\nsamples = 3\nvalue = 99.395"] ;
433 -> 434 ;
435 [label="complexity <= 449.0\nmse = 0.132\nsamples = 2\nvalue = 99.859"] ;
434 -> 435 ;
436 [label="mse = 0.0\nsamples = 1\nvalue = 100.156"] ;
435 -> 436 ;
437 [label="mse = -0.0\nsamples = 1\nvalue = 99.414"] ;
435 -> 437 ;
438 [label="mse = -0.0\nsamples = 1\nvalue = 98.235"] ;
434 -> 438 ;
439 [label="mse = 0.0\nsamples = 1\nvalue = 92.019"] ;
433 -> 439 ;
440 [label="tpsa <= 64.15\nmse = 514.257\nsamples = 6\nvalue = 81.761"] ;
332 -> 440 ;
441 [label="rotable_bond_count <= 2.5\nmse = 5.492\nsamples = 4\nvalue = 95.581"] ;
440 -> 441 ;
442 [label="mse = 0.0\nsamples = 1\nvalue = 99.405"] ;
441 -> 442 ;
443 [label="xlogp <= 5.05\nmse = 2.295\nsamples = 3\nvalue = 94.625"] ;
441 -> 443 ;
444 [label="tpsa <= 49.85\nmse = 0.187\nsamples = 2\nvalue = 95.472"] ;
443 -> 444 ;
445 [label="mse = 0.0\nsamples = 1\nvalue = 94.861"] ;
444 -> 445 ;
446 [label="mse = -0.0\nsamples = 1\nvalue = 95.778"] ;
444 -> 446 ;
447 [label="mse = 0.0\nsamples = 1\nvalue = 92.082"] ;
443 -> 447 ;
448 [label="molecular_weight <= 345.9\nmse = 115.069\nsamples = 2\nvalue = 47.212"] ;
440 -> 448 ;
449 [label="mse = 0.0\nsamples = 1\nvalue = 57.939"] ;
448 -> 449 ;
450 [label="mse = -0.0\nsamples = 1\nvalue = 36.485"] ;
448 -> 450 ;
451 [label="h_bond_donor_count <= 0.5\nmse = 11.13\nsamples = 2\nvalue = 113.133"] ;
331 -> 451 ;
452 [label="mse = 0.0\nsamples = 1\nvalue = 110.409"] ;
451 -> 452 ;
453 [label="mse = 0.0\nsamples = 1\nvalue = 117.219"] ;
451 -> 453 ;
454 [label="h_bond_donor_count <= 0.5\nmse = 789.075\nsamples = 6\nvalue = 68.42"] ;
330 -> 454 ;
455 [label="mse = 0.0\nsamples = 1\nvalue = 4.285"] ;
454 -> 455 ;
456 [label="h_bond_acceptor_count <= 3.5\nmse = 120.771\nsamples = 5\nvalue = 79.11"] ;
454 -> 456 ;
457 [label="molecular_weight <= 313.4\nmse = 30.955\nsamples = 3\nvalue = 72.305"] ;
456 -> 457 ;
458 [label="mse = -0.0\nsamples = 1\nvalue = 76.607"] ;
457 -> 458 ;
459 [label="atom_stereo_count <= 0.5\nmse = 0.278\nsamples = 2\nvalue = 65.134"] ;
457 -> 459 ;
460 [label="mse = 0.0\nsamples = 1\nvalue = 64.388"] ;
459 -> 460 ;
461 [label="mse = 0.0\nsamples = 1\nvalue = 65.507"] ;
459 -> 461 ;
462 [label="exact_mass <= 296.562\nmse = 22.558\nsamples = 2\nvalue = 92.72"] ;
456 -> 462 ;
463 [label="mse = 0.0\nsamples = 1\nvalue = 97.469"] ;
462 -> 463 ;
464 [label="mse = 0.0\nsamples = 1\nvalue = 87.97"] ;
462 -> 464 ;
465 [label="xlogp <= 2.15\nmse = 1259.534\nsamples = 81\nvalue = 67.488"] ;
307 -> 465 ;
466 [label="heavy_atom_count <= 24.5\nmse = 1889.174\nsamples = 20\nvalue = 48.267"] ;
465 -> 466 ;
467 [label="complexity <= 523.5\nmse = 1541.575\nsamples = 18\nvalue = 37.56"] ;
466 -> 467 ;
468 [label="monoisotopic_mass <= 314.114\nmse = 1578.334\nsamples = 16\nvalue = 49.516"] ;
467 -> 468 ;
469 [label="molecular_weight <= 275.3\nmse = 1227.774\nsamples = 11\nvalue = 34.339"] ;
468 -> 469 ;
470 [label="h_bond_acceptor_count <= 6.0\nmse = 672.361\nsamples = 4\nvalue = 71.333"] ;
469 -> 470 ;
471 [label="h_bond_acceptor_count <= 4.5\nmse = 266.405\nsamples = 3\nvalue = 83.884"] ;
470 -> 471 ;
472 [label="mse = 0.0\nsamples = 1\nvalue = 106.948"] ;
471 -> 472 ;
473 [label="complexity <= 412.0\nmse = 0.634\nsamples = 2\nvalue = 72.352"] ;
471 -> 473 ;
474 [label="mse = 0.0\nsamples = 1\nvalue = 73.148"] ;
473 -> 474 ;
475 [label="mse = 0.0\nsamples = 1\nvalue = 71.555"] ;
473 -> 475 ;
476 [label="mse = -0.0\nsamples = 1\nvalue = 33.681"] ;
470 -> 476 ;
477 [label="tpsa <= 106.5\nmse = 683.565\nsamples = 7\nvalue = 19.542"] ;
469 -> 477 ;
478 [label="exact_mass <= 307.664\nmse = 10.78\nsamples = 3\nvalue = 5.542"] ;
477 -> 478 ;
479 [label="bond_stereo_count <= 1.0\nmse = 0.065\nsamples = 2\nvalue = 4.077"] ;
478 -> 479 ;
480 [label="mse = 0.0\nsamples = 1\nvalue = 3.869"] ;
479 -> 480 ;
481 [label="mse = 0.0\nsamples = 1\nvalue = 4.39"] ;
479 -> 481 ;
482 [label="mse = -0.0\nsamples = 1\nvalue = 12.865"] ;
478 -> 482 ;
483 [label="complexity <= 455.0\nmse = 957.743\nsamples = 4\nvalue = 40.542"] ;
477 -> 483 ;
484 [label="xlogp <= 1.8\nmse = 736.676\nsamples = 3\nvalue = 52.164"] ;
483 -> 484 ;
485 [label="mse = 0.0\nsamples = 1\nvalue = 14.982"] ;
484 -> 485 ;
486 [label="exact_mass <= 289.035\nmse = 68.12\nsamples = 2\nvalue = 70.756"] ;
484 -> 486 ;
487 [label="mse = 0.0\nsamples = 1\nvalue = 79.009"] ;
486 -> 487 ;
488 [label="mse = 0.0\nsamples = 1\nvalue = 62.502"] ;
486 -> 488 ;
489 [label="mse = 0.0\nsamples = 1\nvalue = 5.675"] ;
483 -> 489 ;
490 [label="heavy_atom_count <= 23.5\nmse = 109.242\nsamples = 5\nvalue = 92.01"] ;
468 -> 490 ;
491 [label="molecular_weight <= 328.07\nmse = 7.609\nsamples = 4\nvalue = 97.088"] ;
490 -> 491 ;
492 [label="h_bond_donor_count <= 3.0\nmse = 0.259\nsamples = 2\nvalue = 99.779"] ;
491 -> 492 ;
493 [label="mse = 0.0\nsamples = 1\nvalue = 99.27"] ;
492 -> 493 ;
494 [label="mse = 0.0\nsamples = 1\nvalue = 100.288"] ;
492 -> 494 ;
495 [label="tpsa <= 119.0\nmse = 0.48\nsamples = 2\nvalue = 94.398"] ;
491 -> 495 ;
496 [label="mse = 0.0\nsamples = 1\nvalue = 93.705"] ;
495 -> 496 ;
497 [label="mse = -0.0\nsamples = 1\nvalue = 95.09"] ;
495 -> 497 ;
498 [label="mse = 0.0\nsamples = 1\nvalue = 71.697"] ;
490 -> 498 ;
499 [label="tpsa <= 113.5\nmse = 0.576\nsamples = 2\nvalue = 5.106"] ;
467 -> 499 ;
500 [label="mse = 0.0\nsamples = 1\nvalue = 4.449"] ;
499 -> 500 ;
501 [label="mse = 0.0\nsamples = 1\nvalue = 5.983"] ;
499 -> 501 ;
502 [label="complexity <= 607.0\nmse = 0.225\nsamples = 2\nvalue = 103.947"] ;
466 -> 502 ;
503 [label="mse = 0.0\nsamples = 1\nvalue = 103.56"] ;
502 -> 503 ;
504 [label="mse = 0.0\nsamples = 1\nvalue = 104.528"] ;
502 -> 504 ;
505 [label="molecular_weight <= 299.845\nmse = 921.772\nsamples = 61\nvalue = 73.329"] ;
465 -> 505 ;
506 [label="tpsa <= 69.95\nmse = 465.104\nsamples = 20\nvalue = 85.182"] ;
505 -> 506 ;
507 [label="xlogp <= 4.35\nmse = 240.295\nsamples = 9\nvalue = 97.068"] ;
506 -> 507 ;
508 [label="xlogp <= 2.75\nmse = 104.849\nsamples = 8\nvalue = 99.867"] ;
507 -> 508 ;
509 [label="complexity <= 378.5\nmse = 69.066\nsamples = 6\nvalue = 93.713"] ;
508 -> 509 ;
510 [label="h_bond_acceptor_count <= 3.5\nmse = 31.214\nsamples = 4\nvalue = 98.087"] ;
509 -> 510 ;
511 [label="h_bond_acceptor_count <= 1.5\nmse = 9.936\nsamples = 3\nvalue = 96.142"] ;
510 -> 511 ;
512 [label="mse = 0.0\nsamples = 1\nvalue = 91.693"] ;
511 -> 512 ;
513 [label="atom_stereo_count <= 0.5\nmse = 0.057\nsamples = 2\nvalue = 98.367"] ;
511 -> 513 ;
514 [label="mse = 0.0\nsamples = 1\nvalue = 98.229"] ;
513 -> 514 ;
515 [label="mse = 0.0\nsamples = 1\nvalue = 98.781"] ;
513 -> 515 ;
516 [label="mse = -0.0\nsamples = 1\nvalue = 109.757"] ;
510 -> 516 ;
517 [label="xlogp <= 2.55\nmse = 8.573\nsamples = 2\nvalue = 83.507"] ;
509 -> 517 ;
518 [label="mse = 0.0\nsamples = 1\nvalue = 79.366"] ;
517 -> 518 ;
519 [label="mse = -0.0\nsamples = 1\nvalue = 85.577"] ;
517 -> 519 ;
520 [label="h_bond_acceptor_count <= 5.0\nmse = 43.081\nsamples = 2\nvalue = 107.558"] ;
508 -> 520 ;
521 [label="mse = 0.0\nsamples = 1\nvalue = 111.348"] ;
520 -> 521 ;
522 [label="mse = 0.0\nsamples = 1\nvalue = 96.19"] ;
520 -> 522 ;
523 [label="mse = 0.0\nsamples = 1\nvalue = 46.696"] ;
507 -> 523 ;
524 [label="heavy_atom_count <= 18.5\nmse = 365.084\nsamples = 11\nvalue = 71.068"] ;
506 -> 524 ;
525 [label="h_bond_donor_count <= 3.0\nmse = 2.75\nsamples = 2\nvalue = 47.321"] ;
524 -> 525 ;
526 [label="mse = 0.0\nsamples = 1\nvalue = 44.976"] ;
525 -> 526 ;
527 [label="mse = 0.0\nsamples = 1\nvalue = 48.494"] ;
525 -> 527 ;
528 [label="rotable_bond_count <= 2.5\nmse = 288.54\nsamples = 9\nvalue = 76.548"] ;
524 -> 528 ;
529 [label="tpsa <= 73.85\nmse = 209.193\nsamples = 5\nvalue = 90.495"] ;
528 -> 529 ;
530 [label="mse = 0.0\nsamples = 1\nvalue = 64.181"] ;
529 -> 530 ;
531 [label="h_bond_acceptor_count <= 5.5\nmse = 84.851\nsamples = 4\nvalue = 95.758"] ;
529 -> 531 ;
532 [label="tpsa <= 75.3\nmse = 0.902\nsamples = 3\nvalue = 91.172"] ;
531 -> 532 ;
533 [label="mse = 0.0\nsamples = 1\nvalue = 92.816"] ;
532 -> 533 ;
534 [label="h_bond_donor_count <= 2.5\nmse = 0.001\nsamples = 2\nvalue = 90.623"] ;
532 -> 534 ;
535 [label="mse = 0.0\nsamples = 1\nvalue = 90.668"] ;
534 -> 535 ;
536 [label="mse = 0.0\nsamples = 1\nvalue = 90.601"] ;
534 -> 536 ;
537 [label="mse = 0.0\nsamples = 1\nvalue = 114.102"] ;
531 -> 537 ;
538 [label="complexity <= 525.0\nmse = 46.908\nsamples = 4\nvalue = 64.593"] ;
528 -> 538 ;
539 [label="rotable_bond_count <= 3.5\nmse = 8.848\nsamples = 3\nvalue = 68.622"] ;
538 -> 539 ;
540 [label="mse = 0.0\nsamples = 1\nvalue = 74.192"] ;
539 -> 540 ;
541 [label="complexity <= 386.0\nmse = 1.367\nsamples = 2\nvalue = 67.23"] ;
539 -> 541 ;
542 [label="mse = 0.0\nsamples = 1\nvalue = 66.061"] ;
541 -> 542 ;
543 [label="mse = 0.0\nsamples = 1\nvalue = 68.399"] ;
541 -> 543 ;
544 [label="mse = -0.0\nsamples = 1\nvalue = 54.52"] ;
538 -> 544 ;
545 [label="complexity <= 457.0\nmse = 1048.599\nsamples = 41\nvalue = 67.137"] ;
505 -> 545 ;
546 [label="rotable_bond_count <= 7.5\nmse = 894.732\nsamples = 23\nvalue = 54.046"] ;
545 -> 546 ;
547 [label="complexity <= 442.5\nmse = 755.019\nsamples = 18\nvalue = 44.228"] ;
546 -> 547 ;
548 [label="rotable_bond_count <= 3.5\nmse = 614.245\nsamples = 16\nvalue = 49.333"] ;
547 -> 548 ;
549 [label="monoisotopic_mass <= 356.445\nmse = 267.443\nsamples = 10\nvalue = 40.409"] ;
548 -> 549 ;
550 [label="tpsa <= 86.15\nmse = 126.868\nsamples = 9\nvalue = 37.367"] ;
549 -> 550 ;
551 [label="complexity <= 416.5\nmse = 65.779\nsamples = 6\nvalue = 42.631"] ;
550 -> 551 ;
552 [label="h_bond_acceptor_count <= 3.0\nmse = 0.715\nsamples = 2\nvalue = 33.09"] ;
551 -> 552 ;
553 [label="mse = 0.0\nsamples = 1\nvalue = 33.935"] ;
552 -> 553 ;
554 [label="mse = 0.0\nsamples = 1\nvalue = 32.244"] ;
552 -> 554 ;
555 [label="complexity <= 431.5\nmse = 21.201\nsamples = 4\nvalue = 48.084"] ;
551 -> 555 ;
556 [label="atom_stereo_count <= 2.5\nmse = 0.569\nsamples = 3\nvalue = 49.942"] ;
555 -> 556 ;
557 [label="exact_mass <= 344.112\nmse = 0.003\nsamples = 2\nvalue = 49.605"] ;
556 -> 557 ;
558 [label="mse = 0.0\nsamples = 1\nvalue = 49.54"] ;
557 -> 558 ;
559 [label="mse = 0.0\nsamples = 1\nvalue = 49.649"] ;
557 -> 559 ;
560 [label="mse = 0.0\nsamples = 1\nvalue = 51.625"] ;
556 -> 560 ;
561 [label="mse = 0.0\nsamples = 1\nvalue = 36.936"] ;
555 -> 561 ;
562 [label="xlogp <= 4.5\nmse = 66.139\nsamples = 3\nvalue = 25.785"] ;
550 -> 562 ;
563 [label="rotable_bond_count <= 2.5\nmse = 21.409\nsamples = 2\nvalue = 29.285"] ;
562 -> 563 ;
564 [label="mse = 0.0\nsamples = 1\nvalue = 33.912"] ;
563 -> 564 ;
565 [label="mse = 0.0\nsamples = 1\nvalue = 24.658"] ;
563 -> 565 ;
566 [label="mse = 0.0\nsamples = 1\nvalue = 11.783"] ;
562 -> 566 ;
567 [label="mse = 0.0\nsamples = 1\nvalue = 89.077"] ;
549 -> 567 ;
568 [label="h_bond_donor_count <= 2.5\nmse = 793.285\nsamples = 6\nvalue = 71.007"] ;
548 -> 568 ;
569 [label="complexity <= 398.0\nmse = 10.47\nsamples = 2\nvalue = 102.884"] ;
568 -> 569 ;
570 [label="mse = 0.0\nsamples = 1\nvalue = 98.308"] ;
569 -> 570 ;
571 [label="mse = 0.0\nsamples = 1\nvalue = 105.172"] ;
569 -> 571 ;
572 [label="rotable_bond_count <= 5.5\nmse = 46.721\nsamples = 4\nvalue = 47.099"] ;
568 -> 572 ;
573 [label="h_bond_acceptor_count <= 6.5\nmse = 8.55\nsamples = 2\nvalue = 53.123"] ;
572 -> 573 ;
574 [label="mse = 0.0\nsamples = 1\nvalue = 50.199"] ;
573 -> 574 ;
575 [label="mse = 0.0\nsamples = 1\nvalue = 56.047"] ;
573 -> 575 ;
576 [label="heavy_atom_count <= 23.5\nmse = 12.327\nsamples = 2\nvalue = 41.076"] ;
572 -> 576 ;
577 [label="mse = 0.0\nsamples = 1\nvalue = 44.587"] ;
576 -> 577 ;
578 [label="mse = 0.0\nsamples = 1\nvalue = 37.565"] ;
576 -> 578 ;
579 [label="bond_stereo_count <= 1.0\nmse = 4.45\nsamples = 2\nvalue = 3.384"] ;
547 -> 579 ;
580 [label="mse = 0.0\nsamples = 1\nvalue = 6.367"] ;
579 -> 580 ;
581 [label="mse = 0.0\nsamples = 1\nvalue = 1.892"] ;
579 -> 581 ;
582 [label="atom_stereo_count <= 0.5\nmse = 504.117\nsamples = 5\nvalue = 76.138"] ;
546 -> 582 ;
583 [label="heavy_atom_count <= 24.0\nmse = 94.829\nsamples = 2\nvalue = 101.198"] ;
582 -> 583 ;
584 [label="mse = 0.0\nsamples = 1\nvalue = 110.936"] ;
583 -> 584 ;
585 [label="mse = -0.0\nsamples = 1\nvalue = 91.46"] ;
583 -> 585 ;
586 [label="rotable_bond_count <= 12.0\nmse = 237.771\nsamples = 3\nvalue = 63.609"] ;
582 -> 586 ;
587 [label="h_bond_acceptor_count <= 5.5\nmse = 15.068\nsamples = 2\nvalue = 54.92"] ;
586 -> 587 ;
588 [label="mse = -0.0\nsamples = 1\nvalue = 56.656"] ;
587 -> 588 ;
589 [label="mse = -0.0\nsamples = 1\nvalue = 46.24"] ;
587 -> 589 ;
590 [label="mse = 0.0\nsamples = 1\nvalue = 89.674"] ;
586 -> 590 ;
591 [label="h_bond_donor_count <= 3.5\nmse = 691.731\nsamples = 18\nvalue = 85.371"] ;
545 -> 591 ;
592 [label="rotable_bond_count <= 3.5\nmse = 479.045\nsamples = 17\nvalue = 88.289"] ;
591 -> 592 ;
593 [label="atom_stereo_count <= 3.0\nmse = 454.257\nsamples = 9\nvalue = 77.741"] ;
592 -> 593 ;
594 [label="h_bond_acceptor_count <= 5.5\nmse = 300.501\nsamples = 6\nvalue = 66.849"] ;
593 -> 594 ;
595 [label="rotable_bond_count <= 2.0\nmse = 17.634\nsamples = 3\nvalue = 42.156"] ;
594 -> 595 ;
596 [label="heavy_atom_count <= 24.5\nmse = 4.92\nsamples = 2\nvalue = 39.477"] ;
595 -> 596 ;
597 [label="mse = 0.0\nsamples = 1\nvalue = 41.695"] ;
596 -> 597 ;
598 [label="mse = -0.0\nsamples = 1\nvalue = 37.259"] ;
596 -> 598 ;
599 [label="mse = -0.0\nsamples = 1\nvalue = 47.514"] ;
595 -> 599 ;
600 [label="h_bond_acceptor_count <= 6.5\nmse = 48.429\nsamples = 3\nvalue = 77.431"] ;
594 -> 600 ;
601 [label="complexity <= 547.5\nmse = 2.056\nsamples = 2\nvalue = 81.765"] ;
600 -> 601 ;
602 [label="mse = 0.0\nsamples = 1\nvalue = 80.009"] ;
601 -> 602 ;
603 [label="mse = 0.0\nsamples = 1\nvalue = 82.936"] ;
601 -> 603 ;
604 [label="mse = -0.0\nsamples = 1\nvalue = 66.596"] ;
600 -> 604 ;
605 [label="complexity <= 623.5\nmse = 49.849\nsamples = 3\nvalue = 99.527"] ;
593 -> 605 ;
606 [label="xlogp <= 3.7\nmse = 2.635\nsamples = 2\nvalue = 102.982"] ;
605 -> 606 ;
607 [label="mse = 0.0\nsamples = 1\nvalue = 100.17"] ;
606 -> 607 ;
608 [label="mse = 0.0\nsamples = 1\nvalue = 103.919"] ;
606 -> 608 ;
609 [label="mse = 0.0\nsamples = 1\nvalue = 85.708"] ;
605 -> 609 ;
610 [label="complexity <= 531.0\nmse = 197.151\nsamples = 8\nvalue = 101.473"] ;
592 -> 610 ;
611 [label="xlogp <= 3.0\nmse = 90.96\nsamples = 6\nvalue = 93.401"] ;
610 -> 611 ;
612 [label="tpsa <= 88.0\nmse = 39.347\nsamples = 3\nvalue = 82.18"] ;
611 -> 612 ;
613 [label="mse = 0.0\nsamples = 1\nvalue = 73.428"] ;
612 -> 613 ;
614 [label="h_bond_donor_count <= 2.5\nmse = 1.573\nsamples = 2\nvalue = 86.556"] ;
612 -> 614 ;
615 [label="mse = 0.0\nsamples = 1\nvalue = 85.302"] ;
614 -> 615 ;
616 [label="mse = -0.0\nsamples = 1\nvalue = 87.81"] ;
614 -> 616 ;
617 [label="tpsa <= 96.95\nmse = 1.055\nsamples = 3\nvalue = 100.133"] ;
611 -> 617 ;
618 [label="xlogp <= 3.5\nmse = 0.288\nsamples = 2\nvalue = 100.9"] ;
617 -> 618 ;
619 [label="mse = 0.0\nsamples = 1\nvalue = 101.28"] ;
618 -> 619 ;
620 [label="mse = -0.0\nsamples = 1\nvalue = 100.141"] ;
618 -> 620 ;
621 [label="mse = 0.0\nsamples = 1\nvalue = 98.983"] ;
617 -> 621 ;
622 [label="atom_stereo_count <= 0.5\nmse = 18.585\nsamples = 2\nvalue = 117.617"] ;
610 -> 622 ;
623 [label="mse = 0.0\nsamples = 1\nvalue = 110.15"] ;
622 -> 623 ;
624 [label="mse = 0.0\nsamples = 1\nvalue = 120.106"] ;
622 -> 624 ;
625 [label="mse = -0.0\nsamples = 1\nvalue = 6.603"] ;
591 -> 625 ;
626 [label="xlogp <= 0.8\nmse = 1319.555\nsamples = 469\nvalue = 65.134"] ;
0 -> 626 [labeldistance=2.5, labelangle=-45, headlabel="False"] ;
627 [label="h_bond_acceptor_count <= 6.5\nmse = 1364.306\nsamples = 103\nvalue = 78.434"] ;
626 -> 627 ;
628 [label="h_bond_donor_count <= 3.5\nmse = 1540.954\nsamples = 36\nvalue = 63.988"] ;
627 -> 628 ;
629 [label="atom_stereo_count <= 0.5\nmse = 1170.02\nsamples = 29\nvalue = 72.702"] ;
628 -> 629 ;
630 [label="tpsa <= 77.65\nmse = 1340.852\nsamples = 11\nvalue = 47.712"] ;
629 -> 630 ;
631 [label="complexity <= 495.0\nmse = 1081.691\nsamples = 8\nvalue = 36.17"] ;
630 -> 631 ;
632 [label="rotable_bond_count <= 5.5\nmse = 131.704\nsamples = 3\nvalue = 70.475"] ;
631 -> 632 ;
633 [label="mse = 0.0\nsamples = 1\nvalue = 86.632"] ;
632 -> 633 ;
634 [label="complexity <= 449.5\nmse = 1.77\nsamples = 2\nvalue = 62.396"] ;
632 -> 634 ;
635 [label="mse = 0.0\nsamples = 1\nvalue = 61.066"] ;
634 -> 635 ;
636 [label="mse = -0.0\nsamples = 1\nvalue = 63.727"] ;
634 -> 636 ;
637 [label="exact_mass <= 601.601\nmse = 831.148\nsamples = 5\nvalue = 23.306"] ;
631 -> 637 ;
638 [label="molecular_weight <= 485.75\nmse = 22.505\nsamples = 4\nvalue = 6.831"] ;
637 -> 638 ;
639 [label="h_bond_acceptor_count <= 3.5\nmse = 3.204\nsamples = 3\nvalue = 4.84"] ;
638 -> 639 ;
640 [label="mse = 0.0\nsamples = 1\nvalue = 1.372"] ;
639 -> 640 ;
641 [label="h_bond_acceptor_count <= 4.5\nmse = 0.248\nsamples = 2\nvalue = 5.706"] ;
639 -> 641 ;
642 [label="mse = 0.0\nsamples = 1\nvalue = 5.994"] ;
641 -> 642 ;
643 [label="mse = 0.0\nsamples = 1\nvalue = 4.844"] ;
641 -> 643 ;
644 [label="mse = 0.0\nsamples = 1\nvalue = 16.79"] ;
638 -> 644 ;
645 [label="mse = 0.0\nsamples = 1\nvalue = 72.731"] ;
637 -> 645 ;
646 [label="tpsa <= 81.55\nmse = 11.981\nsamples = 3\nvalue = 90.029"] ;
630 -> 646 ;
647 [label="mse = 0.0\nsamples = 1\nvalue = 85.179"] ;
646 -> 647 ;
648 [label="tpsa <= 91.45\nmse = 0.332\nsamples = 2\nvalue = 92.453"] ;
646 -> 648 ;
649 [label="mse = 0.0\nsamples = 1\nvalue = 91.877"] ;
648 -> 649 ;
650 [label="mse = 0.0\nsamples = 1\nvalue = 93.03"] ;
648 -> 650 ;
651 [label="exact_mass <= 365.116\nmse = 589.702\nsamples = 18\nvalue = 85.66"] ;
629 -> 651 ;
652 [label="tpsa <= 92.05\nmse = 0.091\nsamples = 2\nvalue = 11.823"] ;
651 -> 652 ;
653 [label="mse = 0.0\nsamples = 1\nvalue = 11.521"] ;
652 -> 653 ;
654 [label="mse = 0.0\nsamples = 1\nvalue = 12.125"] ;
652 -> 654 ;
655 [label="complexity <= 453.5\nmse = 165.827\nsamples = 16\nvalue = 91.567"] ;
651 -> 655 ;
656 [label="complexity <= 436.0\nmse = 152.875\nsamples = 4\nvalue = 77.132"] ;
655 -> 656 ;
657 [label="complexity <= 390.0\nmse = 39.95\nsamples = 3\nvalue = 82.023"] ;
656 -> 657 ;
658 [label="mse = 0.0\nsamples = 1\nvalue = 89.301"] ;
657 -> 658 ;
659 [label="atom_stereo_count <= 2.5\nmse = 7.725\nsamples = 2\nvalue = 77.171"] ;
657 -> 659 ;
660 [label="mse = 0.0\nsamples = 1\nvalue = 79.136"] ;
659 -> 660 ;
661 [label="mse = -0.0\nsamples = 1\nvalue = 73.24"] ;
659 -> 661 ;
662 [label="mse = -0.0\nsamples = 1\nvalue = 52.68"] ;
656 -> 662 ;
663 [label="atom_stereo_count <= 2.5\nmse = 83.34\nsamples = 12\nvalue = 96.125"] ;
655 -> 663 ;
664 [label="tpsa <= 102.55\nmse = 96.098\nsamples = 7\nvalue = 90.557"] ;
663 -> 664 ;
665 [label="tpsa <= 45.45\nmse = 30.755\nsamples = 6\nvalue = 93.489"] ;
664 -> 665 ;
666 [label="monoisotopic_mass <= 418.094\nmse = 10.911\nsamples = 2\nvalue = 87.957"] ;
665 -> 666 ;
667 [label="mse = 0.0\nsamples = 1\nvalue = 90.293"] ;
666 -> 667 ;
668 [label="mse = 0.0\nsamples = 1\nvalue = 83.286"] ;
666 -> 668 ;
669 [label="complexity <= 492.5\nmse = 13.29\nsamples = 4\nvalue = 96.807"] ;
665 -> 669 ;
670 [label="mse = 0.0\nsamples = 1\nvalue = 102.815"] ;
669 -> 670 ;
671 [label="complexity <= 596.5\nmse = 5.334\nsamples = 3\nvalue = 95.306"] ;
669 -> 671 ;
672 [label="tpsa <= 83.25\nmse = 0.801\nsamples = 2\nvalue = 96.562"] ;
671 -> 672 ;
673 [label="mse = 0.0\nsamples = 1\nvalue = 97.827"] ;
672 -> 673 ;
674 [label="mse = -0.0\nsamples = 1\nvalue = 95.929"] ;
672 -> 674 ;
675 [label="mse = 0.0\nsamples = 1\nvalue = 91.537"] ;
671 -> 675 ;
676 [label="mse = -0.0\nsamples = 1\nvalue = 67.103"] ;
664 -> 676 ;
677 [label="covalent_unit_count <= 1.5\nmse = 18.836\nsamples = 5\nvalue = 101.137"] ;
663 -> 677 ;
678 [label="mse = 0.0\nsamples = 1\nvalue = 108.512"] ;
677 -> 678 ;
679 [label="exact_mass <= 684.32\nmse = 6.547\nsamples = 4\nvalue = 99.293"] ;
677 -> 679 ;
680 [label="heavy_atom_count <= 38.5\nmse = 0.646\nsamples = 3\nvalue = 97.373"] ;
679 -> 680 ;
681 [label="atom_stereo_count <= 4.5\nmse = 0.088\nsamples = 2\nvalue = 97.752"] ;
680 -> 681 ;
682 [label="mse = 0.0\nsamples = 1\nvalue = 97.456"] ;
681 -> 682 ;
683 [label="mse = 0.0\nsamples = 1\nvalue = 98.049"] ;
681 -> 683 ;
684 [label="mse = -0.0\nsamples = 1\nvalue = 95.856"] ;
680 -> 684 ;
685 [label="mse = 0.0\nsamples = 1\nvalue = 102.493"] ;
679 -> 685 ;
686 [label="exact_mass <= 378.629\nmse = 1585.565\nsamples = 7\nvalue = 31.508"] ;
628 -> 686 ;
687 [label="mse = 0.0\nsamples = 1\nvalue = 106.438"] ;
686 -> 687 ;
688 [label="tpsa <= 151.5\nmse = 412.997\nsamples = 6\nvalue = 14.857"] ;
686 -> 688 ;
689 [label="heavy_atom_count <= 30.5\nmse = 0.946\nsamples = 4\nvalue = 4.78"] ;
688 -> 689 ;
690 [label="h_bond_donor_count <= 4.5\nmse = 0.265\nsamples = 3\nvalue = 4.23"] ;
689 -> 690 ;
691 [label="molecular_weight <= 407.55\nmse = 0.047\nsamples = 2\nvalue = 3.622"] ;
690 -> 691 ;
692 [label="mse = 0.0\nsamples = 1\nvalue = 3.405"] ;
691 -> 692 ;
693 [label="mse = 0.0\nsamples = 1\nvalue = 3.839"] ;
691 -> 693 ;
694 [label="mse = 0.0\nsamples = 1\nvalue = 4.635"] ;
690 -> 694 ;
695 [label="mse = -0.0\nsamples = 1\nvalue = 6.155"] ;
689 -> 695 ;
696 [label="h_bond_donor_count <= 5.0\nmse = 255.712\nsamples = 2\nvalue = 50.128"] ;
688 -> 696 ;
697 [label="mse = 0.0\nsamples = 1\nvalue = 66.119"] ;
696 -> 697 ;
698 [label="mse = 0.0\nsamples = 1\nvalue = 34.137"] ;
696 -> 698 ;
699 [label="molecular_weight <= 523.1\nmse = 1142.8\nsamples = 67\nvalue = 85.081"] ;
627 -> 699 ;
700 [label="complexity <= 453.0\nmse = 610.978\nsamples = 41\nvalue = 94.596"] ;
699 -> 700 ;
701 [label="mse = 0.0\nsamples = 1\nvalue = 19.536"] ;
700 -> 701 ;
702 [label="xlogp <= 0.4\nmse = 538.072\nsamples = 40\nvalue = 95.668"] ;
700 -> 702 ;
703 [label="monoisotopic_mass <= 405.613\nmse = 573.019\nsamples = 34\nvalue = 93.045"] ;
702 -> 703 ;
704 [label="h_bond_donor_count <= 4.0\nmse = 978.058\nsamples = 10\nvalue = 79.301"] ;
703 -> 704 ;
705 [label="h_bond_donor_count <= 2.5\nmse = 622.723\nsamples = 7\nvalue = 89.016"] ;
704 -> 705 ;
706 [label="xlogp <= -0.6\nmse = 848.783\nsamples = 4\nvalue = 79.65"] ;
705 -> 706 ;
707 [label="mse = 0.0\nsamples = 1\nvalue = 13.456"] ;
706 -> 707 ;
708 [label="tpsa <= 101.15\nmse = 254.67\nsamples = 3\nvalue = 89.106"] ;
706 -> 708 ;
709 [label="tpsa <= 68.7\nmse = 5.786\nsamples = 2\nvalue = 102.836"] ;
708 -> 709 ;
710 [label="mse = 0.0\nsamples = 1\nvalue = 100.431"] ;
709 -> 710 ;
711 [label="mse = 0.0\nsamples = 1\nvalue = 105.242"] ;
709 -> 711 ;
712 [label="mse = 0.0\nsamples = 1\nvalue = 70.799"] ;
708 -> 712 ;
713 [label="rotable_bond_count <= 5.5\nmse = 48.409\nsamples = 3\nvalue = 101.503"] ;
705 -> 713 ;
714 [label="covalent_unit_count <= 1.5\nmse = 0.059\nsamples = 2\nvalue = 96.586"] ;
713 -> 714 ;
715 [label="mse = 0.0\nsamples = 1\nvalue = 96.828"] ;
714 -> 715 ;
716 [label="mse = 0.0\nsamples = 1\nvalue = 96.343"] ;
714 -> 716 ;
717 [label="mse = 0.0\nsamples = 1\nvalue = 111.339"] ;
713 -> 717 ;
718 [label="covalent_unit_count <= 2.0\nmse = 140.644\nsamples = 3\nvalue = 33.966"] ;
704 -> 718 ;
719 [label="monoisotopic_mass <= 382.572\nmse = 46.213\nsamples = 2\nvalue = 41.377"] ;
718 -> 719 ;
720 [label="mse = 0.0\nsamples = 1\nvalue = 48.175"] ;
719 -> 720 ;
721 [label="mse = 0.0\nsamples = 1\nvalue = 34.579"] ;
719 -> 721 ;
722 [label="mse = 0.0\nsamples = 1\nvalue = 19.145"] ;
718 -> 722 ;
723 [label="rotable_bond_count <= 8.5\nmse = 308.683\nsamples = 24\nvalue = 98.479"] ;
703 -> 723 ;
724 [label="atom_stereo_count <= 1.5\nmse = 67.348\nsamples = 14\nvalue = 104.629"] ;
723 -> 724 ;
725 [label="h_bond_donor_count <= 2.5\nmse = 25.112\nsamples = 4\nvalue = 91.953"] ;
724 -> 725 ;
726 [label="heavy_atom_count <= 30.5\nmse = 2.744\nsamples = 2\nvalue = 96.79"] ;
725 -> 726 ;
727 [label="mse = 0.0\nsamples = 1\nvalue = 98.446"] ;
726 -> 727 ;
728 [label="mse = -0.0\nsamples = 1\nvalue = 95.133"] ;
726 -> 728 ;
729 [label="molecular_weight <= 420.0\nmse = 0.702\nsamples = 2\nvalue = 87.117"] ;
725 -> 729 ;
730 [label="mse = 0.0\nsamples = 1\nvalue = 87.955"] ;
729 -> 730 ;
731 [label="mse = 0.0\nsamples = 1\nvalue = 86.279"] ;
729 -> 731 ;
732 [label="tpsa <= 128.5\nmse = 44.286\nsamples = 10\nvalue = 106.657"] ;
724 -> 732 ;
733 [label="mse = 0.0\nsamples = 1\nvalue = 119.905"] ;
732 -> 733 ;
734 [label="atom_stereo_count <= 5.0\nmse = 31.547\nsamples = 9\nvalue = 105.505"] ;
732 -> 734 ;
735 [label="heavy_atom_count <= 31.0\nmse = 34.628\nsamples = 5\nvalue = 108.428"] ;
734 -> 735 ;
736 [label="monoisotopic_mass <= 408.648\nmse = 5.101\nsamples = 3\nvalue = 104.575"] ;
735 -> 736 ;
737 [label="mse = 0.0\nsamples = 1\nvalue = 107.398"] ;
736 -> 737 ;
738 [label="tpsa <= 154.5\nmse = 0.514\nsamples = 2\nvalue = 102.882"] ;
736 -> 738 ;
739 [label="mse = 0.0\nsamples = 1\nvalue = 103.467"] ;
738 -> 739 ;
740 [label="mse = 0.0\nsamples = 1\nvalue = 102.004"] ;
738 -> 740 ;
741 [label="tpsa <= 193.0\nmse = 4.644\nsamples = 2\nvalue = 116.132"] ;
735 -> 741 ;
742 [label="mse = 0.0\nsamples = 1\nvalue = 118.287"] ;
741 -> 742 ;
743 [label="mse = 0.0\nsamples = 1\nvalue = 113.977"] ;
741 -> 743 ;
744 [label="complexity <= 924.5\nmse = 8.699\nsamples = 4\nvalue = 102.316"] ;
734 -> 744 ;
745 [label="h_bond_acceptor_count <= 10.5\nmse = 1.473\nsamples = 3\nvalue = 103.606"] ;
744 -> 745 ;
746 [label="mse = 0.0\nsamples = 1\nvalue = 101.345"] ;
745 -> 746 ;
747 [label="rotable_bond_count <= 6.5\nmse = 0.015\nsamples = 2\nvalue = 104.253"] ;
745 -> 747 ;
748 [label="mse = 0.0\nsamples = 1\nvalue = 104.556"] ;
747 -> 748 ;
749 [label="mse = 0.0\nsamples = 1\nvalue = 104.202"] ;
747 -> 749 ;
750 [label="mse = -0.0\nsamples = 1\nvalue = 96.509"] ;
744 -> 750 ;
751 [label="h_bond_donor_count <= 2.0\nmse = 567.956\nsamples = 10\nvalue = 85.739"] ;
723 -> 751 ;
752 [label="mse = 0.0\nsamples = 1\nvalue = 28.124"] ;
751 -> 752 ;
753 [label="exact_mass <= 445.188\nmse = 336.655\nsamples = 9\nvalue = 90.171"] ;
751 -> 753 ;
754 [label="h_bond_acceptor_count <= 10.0\nmse = 4.248\nsamples = 3\nvalue = 104.144"] ;
753 -> 754 ;
755 [label="h_bond_donor_count <= 3.5\nmse = 0.973\nsamples = 2\nvalue = 103.212"] ;
754 -> 755 ;
756 [label="mse = 0.0\nsamples = 1\nvalue = 104.199"] ;
755 -> 756 ;
757 [label="mse = -0.0\nsamples = 1\nvalue = 102.226"] ;
755 -> 757 ;
758 [label="mse = -0.0\nsamples = 1\nvalue = 107.869"] ;
754 -> 758 ;
759 [label="h_bond_acceptor_count <= 11.5\nmse = 346.126\nsamples = 6\nvalue = 81.438"] ;
753 -> 759 ;
760 [label="complexity <= 653.0\nmse = 154.685\nsamples = 5\nvalue = 86.926"] ;
759 -> 760 ;
761 [label="mse = 0.0\nsamples = 1\nvalue = 71.504"] ;
760 -> 761 ;
762 [label="molecular_weight <= 499.05\nmse = 83.375\nsamples = 4\nvalue = 93.094"] ;
760 -> 762 ;
763 [label="rotable_bond_count <= 10.5\nmse = 38.456\nsamples = 3\nvalue = 89.468"] ;
762 -> 763 ;
764 [label="mse = 0.0\nsamples = 1\nvalue = 79.791"] ;
763 -> 764 ;
765 [label="exact_mass <= 460.249\nmse = 9.657\nsamples = 2\nvalue = 92.693"] ;
763 -> 765 ;
766 [label="mse = 0.0\nsamples = 1\nvalue = 90.496"] ;
765 -> 766 ;
767 [label="mse = -0.0\nsamples = 1\nvalue = 97.088"] ;
765 -> 767 ;
768 [label="mse = 0.0\nsamples = 1\nvalue = 107.601"] ;
762 -> 768 ;
769 [label="mse = 0.0\nsamples = 1\nvalue = 43.027"] ;
759 -> 769 ;
770 [label="xlogp <= 0.65\nmse = 39.458\nsamples = 6\nvalue = 111.405"] ;
702 -> 770 ;
771 [label="complexity <= 824.0\nmse = 13.084\nsamples = 4\nvalue = 114.838"] ;
770 -> 771 ;
772 [label="molecular_weight <= 444.15\nmse = 3.077\nsamples = 3\nvalue = 116.157"] ;
771 -> 772 ;
773 [label="heavy_atom_count <= 23.5\nmse = 0.423\nsamples = 2\nvalue = 114.975"] ;
772 -> 773 ;
774 [label="mse = 0.0\nsamples = 1\nvalue = 115.625"] ;
773 -> 774 ;
775 [label="mse = 0.0\nsamples = 1\nvalue = 114.325"] ;
773 -> 775 ;
776 [label="mse = 0.0\nsamples = 1\nvalue = 118.522"] ;
772 -> 776 ;
777 [label="mse = -0.0\nsamples = 1\nvalue = 106.921"] ;
771 -> 777 ;
778 [label="atom_stereo_count <= 2.5\nmse = 9.334\nsamples = 2\nvalue = 103.395"] ;
770 -> 778 ;
779 [label="mse = 0.0\nsamples = 1\nvalue = 105.555"] ;
778 -> 779 ;
780 [label="mse = -0.0\nsamples = 1\nvalue = 99.074"] ;
778 -> 780 ;
781 [label="molecular_weight <= 526.6\nmse = 1630.106\nsamples = 26\nvalue = 68.997"] ;
699 -> 781 ;
782 [label="mse = 0.0\nsamples = 1\nvalue = 3.919"] ;
781 -> 782 ;
783 [label="rotable_bond_count <= 7.0\nmse = 1308.964\nsamples = 25\nvalue = 75.847"] ;
781 -> 783 ;
784 [label="h_bond_acceptor_count <= 11.5\nmse = 73.457\nsamples = 3\nvalue = 16.321"] ;
783 -> 784 ;
785 [label="mse = 0.0\nsamples = 1\nvalue = 23.223"] ;
784 -> 785 ;
786 [label="molecular_weight <= 615.3\nmse = 5.011\nsamples = 2\nvalue = 5.969"] ;
784 -> 786 ;
787 [label="mse = 0.0\nsamples = 1\nvalue = 8.207"] ;
786 -> 787 ;
788 [label="mse = -0.0\nsamples = 1\nvalue = 3.73"] ;
786 -> 788 ;
789 [label="atom_stereo_count <= 16.0\nmse = 877.943\nsamples = 22\nvalue = 84.867"] ;
783 -> 789 ;
790 [label="h_bond_acceptor_count <= 22.0\nmse = 634.6\nsamples = 21\nvalue = 89.13"] ;
789 -> 790 ;
791 [label="h_bond_donor_count <= 1.0\nmse = 426.068\nsamples = 19\nvalue = 94.263"] ;
790 -> 791 ;
792 [label="mse = 0.0\nsamples = 1\nvalue = 5.648"] ;
791 -> 792 ;
793 [label="rotable_bond_count <= 11.5\nmse = 140.238\nsamples = 18\nvalue = 97.545"] ;
791 -> 793 ;
794 [label="complexity <= 1125.0\nmse = 79.646\nsamples = 10\nvalue = 102.971"] ;
793 -> 794 ;
795 [label="molecular_weight <= 758.15\nmse = 46.804\nsamples = 8\nvalue = 99.155"] ;
794 -> 795 ;
796 [label="tpsa <= 224.0\nmse = 15.145\nsamples = 7\nvalue = 100.972"] ;
795 -> 796 ;
797 [label="bond_stereo_count <= 0.5\nmse = 6.105\nsamples = 5\nvalue = 99.024"] ;
796 -> 797 ;
798 [label="tpsa <= 120.0\nmse = 3.192\nsamples = 4\nvalue = 100.261"] ;
797 -> 798 ;
799 [label="rotable_bond_count <= 10.5\nmse = 0.69\nsamples = 2\nvalue = 98.354"] ;
798 -> 799 ;
800 [label="mse = 0.0\nsamples = 1\nvalue = 97.524"] ;
799 -> 800 ;
801 [label="mse = -0.0\nsamples = 1\nvalue = 99.185"] ;
799 -> 801 ;
802 [label="molecular_weight <= 666.75\nmse = 0.822\nsamples = 2\nvalue = 101.532"] ;
798 -> 802 ;
803 [label="mse = 0.0\nsamples = 1\nvalue = 100.891"] ;
802 -> 803 ;
804 [label="mse = 0.0\nsamples = 1\nvalue = 102.814"] ;
802 -> 804 ;
805 [label="mse = -0.0\nsamples = 1\nvalue = 95.932"] ;
797 -> 805 ;
806 [label="tpsa <= 277.0\nmse = 6.72\nsamples = 2\nvalue = 105.518"] ;
796 -> 806 ;
807 [label="mse = 0.0\nsamples = 1\nvalue = 107.351"] ;
806 -> 807 ;
808 [label="mse = 0.0\nsamples = 1\nvalue = 101.852"] ;
806 -> 808 ;
809 [label="mse = 0.0\nsamples = 1\nvalue = 80.979"] ;
795 -> 809 ;
810 [label="tpsa <= 236.5\nmse = 19.803\nsamples = 2\nvalue = 113.464"] ;
794 -> 810 ;
811 [label="mse = 0.0\nsamples = 1\nvalue = 110.895"] ;
810 -> 811 ;
812 [label="mse = 0.0\nsamples = 1\nvalue = 121.172"] ;
810 -> 812 ;
813 [label="tpsa <= 255.0\nmse = 133.189\nsamples = 8\nvalue = 90.763"] ;
793 -> 813 ;
814 [label="rotable_bond_count <= 13.5\nmse = 58.425\nsamples = 5\nvalue = 81.793"] ;
813 -> 814 ;
815 [label="heavy_atom_count <= 49.5\nmse = 47.749\nsamples = 3\nvalue = 76.175"] ;
814 -> 815 ;
816 [label="molecular_weight <= 597.15\nmse = 4.117\nsamples = 2\nvalue = 80.919"] ;
815 -> 816 ;
817 [label="mse = 0.0\nsamples = 1\nvalue = 78.89"] ;
816 -> 817 ;
818 [label="mse = 0.0\nsamples = 1\nvalue = 82.948"] ;
816 -> 818 ;
819 [label="mse = 0.0\nsamples = 1\nvalue = 66.688"] ;
815 -> 819 ;
820 [label="atom_stereo_count <= 1.0\nmse = 5.977\nsamples = 2\nvalue = 87.411"] ;
814 -> 820 ;
821 [label="mse = 0.0\nsamples = 1\nvalue = 89.14"] ;
820 -> 821 ;
822 [label="mse = 0.0\nsamples = 1\nvalue = 83.954"] ;
820 -> 822 ;
823 [label="h_bond_acceptor_count <= 19.5\nmse = 47.037\nsamples = 3\nvalue = 99.733"] ;
813 -> 823 ;
824 [label="covalent_unit_count <= 2.5\nmse = 12.231\nsamples = 2\nvalue = 106.13"] ;
823 -> 824 ;
825 [label="mse = 0.0\nsamples = 1\nvalue = 111.076"] ;
824 -> 825 ;
826 [label="mse = 0.0\nsamples = 1\nvalue = 103.657"] ;
824 -> 826 ;
827 [label="mse = -0.0\nsamples = 1\nvalue = 93.336"] ;
823 -> 827 ;
828 [label="tpsa <= 457.5\nmse = 40.195\nsamples = 2\nvalue = 41.226"] ;
790 -> 828 ;
829 [label="mse = 0.0\nsamples = 1\nvalue = 32.26"] ;
828 -> 829 ;
830 [label="mse = 0.0\nsamples = 1\nvalue = 45.709"] ;
828 -> 830 ;
831 [label="mse = -0.0\nsamples = 1\nvalue = 18.776"] ;
789 -> 831 ;
832 [label="h_bond_donor_count <= 1.5\nmse = 1241.395\nsamples = 366\nvalue = 61.318"] ;
626 -> 832 ;
833 [label="atom_stereo_count <= 5.0\nmse = 1132.726\nsamples = 140\nvalue = 71.739"] ;
832 -> 833 ;
834 [label="xlogp <= 4.85\nmse = 1159.422\nsamples = 126\nvalue = 67.859"] ;
833 -> 834 ;
835 [label="heavy_atom_count <= 33.5\nmse = 1175.275\nsamples = 81\nvalue = 60.395"] ;
834 -> 835 ;
836 [label="heavy_atom_count <= 24.5\nmse = 1201.936\nsamples = 57\nvalue = 68.567"] ;
835 -> 836 ;
837 [label="bond_stereo_count <= 0.5\nmse = 0.877\nsamples = 2\nvalue = 9.375"] ;
836 -> 837 ;
838 [label="mse = 0.0\nsamples = 1\nvalue = 9.916"] ;
837 -> 838 ;
839 [label="mse = 0.0\nsamples = 1\nvalue = 7.753"] ;
837 -> 839 ;
840 [label="monoisotopic_mass <= 370.15\nmse = 1072.864\nsamples = 55\nvalue = 71.642"] ;
836 -> 840 ;
841 [label="tpsa <= 86.9\nmse = 398.355\nsamples = 5\nvalue = 96.977"] ;
840 -> 841 ;
842 [label="xlogp <= 2.15\nmse = 127.426\nsamples = 3\nvalue = 106.981"] ;
841 -> 842 ;
843 [label="mse = 0.0\nsamples = 1\nvalue = 97.282"] ;
842 -> 843 ;
844 [label="tpsa <= 72.95\nmse = 4.663\nsamples = 2\nvalue = 119.913"] ;
842 -> 844 ;
845 [label="mse = 0.0\nsamples = 1\nvalue = 122.967"] ;
844 -> 845 ;
846 [label="mse = 0.0\nsamples = 1\nvalue = 118.386"] ;
844 -> 846 ;
847 [label="exact_mass <= 368.583\nmse = 252.121\nsamples = 2\nvalue = 73.634"] ;
841 -> 847 ;
848 [label="mse = 0.0\nsamples = 1\nvalue = 51.179"] ;
847 -> 848 ;
849 [label="mse = 0.0\nsamples = 1\nvalue = 84.862"] ;
847 -> 849 ;
850 [label="tpsa <= 73.5\nmse = 1063.438\nsamples = 50\nvalue = 67.861"] ;
840 -> 850 ;
851 [label="rotable_bond_count <= 4.5\nmse = 1039.689\nsamples = 16\nvalue = 46.35"] ;
850 -> 851 ;
852 [label="h_bond_donor_count <= 0.5\nmse = 252.432\nsamples = 5\nvalue = 21.645"] ;
851 -> 852 ;
853 [label="atom_stereo_count <= 1.5\nmse = 3.135\nsamples = 2\nvalue = 8.924"] ;
852 -> 853 ;
854 [label="mse = 0.0\nsamples = 1\nvalue = 7.153"] ;
853 -> 854 ;
855 [label="mse = -0.0\nsamples = 1\nvalue = 10.694"] ;
853 -> 855 ;
856 [label="exact_mass <= 446.635\nmse = 178.056\nsamples = 3\nvalue = 34.366"] ;
852 -> 856 ;
857 [label="tpsa <= 64.2\nmse = 49.581\nsamples = 2\nvalue = 27.514"] ;
856 -> 857 ;
858 [label="mse = 0.0\nsamples = 1\nvalue = 32.493"] ;
857 -> 858 ;
859 [label="mse = -0.0\nsamples = 1\nvalue = 17.556"] ;
857 -> 859 ;
860 [label="mse = -0.0\nsamples = 1\nvalue = 54.924"] ;
856 -> 860 ;
861 [label="xlogp <= 3.05\nmse = 886.369\nsamples = 11\nvalue = 62.82"] ;
851 -> 861 ;
862 [label="tpsa <= 67.85\nmse = 402.758\nsamples = 3\nvalue = 28.83"] ;
861 -> 862 ;
863 [label="atom_stereo_count <= 0.5\nmse = 86.821\nsamples = 2\nvalue = 18.222"] ;
862 -> 863 ;
864 [label="mse = 0.0\nsamples = 1\nvalue = 11.633"] ;
863 -> 864 ;
865 [label="mse = 0.0\nsamples = 1\nvalue = 31.399"] ;
863 -> 865 ;
866 [label="mse = 0.0\nsamples = 1\nvalue = 60.657"] ;
862 -> 866 ;
867 [label="complexity <= 487.0\nmse = 261.702\nsamples = 8\nvalue = 79.815"] ;
861 -> 867 ;
868 [label="h_bond_acceptor_count <= 5.0\nmse = 2.819\nsamples = 2\nvalue = 103.552"] ;
867 -> 868 ;
869 [label="mse = 0.0\nsamples = 1\nvalue = 101.873"] ;
868 -> 869 ;
870 [label="mse = 0.0\nsamples = 1\nvalue = 105.231"] ;
868 -> 870 ;
871 [label="h_bond_acceptor_count <= 3.5\nmse = 97.576\nsamples = 6\nvalue = 71.903"] ;
867 -> 871 ;
872 [label="mse = 0.0\nsamples = 1\nvalue = 87.678"] ;
871 -> 872 ;
873 [label="tpsa <= 63.8\nmse = 57.365\nsamples = 5\nvalue = 68.748"] ;
871 -> 873 ;
874 [label="rotable_bond_count <= 6.5\nmse = 18.263\nsamples = 4\nvalue = 65.478"] ;
873 -> 874 ;
875 [label="xlogp <= 4.15\nmse = 7.582\nsamples = 2\nvalue = 61.706"] ;
874 -> 875 ;
876 [label="mse = 0.0\nsamples = 1\nvalue = 58.953"] ;
875 -> 876 ;
877 [label="mse = 0.0\nsamples = 1\nvalue = 64.46"] ;
875 -> 877 ;
878 [label="molecular_weight <= 402.0\nmse = 0.491\nsamples = 2\nvalue = 69.25"] ;
874 -> 878 ;
879 [label="mse = 0.0\nsamples = 1\nvalue = 68.549"] ;
878 -> 879 ;
880 [label="mse = -0.0\nsamples = 1\nvalue = 69.951"] ;
878 -> 880 ;
881 [label="mse = 0.0\nsamples = 1\nvalue = 81.825"] ;
873 -> 881 ;
882 [label="tpsa <= 79.9\nmse = 792.864\nsamples = 34\nvalue = 77.014"] ;
850 -> 882 ;
883 [label="exact_mass <= 386.157\nmse = 116.386\nsamples = 6\nvalue = 104.698"] ;
882 -> 883 ;
884 [label="mse = 0.0\nsamples = 1\nvalue = 117.558"] ;
883 -> 884 ;
885 [label="complexity <= 684.0\nmse = 50.539\nsamples = 5\nvalue = 98.268"] ;
883 -> 885 ;
886 [label="molecular_weight <= 390.45\nmse = 38.521\nsamples = 3\nvalue = 103.824"] ;
885 -> 886 ;
887 [label="mse = 0.0\nsamples = 1\nvalue = 95.294"] ;
886 -> 887 ;
888 [label="atom_stereo_count <= 0.5\nmse = 3.211\nsamples = 2\nvalue = 108.089"] ;
886 -> 888 ;
889 [label="mse = 0.0\nsamples = 1\nvalue = 106.297"] ;
888 -> 889 ;
890 [label="mse = 0.0\nsamples = 1\nvalue = 109.881"] ;
888 -> 890 ;
891 [label="h_bond_donor_count <= 0.5\nmse = 0.806\nsamples = 2\nvalue = 92.711"] ;
885 -> 891 ;
892 [label="mse = 0.0\nsamples = 1\nvalue = 93.346"] ;
891 -> 892 ;
893 [label="mse = -0.0\nsamples = 1\nvalue = 91.441"] ;
891 -> 893 ;
894 [label="exact_mass <= 402.574\nmse = 728.581\nsamples = 28\nvalue = 70.457"] ;
882 -> 894 ;
895 [label="xlogp <= 2.85\nmse = 411.356\nsamples = 8\nvalue = 48.255"] ;
894 -> 895 ;
896 [label="tpsa <= 136.6\nmse = 79.163\nsamples = 4\nvalue = 36.963"] ;
895 -> 896 ;
897 [label="heavy_atom_count <= 27.5\nmse = 32.401\nsamples = 3\nvalue = 30.218"] ;
896 -> 897 ;
898 [label="mse = 0.0\nsamples = 1\nvalue = 25.03"] ;
897 -> 898 ;
899 [label="heavy_atom_count <= 29.5\nmse = 10.966\nsamples = 2\nvalue = 35.406"] ;
897 -> 899 ;
900 [label="mse = 0.0\nsamples = 1\nvalue = 32.095"] ;
899 -> 900 ;
901 [label="mse = 0.0\nsamples = 1\nvalue = 38.718"] ;
899 -> 901 ;
902 [label="mse = -0.0\nsamples = 1\nvalue = 45.955"] ;
896 -> 902 ;
903 [label="molecular_weight <= 395.6\nmse = 379.008\nsamples = 4\nvalue = 68.017"] ;
895 -> 903 ;
904 [label="rotable_bond_count <= 8.5\nmse = 87.476\nsamples = 3\nvalue = 78.238"] ;
903 -> 904 ;
905 [label="xlogp <= 3.6\nmse = 0.283\nsamples = 2\nvalue = 84.844"] ;
904 -> 905 ;
906 [label="mse = 0.0\nsamples = 1\nvalue = 85.376"] ;
905 -> 906 ;
907 [label="mse = -0.0\nsamples = 1\nvalue = 84.312"] ;
905 -> 907 ;
908 [label="mse = 0.0\nsamples = 1\nvalue = 65.025"] ;
904 -> 908 ;
909 [label="mse = 0.0\nsamples = 1\nvalue = 37.354"] ;
903 -> 909 ;
910 [label="bond_stereo_count <= 0.5\nmse = 575.171\nsamples = 20\nvalue = 79.503"] ;
894 -> 910 ;
911 [label="xlogp <= 3.1\nmse = 361.261\nsamples = 17\nvalue = 84.246"] ;
910 -> 911 ;
912 [label="complexity <= 773.5\nmse = 223.848\nsamples = 9\nvalue = 94.938"] ;
911 -> 912 ;
913 [label="heavy_atom_count <= 29.5\nmse = 97.272\nsamples = 7\nvalue = 102.236"] ;
912 -> 913 ;
914 [label="exact_mass <= 435.6\nmse = 56.49\nsamples = 3\nvalue = 93.805"] ;
913 -> 914 ;
915 [label="h_bond_donor_count <= 0.5\nmse = 0.072\nsamples = 2\nvalue = 88.493"] ;
914 -> 915 ;
916 [label="mse = 0.0\nsamples = 1\nvalue = 88.224"] ;
915 -> 916 ;
917 [label="mse = -0.0\nsamples = 1\nvalue = 88.762"] ;
915 -> 917 ;
918 [label="mse = 0.0\nsamples = 1\nvalue = 104.43"] ;
914 -> 918 ;
919 [label="complexity <= 660.0\nmse = 34.57\nsamples = 4\nvalue = 108.559"] ;
913 -> 919 ;
920 [label="h_bond_acceptor_count <= 8.0\nmse = 9.075\nsamples = 2\nvalue = 103.504"] ;
919 -> 920 ;
921 [label="mse = 0.0\nsamples = 1\nvalue = 100.491"] ;
920 -> 921 ;
922 [label="mse = 0.0\nsamples = 1\nvalue = 106.516"] ;
920 -> 922 ;
923 [label="tpsa <= 99.3\nmse = 8.949\nsamples = 2\nvalue = 113.614"] ;
919 -> 923 ;
924 [label="mse = 0.0\nsamples = 1\nvalue = 116.606"] ;
923 -> 924 ;
925 [label="mse = 0.0\nsamples = 1\nvalue = 110.623"] ;
923 -> 925 ;
926 [label="h_bond_acceptor_count <= 7.0\nmse = 104.941\nsamples = 2\nvalue = 77.909"] ;
912 -> 926 ;
927 [label="mse = 0.0\nsamples = 1\nvalue = 63.422"] ;
926 -> 927 ;
928 [label="mse = -0.0\nsamples = 1\nvalue = 85.153"] ;
926 -> 928 ;
929 [label="xlogp <= 3.75\nmse = 311.384\nsamples = 8\nvalue = 76.021"] ;
911 -> 929 ;
930 [label="tpsa <= 115.5\nmse = 275.822\nsamples = 4\nvalue = 62.69"] ;
929 -> 930 ;
931 [label="h_bond_donor_count <= 0.5\nmse = 12.186\nsamples = 3\nvalue = 55.4"] ;
930 -> 931 ;
932 [label="mse = 0.0\nsamples = 1\nvalue = 62.172"] ;
931 -> 932 ;
933 [label="tpsa <= 102.25\nmse = 0.903\nsamples = 2\nvalue = 53.707"] ;
931 -> 933 ;
934 [label="mse = 0.0\nsamples = 1\nvalue = 54.658"] ;
933 -> 934 ;
935 [label="mse = 0.0\nsamples = 1\nvalue = 52.757"] ;
933 -> 935 ;
936 [label="mse = 0.0\nsamples = 1\nvalue = 99.136"] ;
930 -> 936 ;
937 [label="monoisotopic_mass <= 451.175\nmse = 58.937\nsamples = 4\nvalue = 87.449"] ;
929 -> 937 ;
938 [label="exact_mass <= 426.073\nmse = 12.331\nsamples = 2\nvalue = 95.293"] ;
937 -> 938 ;
939 [label="mse = 0.0\nsamples = 1\nvalue = 92.81"] ;
938 -> 939 ;
940 [label="mse = -0.0\nsamples = 1\nvalue = 100.259"] ;
938 -> 940 ;
941 [label="monoisotopic_mass <= 466.13\nmse = 13.13\nsamples = 2\nvalue = 81.565"] ;
937 -> 941 ;
942 [label="mse = 0.0\nsamples = 1\nvalue = 85.189"] ;
941 -> 942 ;
943 [label="mse = 0.0\nsamples = 1\nvalue = 77.942"] ;
941 -> 943 ;
944 [label="tpsa <= 100.75\nmse = 931.955\nsamples = 3\nvalue = 52.23"] ;
910 -> 944 ;
945 [label="molecular_weight <= 429.0\nmse = 4.528\nsamples = 2\nvalue = 34.636"] ;
944 -> 945 ;
946 [label="mse = 0.0\nsamples = 1\nvalue = 36.141"] ;
945 -> 946 ;
947 [label="mse = 0.0\nsamples = 1\nvalue = 31.627"] ;
945 -> 947 ;
948 [label="mse = 0.0\nsamples = 1\nvalue = 105.009"] ;
944 -> 948 ;
949 [label="molecular_weight <= 509.25\nmse = 650.599\nsamples = 24\nvalue = 42.503"] ;
835 -> 949 ;
950 [label="rotable_bond_count <= 5.5\nmse = 181.602\nsamples = 11\nvalue = 27.077"] ;
949 -> 950 ;
951 [label="tpsa <= 90.35\nmse = 26.239\nsamples = 6\nvalue = 38.182"] ;
950 -> 951 ;
952 [label="rotable_bond_count <= 4.5\nmse = 0.058\nsamples = 3\nvalue = 40.953"] ;
951 -> 952 ;
953 [label="mse = 0.0\nsamples = 1\nvalue = 41.424"] ;
952 -> 953 ;
954 [label="h_bond_acceptor_count <= 7.5\nmse = 0.003\nsamples = 2\nvalue = 40.835"] ;
952 -> 954 ;
955 [label="mse = 0.0\nsamples = 1\nvalue = 40.736"] ;
954 -> 955 ;
956 [label="mse = 0.0\nsamples = 1\nvalue = 40.868"] ;
954 -> 956 ;
957 [label="complexity <= 651.0\nmse = 37.376\nsamples = 3\nvalue = 34.719"] ;
951 -> 957 ;
958 [label="mse = 0.0\nsamples = 1\nvalue = 40.303"] ;
957 -> 958 ;
959 [label="xlogp <= 2.7\nmse = 12.39\nsamples = 2\nvalue = 29.135"] ;
957 -> 959 ;
960 [label="mse = 0.0\nsamples = 1\nvalue = 25.615"] ;
959 -> 960 ;
961 [label="mse = 0.0\nsamples = 1\nvalue = 32.655"] ;
959 -> 961 ;
962 [label="xlogp <= 2.6\nmse = 110.536\nsamples = 5\nvalue = 17.082"] ;
950 -> 962 ;
963 [label="mse = 0.0\nsamples = 1\nvalue = 33.998"] ;
962 -> 963 ;
964 [label="h_bond_acceptor_count <= 7.0\nmse = 48.747\nsamples = 4\nvalue = 12.853"] ;
962 -> 964 ;
965 [label="mse = 0.0\nsamples = 1\nvalue = 19.808"] ;
964 -> 965 ;
966 [label="heavy_atom_count <= 36.5\nmse = 0.751\nsamples = 3\nvalue = 5.898"] ;
964 -> 966 ;
967 [label="exact_mass <= 497.704\nmse = 0.049\nsamples = 2\nvalue = 6.386"] ;
966 -> 967 ;
968 [label="mse = 0.0\nsamples = 1\nvalue = 6.542"] ;
967 -> 968 ;
969 [label="mse = 0.0\nsamples = 1\nvalue = 6.074"] ;
967 -> 969 ;
970 [label="mse = -0.0\nsamples = 1\nvalue = 4.434"] ;
966 -> 970 ;
971 [label="complexity <= 1185.0\nmse = 629.299\nsamples = 13\nvalue = 58.787"] ;
949 -> 971 ;
972 [label="xlogp <= 4.5\nmse = 512.196\nsamples = 11\nvalue = 63.362"] ;
971 -> 972 ;
973 [label="xlogp <= 4.35\nmse = 485.321\nsamples = 9\nvalue = 56.333"] ;
972 -> 973 ;
974 [label="xlogp <= 3.4\nmse = 244.187\nsamples = 8\nvalue = 61.209"] ;
973 -> 974 ;
975 [label="xlogp <= 3.15\nmse = 17.041\nsamples = 3\nvalue = 48.594"] ;
974 -> 975 ;
976 [label="tpsa <= 120.7\nmse = 2.006\nsamples = 2\nvalue = 46.841"] ;
975 -> 976 ;
977 [label="mse = 0.0\nsamples = 1\nvalue = 45.106"] ;
976 -> 977 ;
978 [label="mse = 0.0\nsamples = 1\nvalue = 47.997"] ;
976 -> 978 ;
979 [label="mse = -0.0\nsamples = 1\nvalue = 57.36"] ;
975 -> 979 ;
980 [label="tpsa <= 130.5\nmse = 96.646\nsamples = 5\nvalue = 76.347"] ;
974 -> 980 ;
981 [label="xlogp <= 3.85\nmse = 29.243\nsamples = 4\nvalue = 72.067"] ;
980 -> 981 ;
982 [label="molecular_weight <= 530.35\nmse = 0.012\nsamples = 2\nvalue = 77.471"] ;
981 -> 982 ;
983 [label="mse = 0.0\nsamples = 1\nvalue = 77.582"] ;
982 -> 983 ;
984 [label="mse = 0.0\nsamples = 1\nvalue = 77.361"] ;
982 -> 984 ;
985 [label="xlogp <= 4.15\nmse = 0.062\nsamples = 2\nvalue = 66.663"] ;
981 -> 985 ;
986 [label="mse = 0.0\nsamples = 1\nvalue = 66.414"] ;
985 -> 986 ;
987 [label="mse = 0.0\nsamples = 1\nvalue = 66.912"] ;
985 -> 987 ;
988 [label="mse = -0.0\nsamples = 1\nvalue = 93.464"] ;
980 -> 988 ;
989 [label="mse = -0.0\nsamples = 1\nvalue = 2.702"] ;
973 -> 989 ;
990 [label="rotable_bond_count <= 11.0\nmse = 0.011\nsamples = 2\nvalue = 84.447"] ;
972 -> 990 ;
991 [label="mse = 0.0\nsamples = 1\nvalue = 84.552"] ;
990 -> 991 ;
992 [label="mse = 0.0\nsamples = 1\nvalue = 84.343"] ;
990 -> 992 ;
993 [label="tpsa <= 103.9\nmse = 59.213\nsamples = 2\nvalue = 22.188"] ;
971 -> 993 ;
994 [label="mse = 0.0\nsamples = 1\nvalue = 29.883"] ;
993 -> 994 ;
995 [label="mse = 0.0\nsamples = 1\nvalue = 14.493"] ;
993 -> 995 ;
996 [label="molecular_weight <= 529.65\nmse = 845.875\nsamples = 45\nvalue = 81.41"] ;
834 -> 996 ;
997 [label="h_bond_acceptor_count <= 6.5\nmse = 630.457\nsamples = 30\nvalue = 87.927"] ;
996 -> 997 ;
998 [label="tpsa <= 72.8\nmse = 648.744\nsamples = 24\nvalue = 81.741"] ;
997 -> 998 ;
999 [label="complexity <= 597.0\nmse = 195.201\nsamples = 19\nvalue = 91.441"] ;
998 -> 999 ;
1000 [label="bond_stereo_count <= 0.5\nmse = 228.733\nsamples = 10\nvalue = 81.795"] ;
999 -> 1000 ;
1001 [label="tpsa <= 59.8\nmse = 216.89\nsamples = 7\nvalue = 75.537"] ;
1000 -> 1001 ;
1002 [label="h_bond_acceptor_count <= 3.5\nmse = 108.184\nsamples = 6\nvalue = 79.715"] ;
1001 -> 1002 ;
1003 [label="atom_stereo_count <= 1.5\nmse = 37.807\nsamples = 4\nvalue = 71.817"] ;
1002 -> 1003 ;
1004 [label="heavy_atom_count <= 28.5\nmse = 18.172\nsamples = 3\nvalue = 74.656"] ;
1003 -> 1004 ;
1005 [label="heavy_atom_count <= 25.0\nmse = 5.643\nsamples = 2\nvalue = 71.971"] ;
1004 -> 1005 ;
1006 [label="mse = 0.0\nsamples = 1\nvalue = 69.596"] ;
1005 -> 1006 ;
1007 [label="mse = 0.0\nsamples = 1\nvalue = 74.347"] ;
1005 -> 1007 ;
1008 [label="mse = 0.0\nsamples = 1\nvalue = 80.024"] ;
1004 -> 1008 ;
1009 [label="mse = -0.0\nsamples = 1\nvalue = 63.3"] ;
1003 -> 1009 ;
1010 [label="h_bond_acceptor_count <= 4.5\nmse = 7.92\nsamples = 2\nvalue = 90.247"] ;
1002 -> 1010 ;
1011 [label="mse = 0.0\nsamples = 1\nvalue = 92.237"] ;
1010 -> 1011 ;
1012 [label="mse = 0.0\nsamples = 1\nvalue = 86.267"] ;
1010 -> 1012 ;
1013 [label="mse = -0.0\nsamples = 1\nvalue = 46.286"] ;
1001 -> 1013 ;
1014 [label="h_bond_acceptor_count <= 3.0\nmse = 17.407\nsamples = 3\nvalue = 94.312"] ;
1000 -> 1014 ;
1015 [label="mse = 0.0\nsamples = 1\nvalue = 101.535"] ;
1014 -> 1015 ;
1016 [label="rotable_bond_count <= 5.5\nmse = 0.023\nsamples = 2\nvalue = 91.905"] ;
1014 -> 1016 ;
1017 [label="mse = 0.0\nsamples = 1\nvalue = 92.12"] ;
1016 -> 1017 ;
1018 [label="mse = 0.0\nsamples = 1\nvalue = 91.797"] ;
1016 -> 1018 ;
1019 [label="h_bond_acceptor_count <= 4.5\nmse = 59.507\nsamples = 9\nvalue = 98.249"] ;
999 -> 1019 ;
1020 [label="monoisotopic_mass <= 416.676\nmse = 24.822\nsamples = 4\nvalue = 105.214"] ;
1019 -> 1020 ;
1021 [label="mse = 0.0\nsamples = 1\nvalue = 95.898"] ;
1020 -> 1021 ;
1022 [label="xlogp <= 6.35\nmse = 12.082\nsamples = 3\nvalue = 106.767"] ;
1020 -> 1022 ;
1023 [label="mse = 0.0\nsamples = 1\nvalue = 113.646"] ;
1022 -> 1023 ;
1024 [label="complexity <= 675.5\nmse = 3.142\nsamples = 2\nvalue = 105.391"] ;
1022 -> 1024 ;
1025 [label="mse = 0.0\nsamples = 1\nvalue = 103.944"] ;
1024 -> 1025 ;
1026 [label="mse = -0.0\nsamples = 1\nvalue = 107.562"] ;
1024 -> 1026 ;
1027 [label="tpsa <= 71.4\nmse = 26.054\nsamples = 5\nvalue = 93.373"] ;
1019 -> 1027 ;
1028 [label="exact_mass <= 488.262\nmse = 18.851\nsamples = 4\nvalue = 95.03"] ;
1027 -> 1028 ;
1029 [label="tpsa <= 57.0\nmse = 8.297\nsamples = 3\nvalue = 96.316"] ;
1028 -> 1029 ;
1030 [label="mse = 0.0\nsamples = 1\nvalue = 103.285"] ;
1029 -> 1030 ;
1031 [label="complexity <= 765.0\nmse = 0.237\nsamples = 2\nvalue = 95.155"] ;
1029 -> 1031 ;
1032 [label="mse = 0.0\nsamples = 1\nvalue = 95.642"] ;
1031 -> 1032 ;
1033 [label="mse = -0.0\nsamples = 1\nvalue = 94.668"] ;
1031 -> 1033 ;
1034 [label="mse = -0.0\nsamples = 1\nvalue = 86.022"] ;
1028 -> 1034 ;
1035 [label="mse = 0.0\nsamples = 1\nvalue = 86.748"] ;
1027 -> 1035 ;
1036 [label="monoisotopic_mass <= 492.278\nmse = 523.371\nsamples = 5\nvalue = 41.559"] ;
998 -> 1036 ;
1037 [label="complexity <= 789.0\nmse = 29.636\nsamples = 3\nvalue = 28.63"] ;
1036 -> 1037 ;
1038 [label="tpsa <= 85.55\nmse = 4.259\nsamples = 2\nvalue = 26.07"] ;
1037 -> 1038 ;
1039 [label="mse = 0.0\nsamples = 1\nvalue = 27.261"] ;
1038 -> 1039 ;
1040 [label="mse = -0.0\nsamples = 1\nvalue = 22.495"] ;
1038 -> 1040 ;
1041 [label="mse = 0.0\nsamples = 1\nvalue = 38.873"] ;
1037 -> 1041 ;
1042 [label="xlogp <= 9.1\nmse = 295.049\nsamples = 2\nvalue = 73.882"] ;
1036 -> 1042 ;
1043 [label="mse = 0.0\nsamples = 1\nvalue = 56.705"] ;
1042 -> 1043 ;
1044 [label="mse = -0.0\nsamples = 1\nvalue = 91.059"] ;
1042 -> 1044 ;
1045 [label="exact_mass <= 490.216\nmse = 35.651\nsamples = 6\nvalue = 108.169"] ;
997 -> 1045 ;
1046 [label="molecular_weight <= 466.0\nmse = 11.132\nsamples = 4\nvalue = 110.56"] ;
1045 -> 1046 ;
1047 [label="tpsa <= 90.75\nmse = 8.191\nsamples = 3\nvalue = 109.393"] ;
1046 -> 1047 ;
1048 [label="mse = 0.0\nsamples = 1\nvalue = 112.686"] ;
1047 -> 1048 ;
1049 [label="exact_mass <= 456.594\nmse = 0.105\nsamples = 2\nvalue = 106.924"] ;
1047 -> 1049 ;
1050 [label="mse = 0.0\nsamples = 1\nvalue = 106.6"] ;
1049 -> 1050 ;
1051 [label="mse = -0.0\nsamples = 1\nvalue = 107.248"] ;
1049 -> 1051 ;
1052 [label="mse = -0.0\nsamples = 1\nvalue = 114.642"] ;
1046 -> 1052 ;
1053 [label="molecular_weight <= 515.15\nmse = 4.522\nsamples = 2\nvalue = 97.411"] ;
1045 -> 1053 ;
1054 [label="mse = 0.0\nsamples = 1\nvalue = 99.537"] ;
1053 -> 1054 ;
1055 [label="mse = -0.0\nsamples = 1\nvalue = 95.284"] ;
1053 -> 1055 ;
1056 [label="rotable_bond_count <= 10.5\nmse = 1007.894\nsamples = 15\nvalue = 64.393"] ;
996 -> 1056 ;
1057 [label="h_bond_acceptor_count <= 11.5\nmse = 460.72\nsamples = 11\nvalue = 53.153"] ;
1056 -> 1057 ;
1058 [label="atom_stereo_count <= 1.5\nmse = 284.736\nsamples = 10\nvalue = 48.892"] ;
1057 -> 1058 ;
1059 [label="rotable_bond_count <= 5.0\nmse = 144.77\nsamples = 6\nvalue = 56.653"] ;
1058 -> 1059 ;
1060 [label="mse = 0.0\nsamples = 1\nvalue = 33.441"] ;
1059 -> 1060 ;
1061 [label="complexity <= 738.0\nmse = 44.41\nsamples = 5\nvalue = 61.296"] ;
1059 -> 1061 ;
1062 [label="mse = 0.0\nsamples = 1\nvalue = 49.019"] ;
1061 -> 1062 ;
1063 [label="xlogp <= 7.65\nmse = 8.412\nsamples = 4\nvalue = 64.365"] ;
1061 -> 1063 ;
1064 [label="tpsa <= 125.0\nmse = 6.674\nsamples = 3\nvalue = 65.431"] ;
1063 -> 1064 ;
1065 [label="xlogp <= 5.95\nmse = 0.031\nsamples = 2\nvalue = 67.254"] ;
1064 -> 1065 ;
1066 [label="mse = 0.0\nsamples = 1\nvalue = 67.431"] ;
1065 -> 1066 ;
1067 [label="mse = -0.0\nsamples = 1\nvalue = 67.078"] ;
1065 -> 1067 ;
1068 [label="mse = 0.0\nsamples = 1\nvalue = 61.783"] ;
1064 -> 1068 ;
1069 [label="mse = 0.0\nsamples = 1\nvalue = 61.168"] ;
1063 -> 1069 ;
1070 [label="tpsa <= 112.25\nmse = 293.654\nsamples = 4\nvalue = 39.578"] ;
1058 -> 1070 ;
1071 [label="tpsa <= 72.7\nmse = 37.745\nsamples = 3\nvalue = 47.694"] ;
1070 -> 1071 ;
1072 [label="xlogp <= 7.1\nmse = 0.139\nsamples = 2\nvalue = 51.236"] ;
1071 -> 1072 ;
1073 [label="mse = 0.0\nsamples = 1\nvalue = 51.763"] ;
1072 -> 1073 ;
1074 [label="mse = -0.0\nsamples = 1\nvalue = 50.972"] ;
1072 -> 1074 ;
1075 [label="mse = -0.0\nsamples = 1\nvalue = 37.067"] ;
1071 -> 1075 ;
1076 [label="mse = 0.0\nsamples = 1\nvalue = 7.115"] ;
1070 -> 1076 ;
1077 [label="mse = -0.0\nsamples = 1\nvalue = 100.023"] ;
1057 -> 1077 ;
1078 [label="tpsa <= 51.2\nmse = 1344.164\nsamples = 4\nvalue = 86.874"] ;
1056 -> 1078 ;
1079 [label="mse = 0.0\nsamples = 1\nvalue = 4.952"] ;
1078 -> 1079 ;
1080 [label="h_bond_donor_count <= 0.5\nmse = 2.312\nsamples = 3\nvalue = 103.258"] ;
1078 -> 1080 ;
1081 [label="monoisotopic_mass <= 713.475\nmse = 0.342\nsamples = 2\nvalue = 103.972"] ;
1080 -> 1081 ;
1082 [label="mse = 0.0\nsamples = 1\nvalue = 104.557"] ;
1081 -> 1082 ;
1083 [label="mse = -0.0\nsamples = 1\nvalue = 103.387"] ;
1081 -> 1083 ;
1084 [label="mse = -0.0\nsamples = 1\nvalue = 100.403"] ;
1080 -> 1084 ;
1085 [label="monoisotopic_mass <= 502.218\nmse = 93.207\nsamples = 14\nvalue = 99.046"] ;
833 -> 1085 ;
1086 [label="complexity <= 990.0\nmse = 47.556\nsamples = 11\nvalue = 102.568"] ;
1085 -> 1086 ;
1087 [label="xlogp <= 3.85\nmse = 42.665\nsamples = 8\nvalue = 99.297"] ;
1086 -> 1087 ;
1088 [label="h_bond_acceptor_count <= 5.0\nmse = 1.619\nsamples = 2\nvalue = 86.119"] ;
1087 -> 1088 ;
1089 [label="mse = 0.0\nsamples = 1\nvalue = 84.846"] ;
1088 -> 1089 ;
1090 [label="mse = -0.0\nsamples = 1\nvalue = 87.391"] ;
1088 -> 1090 ;
1091 [label="xlogp <= 5.75\nmse = 9.191\nsamples = 6\nvalue = 101.933"] ;
1087 -> 1091 ;
1092 [label="heavy_atom_count <= 29.5\nmse = 6.402\nsamples = 3\nvalue = 99.392"] ;
1091 -> 1092 ;
1093 [label="mse = 0.0\nsamples = 1\nvalue = 103.639"] ;
1092 -> 1093 ;
1094 [label="monoisotopic_mass <= 453.218\nmse = 0.521\nsamples = 2\nvalue = 97.977"] ;
1092 -> 1094 ;
1095 [label="mse = 0.0\nsamples = 1\nvalue = 98.487"] ;
1094 -> 1095 ;
1096 [label="mse = -0.0\nsamples = 1\nvalue = 96.956"] ;
1094 -> 1096 ;
1097 [label="bond_stereo_count <= 0.5\nmse = 3.877\nsamples = 3\nvalue = 103.627"] ;
1091 -> 1097 ;
1098 [label="h_bond_acceptor_count <= 2.0\nmse = 0.0\nsamples = 2\nvalue = 105.596"] ;
1097 -> 1098 ;
1099 [label="mse = 0.0\nsamples = 1\nvalue = 105.61"] ;
1098 -> 1099 ;
1100 [label="mse = 0.0\nsamples = 1\nvalue = 105.589"] ;
1098 -> 1100 ;
1101 [label="mse = -0.0\nsamples = 1\nvalue = 101.658"] ;
1097 -> 1101 ;
1102 [label="molecular_weight <= 456.0\nmse = 14.785\nsamples = 3\nvalue = 107.473"] ;
1086 -> 1102 ;
1103 [label="mse = 0.0\nsamples = 1\nvalue = 111.892"] ;
1102 -> 1103 ;
1104 [label="complexity <= 1040.0\nmse = 4.91\nsamples = 2\nvalue = 104.822"] ;
1102 -> 1104 ;
1105 [label="mse = 0.0\nsamples = 1\nvalue = 102.108"] ;
1104 -> 1105 ;
1106 [label="mse = -0.0\nsamples = 1\nvalue = 106.631"] ;
1104 -> 1106 ;
1107 [label="tpsa <= 95.6\nmse = 66.2\nsamples = 3\nvalue = 87.306"] ;
1085 -> 1107 ;
1108 [label="mse = 0.0\nsamples = 1\nvalue = 69.192"] ;
1107 -> 1108 ;
1109 [label="molecular_weight <= 658.3\nmse = 0.696\nsamples = 2\nvalue = 90.928"] ;
1107 -> 1109 ;
1110 [label="mse = 0.0\nsamples = 1\nvalue = 91.95"] ;
1109 -> 1110 ;
1111 [label="mse = 0.0\nsamples = 1\nvalue = 90.247"] ;
1109 -> 1111 ;
1112 [label="complexity <= 752.0\nmse = 1206.032\nsamples = 226\nvalue = 55.367"] ;
832 -> 1112 ;
1113 [label="rotable_bond_count <= 9.5\nmse = 1022.962\nsamples = 129\nvalue = 61.338"] ;
1112 -> 1113 ;
1114 [label="molecular_weight <= 379.1\nmse = 1034.277\nsamples = 110\nvalue = 58.278"] ;
1113 -> 1114 ;
1115 [label="complexity <= 560.0\nmse = 891.439\nsamples = 24\nvalue = 72.857"] ;
1114 -> 1115 ;
1116 [label="h_bond_acceptor_count <= 6.5\nmse = 799.421\nsamples = 14\nvalue = 59.381"] ;
1115 -> 1116 ;
1117 [label="exact_mass <= 373.197\nmse = 488.962\nsamples = 8\nvalue = 45.909"] ;
1116 -> 1117 ;
1118 [label="molecular_weight <= 361.45\nmse = 383.312\nsamples = 7\nvalue = 40.738"] ;
1117 -> 1118 ;
1119 [label="mse = 0.0\nsamples = 1\nvalue = 84.426"] ;
1118 -> 1119 ;
1120 [label="complexity <= 541.0\nmse = 228.872\nsamples = 6\nvalue = 36.766"] ;
1118 -> 1120 ;
1121 [label="rotable_bond_count <= 7.5\nmse = 164.839\nsamples = 5\nvalue = 41.337"] ;
1120 -> 1121 ;
1122 [label="h_bond_acceptor_count <= 5.5\nmse = 43.157\nsamples = 3\nvalue = 51.174"] ;
1121 -> 1122 ;
1123 [label="complexity <= 462.5\nmse = 2.479\nsamples = 2\nvalue = 56.445"] ;
1122 -> 1123 ;
1124 [label="mse = 0.0\nsamples = 1\nvalue = 57.558"] ;
1123 -> 1124 ;
1125 [label="mse = 0.0\nsamples = 1\nvalue = 54.218"] ;
1123 -> 1125 ;
1126 [label="mse = -0.0\nsamples = 1\nvalue = 43.268"] ;
1122 -> 1126 ;
1127 [label="bond_stereo_count <= 1.0\nmse = 44.78\nsamples = 2\nvalue = 29.041"] ;
1121 -> 1127 ;
1128 [label="mse = 0.0\nsamples = 1\nvalue = 32.904"] ;
1127 -> 1128 ;
1129 [label="mse = -0.0\nsamples = 1\nvalue = 17.45"] ;
1127 -> 1129 ;
1130 [label="mse = 0.0\nsamples = 1\nvalue = 16.199"] ;
1120 -> 1130 ;
1131 [label="mse = -0.0\nsamples = 1\nvalue = 76.932"] ;
1117 -> 1131 ;
1132 [label="complexity <= 449.0\nmse = 624.213\nsamples = 6\nvalue = 78.242"] ;
1116 -> 1132 ;
1133 [label="mse = 0.0\nsamples = 1\nvalue = 42.984"] ;
1132 -> 1133 ;
1134 [label="molecular_weight <= 364.555\nmse = 130.63\nsamples = 5\nvalue = 93.353"] ;
1132 -> 1134 ;
1135 [label="mse = 0.0\nsamples = 1\nvalue = 119.522"] ;
1134 -> 1135 ;
1136 [label="h_bond_acceptor_count <= 7.5\nmse = 19.24\nsamples = 4\nvalue = 88.991"] ;
1134 -> 1136 ;
1137 [label="tpsa <= 106.3\nmse = 0.659\nsamples = 2\nvalue = 94.306"] ;
1136 -> 1137 ;
1138 [label="mse = 0.0\nsamples = 1\nvalue = 93.494"] ;
1137 -> 1138 ;
1139 [label="mse = 0.0\nsamples = 1\nvalue = 95.117"] ;
1137 -> 1139 ;
1140 [label="tpsa <= 104.05\nmse = 7.35\nsamples = 2\nvalue = 86.334"] ;
1136 -> 1140 ;
1141 [label="mse = 0.0\nsamples = 1\nvalue = 89.045"] ;
1140 -> 1141 ;
1142 [label="mse = 0.0\nsamples = 1\nvalue = 83.623"] ;
1140 -> 1142 ;
1143 [label="heavy_atom_count <= 27.5\nmse = 283.168\nsamples = 10\nvalue = 94.419"] ;
1115 -> 1143 ;
1144 [label="tpsa <= 106.5\nmse = 59.986\nsamples = 9\nvalue = 98.448"] ;
1143 -> 1144 ;
1145 [label="complexity <= 587.0\nmse = 13.309\nsamples = 5\nvalue = 92.47"] ;
1144 -> 1145 ;
1146 [label="mse = 0.0\nsamples = 1\nvalue = 97.15"] ;
1145 -> 1146 ;
1147 [label="heavy_atom_count <= 26.5\nmse = 8.011\nsamples = 4\nvalue = 90.91"] ;
1145 -> 1147 ;
1148 [label="atom_stereo_count <= 0.5\nmse = 0.029\nsamples = 2\nvalue = 88.982"] ;
1147 -> 1148 ;
1149 [label="mse = 0.0\nsamples = 1\nvalue = 88.687"] ;
1148 -> 1149 ;
1150 [label="mse = 0.0\nsamples = 1\nvalue = 89.08"] ;
1148 -> 1150 ;
1151 [label="h_bond_acceptor_count <= 4.0\nmse = 1.669\nsamples = 2\nvalue = 94.766"] ;
1147 -> 1151 ;
1152 [label="mse = 0.0\nsamples = 1\nvalue = 96.058"] ;
1151 -> 1152 ;
1153 [label="mse = 0.0\nsamples = 1\nvalue = 93.474"] ;
1151 -> 1153 ;
1154 [label="rotable_bond_count <= 4.5\nmse = 11.052\nsamples = 4\nvalue = 106.418"] ;
1144 -> 1154 ;
1155 [label="complexity <= 606.0\nmse = 5.022\nsamples = 2\nvalue = 110.647"] ;
1154 -> 1155 ;
1156 [label="mse = 0.0\nsamples = 1\nvalue = 108.406"] ;
1155 -> 1156 ;
1157 [label="mse = 0.0\nsamples = 1\nvalue = 112.888"] ;
1155 -> 1157 ;
1158 [label="h_bond_donor_count <= 2.5\nmse = 0.652\nsamples = 2\nvalue = 104.303"] ;
1154 -> 1158 ;
1159 [label="mse = 0.0\nsamples = 1\nvalue = 103.837"] ;
1158 -> 1159 ;
1160 [label="mse = 0.0\nsamples = 1\nvalue = 105.702"] ;
1158 -> 1160 ;
1161 [label="mse = 0.0\nsamples = 1\nvalue = 38.023"] ;
1143 -> 1161 ;
1162 [label="h_bond_donor_count <= 3.5\nmse = 995.977\nsamples = 86\nvalue = 54.034"] ;
1114 -> 1162 ;
1163 [label="xlogp <= 3.55\nmse = 1001.294\nsamples = 74\nvalue = 50.558"] ;
1162 -> 1163 ;
1164 [label="xlogp <= 3.35\nmse = 944.098\nsamples = 34\nvalue = 40.089"] ;
1163 -> 1164 ;
1165 [label="heavy_atom_count <= 32.5\nmse = 894.639\nsamples = 29\nvalue = 47.382"] ;
1164 -> 1165 ;
1166 [label="heavy_atom_count <= 31.5\nmse = 811.398\nsamples = 26\nvalue = 51.453"] ;
1165 -> 1166 ;
1167 [label="rotable_bond_count <= 5.5\nmse = 707.24\nsamples = 24\nvalue = 48.436"] ;
1166 -> 1167 ;
1168 [label="tpsa <= 115.5\nmse = 667.995\nsamples = 13\nvalue = 60.773"] ;
1167 -> 1168 ;
1169 [label="tpsa <= 103.35\nmse = 699.44\nsamples = 8\nvalue = 73.97"] ;
1168 -> 1169 ;
1170 [label="complexity <= 565.0\nmse = 582.292\nsamples = 6\nvalue = 63.879"] ;
1169 -> 1170 ;
1171 [label="exact_mass <= 418.138\nmse = 245.182\nsamples = 3\nvalue = 78.899"] ;
1170 -> 1171 ;
1172 [label="h_bond_acceptor_count <= 5.5\nmse = 0.072\nsamples = 2\nvalue = 98.076"] ;
1171 -> 1172 ;
1173 [label="mse = 0.0\nsamples = 1\nvalue = 97.807"] ;
1172 -> 1173 ;
1174 [label="mse = -0.0\nsamples = 1\nvalue = 98.344"] ;
1172 -> 1174 ;
1175 [label="mse = 0.0\nsamples = 1\nvalue = 66.115"] ;
1171 -> 1175 ;
1176 [label="tpsa <= 88.6\nmse = 141.397\nsamples = 3\nvalue = 38.844"] ;
1170 -> 1176 ;
1177 [label="mse = 0.0\nsamples = 1\nvalue = 55.601"] ;
1176 -> 1177 ;
1178 [label="h_bond_acceptor_count <= 5.5\nmse = 1.506\nsamples = 2\nvalue = 30.466"] ;
1176 -> 1178 ;
1179 [label="mse = 0.0\nsamples = 1\nvalue = 29.239"] ;
1178 -> 1179 ;
1180 [label="mse = -0.0\nsamples = 1\nvalue = 31.693"] ;
1178 -> 1180 ;
1181 [label="complexity <= 550.5\nmse = 16.177\nsamples = 2\nvalue = 100.879"] ;
1169 -> 1181 ;
1182 [label="mse = 0.0\nsamples = 1\nvalue = 95.191"] ;
1181 -> 1182 ;
1183 [label="mse = 0.0\nsamples = 1\nvalue = 103.723"] ;
1181 -> 1183 ;
1184 [label="heavy_atom_count <= 29.5\nmse = 56.047\nsamples = 5\nvalue = 42.628"] ;
1168 -> 1184 ;
1185 [label="h_bond_acceptor_count <= 9.5\nmse = 11.586\nsamples = 3\nvalue = 37.567"] ;
1184 -> 1185 ;
1186 [label="tpsa <= 127.5\nmse = 0.049\nsamples = 2\nvalue = 34.792"] ;
1185 -> 1186 ;
1187 [label="mse = 0.0\nsamples = 1\nvalue = 35.105"] ;
1186 -> 1187 ;
1188 [label="mse = -0.0\nsamples = 1\nvalue = 34.635"] ;
1186 -> 1188 ;
1189 [label="mse = 0.0\nsamples = 1\nvalue = 41.731"] ;
1185 -> 1189 ;
1190 [label="molecular_weight <= 423.95\nmse = 16.344\nsamples = 2\nvalue = 51.061"] ;
1184 -> 1190 ;
1191 [label="mse = 0.0\nsamples = 1\nvalue = 53.92"] ;
1190 -> 1191 ;
1192 [label="mse = 0.0\nsamples = 1\nvalue = 45.344"] ;
1190 -> 1192 ;
1193 [label="tpsa <= 89.8\nmse = 319.96\nsamples = 11\nvalue = 32.809"] ;
1167 -> 1193 ;
1194 [label="rotable_bond_count <= 6.5\nmse = 26.103\nsamples = 3\nvalue = 57.655"] ;
1193 -> 1194 ;
1195 [label="complexity <= 537.0\nmse = 2.215\nsamples = 2\nvalue = 54.801"] ;
1194 -> 1195 ;
1196 [label="mse = 0.0\nsamples = 1\nvalue = 55.853"] ;
1195 -> 1196 ;
1197 [label="mse = -0.0\nsamples = 1\nvalue = 52.696"] ;
1195 -> 1197 ;
1198 [label="mse = -0.0\nsamples = 1\nvalue = 66.218"] ;
1194 -> 1198 ;
1199 [label="heavy_atom_count <= 29.5\nmse = 120.707\nsamples = 8\nvalue = 23.774"] ;
1193 -> 1199 ;
1200 [label="monoisotopic_mass <= 399.187\nmse = 37.05\nsamples = 5\nvalue = 32.125"] ;
1199 -> 1200 ;
1201 [label="mse = 0.0\nsamples = 1\nvalue = 19.467"] ;
1200 -> 1201 ;
1202 [label="exact_mass <= 402.163\nmse = 6.007\nsamples = 4\nvalue = 34.656"] ;
1200 -> 1202 ;
1203 [label="mse = 0.0\nsamples = 1\nvalue = 30.248"] ;
1202 -> 1203 ;
1204 [label="heavy_atom_count <= 26.0\nmse = 1.436\nsamples = 3\nvalue = 35.758"] ;
1202 -> 1204 ;
1205 [label="mse = 0.0\nsamples = 1\nvalue = 37.83"] ;
1204 -> 1205 ;
1206 [label="heavy_atom_count <= 28.0\nmse = 0.008\nsamples = 2\nvalue = 35.068"] ;
1204 -> 1206 ;
1207 [label="mse = 0.0\nsamples = 1\nvalue = 35.13"] ;
1206 -> 1207 ;
1208 [label="mse = 0.0\nsamples = 1\nvalue = 34.944"] ;
1206 -> 1208 ;
1209 [label="molecular_weight <= 411.65\nmse = 36.999\nsamples = 3\nvalue = 13.753"] ;
1199 -> 1209 ;
1210 [label="mse = 0.0\nsamples = 1\nvalue = 6.545"] ;
1209 -> 1210 ;
1211 [label="h_bond_donor_count <= 2.5\nmse = 3.931\nsamples = 2\nvalue = 18.559"] ;
1209 -> 1211 ;
1212 [label="mse = 0.0\nsamples = 1\nvalue = 15.755"] ;
1211 -> 1212 ;
1213 [label="mse = 0.0\nsamples = 1\nvalue = 19.961"] ;
1211 -> 1213 ;
1214 [label="atom_stereo_count <= 1.5\nmse = 719.924\nsamples = 2\nvalue = 85.64"] ;
1166 -> 1214 ;
1215 [label="mse = 0.0\nsamples = 1\nvalue = 104.613"] ;
1214 -> 1215 ;
1216 [label="mse = 0.0\nsamples = 1\nvalue = 47.695"] ;
1214 -> 1216 ;
1217 [label="molecular_weight <= 471.55\nmse = 94.003\nsamples = 3\nvalue = 9.734"] ;
1165 -> 1217 ;
1218 [label="mse = 0.0\nsamples = 1\nvalue = 26.525"] ;
1217 -> 1218 ;
1219 [label="molecular_weight <= 499.6\nmse = 0.035\nsamples = 2\nvalue = 4.137"] ;
1217 -> 1219 ;
1220 [label="mse = 0.0\nsamples = 1\nvalue = 4.402"] ;
1219 -> 1220 ;
