digraph Tree {
node [shape=box] ;
0 [label="heavy_atom_count <= 28.5\nmse = 6091.818\nsamples = 782\nvalue = 461.343"] ;
1 [label="bond_stereo_count <= 1.5\nmse = 4046.288\nsamples = 438\nvalue = 480.183"] ;
0 -> 1 [labeldistance=2.5, labelangle=45, headlabel="True"] ;
2 [label="exact_mass <= 357.647\nmse = 3528.948\nsamples = 430\nvalue = 482.385"] ;
1 -> 2 ;
3 [label="complexity <= 738.0\nmse = 3112.537\nsamples = 302\nvalue = 489.922"] ;
2 -> 3 ;
4 [label="h_bond_donor_count <= 6.5\nmse = 2953.455\nsamples = 301\nvalue = 490.507"] ;
3 -> 4 ;
5 [label="complexity <= 542.5\nmse = 2473.32\nsamples = 297\nvalue = 491.576"] ;
4 -> 5 ;
6 [label="tpsa <= 145.5\nmse = 2382.788\nsamples = 274\nvalue = 494.04"] ;
5 -> 6 ;
7 [label="tpsa <= 121.5\nmse = 2368.008\nsamples = 266\nvalue = 492.907"] ;
6 -> 7 ;
8 [label="xlogp <= -1.95\nmse = 2181.597\nsamples = 249\nvalue = 494.612"] ;
7 -> 8 ;
9 [label="h_bond_donor_count <= 5.0\nmse = 1691.817\nsamples = 4\nvalue = 543.2"] ;
8 -> 9 ;
10 [label="rotable_bond_count <= 3.5\nmse = 1000.353\nsamples = 3\nvalue = 560.915"] ;
9 -> 10 ;
11 [label="rotable_bond_count <= 2.5\nmse = 1480.696\nsamples = 2\nvalue = 544.791"] ;
10 -> 11 ;
12 [label="mse = 0.0\nsamples = 1\nvalue = 572.0"] ;
11 -> 12 ;
13 [label="mse = -0.0\nsamples = 1\nvalue = 490.372"] ;
11 -> 13 ;
14 [label="mse = 0.0\nsamples = 1\nvalue = 577.04"] ;
10 -> 14 ;
15 [label="mse = -0.0\nsamples = 1\nvalue = 490.052"] ;
9 -> 15 ;
16 [label="h_bond_donor_count <= 1.5\nmse = 2143.135\nsamples = 245\nvalue = 493.638"] ;
8 -> 16 ;
17 [label="atom_stereo_count <= 1.5\nmse = 1445.683\nsamples = 113\nvalue = 500.61"] ;
16 -> 17 ;
18 [label="xlogp <= 0.2\nmse = 1429.403\nsamples = 95\nvalue = 504.711"] ;
17 -> 18 ;
19 [label="complexity <= 439.5\nmse = 1218.737\nsamples = 21\nvalue = 485.199"] ;
18 -> 19 ;
20 [label="xlogp <= -0.35\nmse = 1031.382\nsamples = 20\nvalue = 487.767"] ;
19 -> 20 ;
21 [label="tpsa <= 61.6\nmse = 830.614\nsamples = 5\nvalue = 510.745"] ;
20 -> 21 ;
22 [label="mse = 0.0\nsamples = 1\nvalue = 540.193"] ;
21 -> 22 ;
23 [label="complexity <= 138.5\nmse = 677.246\nsamples = 4\nvalue = 498.966"] ;
21 -> 23 ;
24 [label="mse = 0.0\nsamples = 1\nvalue = 447.996"] ;
23 -> 24 ;
25 [label="tpsa <= 71.4\nmse = 34.695\nsamples = 3\nvalue = 511.709"] ;
23 -> 25 ;
26 [label="mse = 0.0\nsamples = 1\nvalue = 501.602"] ;
25 -> 26 ;
27 [label="heavy_atom_count <= 12.5\nmse = 0.862\nsamples = 2\nvalue = 515.078"] ;
25 -> 27 ;
28 [label="mse = 0.0\nsamples = 1\nvalue = 515.734"] ;
27 -> 28 ;
29 [label="mse = -0.0\nsamples = 1\nvalue = 513.765"] ;
27 -> 29 ;
30 [label="h_bond_acceptor_count <= 3.5\nmse = 905.015\nsamples = 15\nvalue = 481.581"] ;
20 -> 30 ;
31 [label="tpsa <= 46.55\nmse = 818.327\nsamples = 12\nvalue = 491.484"] ;
30 -> 31 ;
32 [label="complexity <= 269.5\nmse = 535.66\nsamples = 8\nvalue = 475.653"] ;
31 -> 32 ;
33 [label="tpsa <= 40.5\nmse = 154.877\nsamples = 5\nvalue = 463.199"] ;
32 -> 33 ;
34 [label="complexity <= 263.0\nmse = 64.379\nsamples = 4\nvalue = 457.238"] ;
33 -> 34 ;
35 [label="tpsa <= 26.3\nmse = 7.042\nsamples = 3\nvalue = 453.817"] ;
34 -> 35 ;
36 [label="rotable_bond_count <= 6.0\nmse = 1.488\nsamples = 2\nvalue = 451.792"] ;
35 -> 36 ;
37 [label="mse = 0.0\nsamples = 1\nvalue = 452.655"] ;
36 -> 37 ;
38 [label="mse = -0.0\nsamples = 1\nvalue = 450.067"] ;
36 -> 38 ;
39 [label="mse = -0.0\nsamples = 1\nvalue = 456.854"] ;
35 -> 39 ;
40 [label="mse = -0.0\nsamples = 1\nvalue = 474.342"] ;
34 -> 40 ;
41 [label="mse = -0.0\nsamples = 1\nvalue = 481.081"] ;
33 -> 41 ;
42 [label="monoisotopic_mass <= 334.165\nmse = 34.457\nsamples = 3\nvalue = 508.864"] ;
32 -> 42 ;
43 [label="molecular_weight <= 322.1\nmse = 0.035\nsamples = 2\nvalue = 504.715"] ;
42 -> 43 ;
44 [label="mse = 0.0\nsamples = 1\nvalue = 504.901"] ;
43 -> 44 ;
45 [label="mse = -0.0\nsamples = 1\nvalue = 504.529"] ;
43 -> 45 ;
46 [label="mse = 0.0\nsamples = 1\nvalue = 517.163"] ;
42 -> 46 ;
47 [label="atom_stereo_count <= 0.5\nmse = 388.54\nsamples = 4\nvalue = 513.252"] ;
31 -> 47 ;
48 [label="complexity <= 204.6\nmse = 223.911\nsamples = 3\nvalue = 501.039"] ;
47 -> 48 ;
49 [label="mse = 0.0\nsamples = 1\nvalue = 471.957"] ;
48 -> 49 ;
50 [label="complexity <= 364.5\nmse = 15.588\nsamples = 2\nvalue = 508.31"] ;
48 -> 50 ;
51 [label="mse = 0.0\nsamples = 1\nvalue = 510.589"] ;
50 -> 51 ;
52 [label="mse = -0.0\nsamples = 1\nvalue = 501.471"] ;
50 -> 52 ;
53 [label="mse = 0.0\nsamples = 1\nvalue = 533.607"] ;
47 -> 53 ;
54 [label="heavy_atom_count <= 16.0\nmse = 151.616\nsamples = 3\nvalue = 454.702"] ;
30 -> 54 ;
55 [label="monoisotopic_mass <= 182.009\nmse = 21.207\nsamples = 2\nvalue = 449.986"] ;
54 -> 55 ;
56 [label="mse = 0.0\nsamples = 1\nvalue = 443.473"] ;
55 -> 56 ;
57 [label="mse = -0.0\nsamples = 1\nvalue = 453.242"] ;
55 -> 57 ;
58 [label="mse = 0.0\nsamples = 1\nvalue = 482.997"] ;
54 -> 58 ;
59 [label="mse = 0.0\nsamples = 1\nvalue = 400.442"] ;
19 -> 59 ;
60 [label="tpsa <= 112.5\nmse = 1354.987\nsamples = 74\nvalue = 510.018"] ;
18 -> 60 ;
61 [label="heavy_atom_count <= 25.5\nmse = 1265.601\nsamples = 73\nvalue = 508.683"] ;
60 -> 61 ;
62 [label="molecular_weight <= 168.735\nmse = 1033.693\nsamples = 70\nvalue = 510.614"] ;
61 -> 62 ;
63 [label="exact_mass <= 150.079\nmse = 183.579\nsamples = 3\nvalue = 557.184"] ;
62 -> 63 ;
64 [label="mse = 0.0\nsamples = 1\nvalue = 530.88"] ;
63 -> 64 ;
65 [label="rotable_bond_count <= 2.5\nmse = 13.252\nsamples = 2\nvalue = 563.76"] ;
63 -> 65 ;
66 [label="mse = 0.0\nsamples = 1\nvalue = 557.455"] ;
65 -> 66 ;
67 [label="mse = 0.0\nsamples = 1\nvalue = 565.862"] ;
65 -> 67 ;
68 [label="exact_mass <= 188.547\nmse = 971.685\nsamples = 67\nvalue = 508.571"] ;
62 -> 68 ;
69 [label="rotable_bond_count <= 3.5\nmse = 346.226\nsamples = 6\nvalue = 470.314"] ;
68 -> 69 ;
70 [label="tpsa <= 39.6\nmse = 126.041\nsamples = 4\nvalue = 481.733"] ;
69 -> 70 ;
71 [label="tpsa <= 28.6\nmse = 62.71\nsamples = 2\nvalue = 475.26"] ;
70 -> 71 ;
72 [label="mse = 0.0\nsamples = 1\nvalue = 461.544"] ;
71 -> 72 ;
73 [label="mse = -0.0\nsamples = 1\nvalue = 479.832"] ;
71 -> 73 ;
74 [label="heavy_atom_count <= 12.5\nmse = 1.292\nsamples = 2\nvalue = 494.679"] ;
70 -> 74 ;
75 [label="mse = 0.0\nsamples = 1\nvalue = 493.543"] ;
74 -> 75 ;
76 [label="mse = 0.0\nsamples = 1\nvalue = 495.816"] ;
74 -> 76 ;
77 [label="atom_stereo_count <= 0.5\nmse = 4.166\nsamples = 2\nvalue = 447.475"] ;
69 -> 77 ;
78 [label="mse = 0.0\nsamples = 1\nvalue = 448.918"] ;
77 -> 78 ;
79 [label="mse = 0.0\nsamples = 1\nvalue = 444.588"] ;
77 -> 79 ;
80 [label="molecular_weight <= 336.425\nmse = 889.086\nsamples = 61\nvalue = 511.851"] ;
68 -> 80 ;
81 [label="tpsa <= 55.25\nmse = 775.369\nsamples = 50\nvalue = 507.668"] ;
80 -> 81 ;
82 [label="xlogp <= 1.75\nmse = 582.957\nsamples = 25\nvalue = 516.218"] ;
81 -> 82 ;
83 [label="complexity <= 340.0\nmse = 178.431\nsamples = 3\nvalue = 556.963"] ;
82 -> 83 ;
84 [label="tpsa <= 45.25\nmse = 50.568\nsamples = 2\nvalue = 547.027"] ;
83 -> 84 ;
85 [label="mse = 0.0\nsamples = 1\nvalue = 552.055"] ;
84 -> 85 ;
86 [label="mse = 0.0\nsamples = 1\nvalue = 536.97"] ;
84 -> 86 ;
87 [label="mse = 0.0\nsamples = 1\nvalue = 571.867"] ;
83 -> 87 ;
88 [label="xlogp <= 4.4\nmse = 405.148\nsamples = 22\nvalue = 511.25"] ;
82 -> 88 ;
89 [label="rotable_bond_count <= 4.5\nmse = 307.566\nsamples = 19\nvalue = 514.262"] ;
88 -> 89 ;
90 [label="tpsa <= 38.8\nmse = 257.895\nsamples = 16\nvalue = 518.091"] ;
89 -> 90 ;
91 [label="complexity <= 221.0\nmse = 176.173\nsamples = 10\nvalue = 528.402"] ;
90 -> 91 ;
92 [label="complexity <= 179.0\nmse = 6.23\nsamples = 2\nvalue = 516.276"] ;
91 -> 92 ;
93 [label="mse = 0.0\nsamples = 1\nvalue = 513.78"] ;
92 -> 93 ;
94 [label="mse = 0.0\nsamples = 1\nvalue = 518.772"] ;
92 -> 94 ;
95 [label="rotable_bond_count <= 0.5\nmse = 170.714\nsamples = 8\nvalue = 531.866"] ;
91 -> 95 ;
96 [label="mse = 0.0\nsamples = 1\nvalue = 504.893"] ;
95 -> 96 ;
97 [label="xlogp <= 3.9\nmse = 123.573\nsamples = 7\nvalue = 533.941"] ;
95 -> 97 ;
98 [label="rotable_bond_count <= 2.5\nmse = 54.316\nsamples = 5\nvalue = 537.833"] ;
97 -> 98 ;
99 [label="molecular_weight <= 320.3\nmse = 9.854\nsamples = 3\nvalue = 532.959"] ;
98 -> 99 ;
100 [label="h_bond_donor_count <= 0.5\nmse = 0.602\nsamples = 2\nvalue = 529.868"] ;
99 -> 100 ;
101 [label="mse = 0.0\nsamples = 1\nvalue = 528.771"] ;
100 -> 101 ;
102 [label="mse = 0.0\nsamples = 1\nvalue = 530.417"] ;
100 -> 102 ;
103 [label="mse = 0.0\nsamples = 1\nvalue = 536.05"] ;
99 -> 103 ;
104 [label="heavy_atom_count <= 18.5\nmse = 0.695\nsamples = 2\nvalue = 547.582"] ;
98 -> 104 ;
105 [label="mse = 0.0\nsamples = 1\nvalue = 546.992"] ;
104 -> 105 ;
106 [label="mse = -0.0\nsamples = 1\nvalue = 548.761"] ;
104 -> 106 ;
107 [label="complexity <= 346.5\nmse = 168.638\nsamples = 2\nvalue = 525.185"] ;
97 -> 107 ;
108 [label="mse = 0.0\nsamples = 1\nvalue = 532.682"] ;
107 -> 108 ;
109 [label="mse = -0.0\nsamples = 1\nvalue = 502.692"] ;
107 -> 109 ;
110 [label="monoisotopic_mass <= 273.624\nmse = 50.506\nsamples = 6\nvalue = 504.833"] ;
90 -> 110 ;
111 [label="exact_mass <= 248.094\nmse = 3.761\nsamples = 3\nvalue = 512.84"] ;
110 -> 111 ;
112 [label="xlogp <= 2.25\nmse = 0.093\nsamples = 2\nvalue = 511.48"] ;
111 -> 112 ;
113 [label="mse = -0.0\nsamples = 1\nvalue = 511.656"] ;
112 -> 113 ;
114 [label="mse = -0.0\nsamples = 1\nvalue = 510.953"] ;
112 -> 114 ;
115 [label="mse = 0.0\nsamples = 1\nvalue = 515.56"] ;
111 -> 115 ;
116 [label="complexity <= 477.5\nmse = 1.419\nsamples = 3\nvalue = 498.828"] ;
110 -> 116 ;
117 [label="monoisotopic_mass <= 306.658\nmse = 0.449\nsamples = 2\nvalue = 496.848"] ;
116 -> 117 ;
118 [label="mse = 0.0\nsamples = 1\nvalue = 497.518"] ;
117 -> 118 ;
119 [label="mse = -0.0\nsamples = 1\nvalue = 496.178"] ;
117 -> 119 ;
120 [label="mse = 0.0\nsamples = 1\nvalue = 499.488"] ;
116 -> 120 ;
121 [label="xlogp <= 2.9\nmse = 77.324\nsamples = 3\nvalue = 493.842"] ;
89 -> 121 ;
122 [label="mse = 0.0\nsamples = 1\nvalue = 510.941"] ;
121 -> 122 ;
123 [label="complexity <= 289.0\nmse = 22.619\nsamples = 2\nvalue = 490.422"] ;
121 -> 123 ;
124 [label="mse = 0.0\nsamples = 1\nvalue = 486.539"] ;
123 -> 124 ;
125 [label="mse = 0.0\nsamples = 1\nvalue = 496.247"] ;
123 -> 125 ;
126 [label="xlogp <= 6.5\nmse = 70.432\nsamples = 3\nvalue = 473.094"] ;
88 -> 126 ;
127 [label="h_bond_donor_count <= 0.5\nmse = 18.033\nsamples = 2\nvalue = 478.499"] ;
126 -> 127 ;
128 [label="mse = 0.0\nsamples = 1\nvalue = 482.745"] ;
127 -> 128 ;
129 [label="mse = -0.0\nsamples = 1\nvalue = 474.252"] ;
127 -> 129 ;
130 [label="mse = -0.0\nsamples = 1\nvalue = 462.286"] ;
126 -> 130 ;
131 [label="molecular_weight <= 233.945\nmse = 817.189\nsamples = 25\nvalue = 498.075"] ;
81 -> 131 ;
132 [label="mse = 0.0\nsamples = 1\nvalue = 450.179"] ;
131 -> 132 ;
133 [label="xlogp <= 1.4\nmse = 686.301\nsamples = 24\nvalue = 501.856"] ;
131 -> 133 ;
134 [label="heavy_atom_count <= 20.5\nmse = 217.629\nsamples = 5\nvalue = 522.645"] ;
133 -> 134 ;
135 [label="molecular_weight <= 275.13\nmse = 48.125\nsamples = 3\nvalue = 514.087"] ;
134 -> 135 ;
136 [label="mse = 0.0\nsamples = 1\nvalue = 501.209"] ;
135 -> 136 ;
137 [label="xlogp <= 1.1\nmse = 8.329\nsamples = 2\nvalue = 517.307"] ;
135 -> 137 ;
138 [label="mse = 0.0\nsamples = 1\nvalue = 512.308"] ;
137 -> 138 ;
139 [label="mse = -0.0\nsamples = 1\nvalue = 518.973"] ;
137 -> 139 ;
140 [label="exact_mass <= 304.603\nmse = 0.596\nsamples = 2\nvalue = 544.039"] ;
134 -> 140 ;
141 [label="mse = 0.0\nsamples = 1\nvalue = 543.267"] ;
140 -> 141 ;
142 [label="mse = -0.0\nsamples = 1\nvalue = 544.811"] ;
140 -> 142 ;
143 [label="xlogp <= 3.25\nmse = 672.505\nsamples = 19\nvalue = 497.162"] ;
133 -> 143 ;
144 [label="complexity <= 385.5\nmse = 681.69\nsamples = 14\nvalue = 501.752"] ;
143 -> 144 ;
145 [label="rotable_bond_count <= 2.5\nmse = 1461.774\nsamples = 3\nvalue = 532.137"] ;
144 -> 145 ;
146 [label="mse = 0.0\nsamples = 1\nvalue = 579.971"] ;
145 -> 146 ;
147 [label="xlogp <= 2.3\nmse = 476.593\nsamples = 2\nvalue = 508.22"] ;
145 -> 147 ;
148 [label="mse = 0.0\nsamples = 1\nvalue = 530.051"] ;
147 -> 148 ;
149 [label="mse = 0.0\nsamples = 1\nvalue = 486.389"] ;
147 -> 149 ;
150 [label="xlogp <= 2.95\nmse = 419.515\nsamples = 11\nvalue = 497.411"] ;
144 -> 150 ;
151 [label="tpsa <= 66.7\nmse = 359.096\nsamples = 9\nvalue = 493.171"] ;
150 -> 151 ;
152 [label="tpsa <= 65.7\nmse = 487.036\nsamples = 4\nvalue = 475.345"] ;
151 -> 152 ;
153 [label="rotable_bond_count <= 1.5\nmse = 146.102\nsamples = 3\nvalue = 483.892"] ;
152 -> 153 ;
154 [label="mse = 0.0\nsamples = 1\nvalue = 469.128"] ;
153 -> 154 ;
155 [label="monoisotopic_mass <= 301.62\nmse = 1.308\nsamples = 2\nvalue = 493.735"] ;
153 -> 155 ;
156 [label="mse = 0.0\nsamples = 1\nvalue = 495.352"] ;
155 -> 156 ;
157 [label="mse = 0.0\nsamples = 1\nvalue = 492.926"] ;
155 -> 157 ;
158 [label="mse = -0.0\nsamples = 1\nvalue = 432.608"] ;
152 -> 158 ;
159 [label="complexity <= 403.0\nmse = 56.795\nsamples = 5\nvalue = 502.084"] ;
151 -> 159 ;
160 [label="mse = 0.0\nsamples = 1\nvalue = 512.905"] ;
159 -> 160 ;
161 [label="tpsa <= 83.2\nmse = 40.052\nsamples = 4\nvalue = 499.92"] ;
159 -> 161 ;
162 [label="mse = 0.0\nsamples = 1\nvalue = 481.0"] ;
161 -> 162 ;
163 [label="complexity <= 487.5\nmse = 0.309\nsamples = 3\nvalue = 502.022"] ;
161 -> 163 ;
164 [label="complexity <= 430.5\nmse = 0.071\nsamples = 2\nvalue = 501.66"] ;
163 -> 164 ;
165 [label="mse = 0.0\nsamples = 1\nvalue = 501.394"] ;
164 -> 165 ;
166 [label="mse = 0.0\nsamples = 1\nvalue = 501.926"] ;
164 -> 166 ;
167 [label="mse = 0.0\nsamples = 1\nvalue = 502.746"] ;
163 -> 167 ;
168 [label="heavy_atom_count <= 19.5\nmse = 26.83\nsamples = 2\nvalue = 522.854"] ;
150 -> 168 ;
169 [label="mse = 0.0\nsamples = 1\nvalue = 519.191"] ;
168 -> 169 ;
170 [label="mse = -0.0\nsamples = 1\nvalue = 530.179"] ;
168 -> 170 ;
171 [label="tpsa <= 71.35\nmse = 321.076\nsamples = 5\nvalue = 481.423"] ;
143 -> 171 ;
172 [label="heavy_atom_count <= 21.0\nmse = 0.77\nsamples = 2\nvalue = 494.114"] ;
171 -> 172 ;
173 [label="mse = 0.0\nsamples = 1\nvalue = 494.992"] ;
172 -> 173 ;
174 [label="mse = -0.0\nsamples = 1\nvalue = 493.237"] ;
172 -> 174 ;
175 [label="complexity <= 295.0\nmse = 247.064\nsamples = 3\nvalue = 464.502"] ;
171 -> 175 ;
176 [label="mse = 0.0\nsamples = 1\nvalue = 486.115"] ;
175 -> 176 ;
177 [label="heavy_atom_count <= 20.5\nmse = 20.255\nsamples = 2\nvalue = 453.696"] ;
175 -> 177 ;
178 [label="mse = 0.0\nsamples = 1\nvalue = 449.195"] ;
177 -> 178 ;
179 [label="mse = -0.0\nsamples = 1\nvalue = 458.196"] ;
177 -> 179 ;
180 [label="bond_stereo_count <= 0.5\nmse = 945.472\nsamples = 11\nvalue = 532.067"] ;
80 -> 180 ;
181 [label="xlogp <= 3.05\nmse = 448.385\nsamples = 10\nvalue = 540.335"] ;
180 -> 181 ;
182 [label="complexity <= 497.5\nmse = 183.303\nsamples = 5\nvalue = 556.596"] ;
181 -> 182 ;
183 [label="rotable_bond_count <= 3.5\nmse = 75.303\nsamples = 4\nvalue = 563.794"] ;
182 -> 183 ;
184 [label="heavy_atom_count <= 22.5\nmse = 3.017\nsamples = 2\nvalue = 574.332"] ;
183 -> 184 ;
185 [label="mse = 0.0\nsamples = 1\nvalue = 576.069"] ;
184 -> 185 ;
186 [label="mse = 0.0\nsamples = 1\nvalue = 572.595"] ;
184 -> 186 ;
187 [label="molecular_weight <= 347.825\nmse = 0.1\nsamples = 2\nvalue = 556.768"] ;
183 -> 187 ;
188 [label="mse = 0.0\nsamples = 1\nvalue = 556.321"] ;
187 -> 188 ;
189 [label="mse = 0.0\nsamples = 1\nvalue = 556.992"] ;
187 -> 189 ;
190 [label="mse = 0.0\nsamples = 1\nvalue = 538.602"] ;
182 -> 190 ;
191 [label="complexity <= 487.5\nmse = 288.933\nsamples = 5\nvalue = 527.687"] ;
181 -> 191 ;
192 [label="xlogp <= 4.95\nmse = 96.359\nsamples = 4\nvalue = 522.647"] ;
191 -> 192 ;
193 [label="tpsa <= 78.75\nmse = 0.08\nsamples = 2\nvalue = 515.206"] ;
192 -> 193 ;
194 [label="mse = 0.0\nsamples = 1\nvalue = 515.437"] ;
193 -> 194 ;
195 [label="mse = -0.0\nsamples = 1\nvalue = 514.859"] ;
193 -> 195 ;
196 [label="atom_stereo_count <= 0.5\nmse = 10.762\nsamples = 2\nvalue = 535.048"] ;
192 -> 196 ;
197 [label="mse = 0.0\nsamples = 1\nvalue = 532.728"] ;
196 -> 197 ;
198 [label="mse = -0.0\nsamples = 1\nvalue = 539.687"] ;
196 -> 198 ;
199 [label="mse = 0.0\nsamples = 1\nvalue = 568.014"] ;
191 -> 199 ;
200 [label="mse = -0.0\nsamples = 1\nvalue = 465.921"] ;
180 -> 200 ;
201 [label="rotable_bond_count <= 2.5\nmse = 4752.743\nsamples = 3\nvalue = 451.227"] ;
61 -> 201 ;
202 [label="mse = 0.0\nsamples = 1\nvalue = 331.858"] ;
201 -> 202 ;
203 [label="tpsa <= 64.15\nmse = 4.12\nsamples = 2\nvalue = 491.017"] ;
201 -> 203 ;
204 [label="mse = 0.0\nsamples = 1\nvalue = 492.452"] ;
203 -> 204 ;
205 [label="mse = 0.0\nsamples = 1\nvalue = 488.146"] ;
203 -> 205 ;
206 [label="mse = -0.0\nsamples = 1\nvalue = 592.131"] ;
60 -> 206 ;
207 [label="molecular_weight <= 248.81\nmse = 900.358\nsamples = 18\nvalue = 477.323"] ;
17 -> 207 ;
208 [label="exact_mass <= 187.62\nmse = 295.957\nsamples = 4\nvalue = 441.716"] ;
207 -> 208 ;
209 [label="exact_mass <= 167.131\nmse = 81.396\nsamples = 2\nvalue = 461.49"] ;
208 -> 209 ;
210 [label="mse = 0.0\nsamples = 1\nvalue = 470.512"] ;
209 -> 210 ;
211 [label="mse = -0.0\nsamples = 1\nvalue = 452.468"] ;
209 -> 211 ;
212 [label="xlogp <= 1.45\nmse = 4.54\nsamples = 2\nvalue = 428.533"] ;
208 -> 212 ;
213 [label="mse = 0.0\nsamples = 1\nvalue = 425.52"] ;
212 -> 213 ;
214 [label="mse = 0.0\nsamples = 1\nvalue = 430.04"] ;
212 -> 214 ;
215 [label="xlogp <= 1.75\nmse = 696.212\nsamples = 14\nvalue = 485.064"] ;
207 -> 215 ;
216 [label="covalent_unit_count <= 1.5\nmse = 17.799\nsamples = 3\nvalue = 460.016"] ;
215 -> 216 ;
217 [label="molecular_weight <= 288.365\nmse = 4.601\nsamples = 2\nvalue = 463.953"] ;
216 -> 217 ;
218 [label="mse = 0.0\nsamples = 1\nvalue = 462.436"] ;
217 -> 218 ;
219 [label="mse = 0.0\nsamples = 1\nvalue = 466.986"] ;
217 -> 219 ;
220 [label="mse = 0.0\nsamples = 1\nvalue = 456.079"] ;
216 -> 220 ;
221 [label="exact_mass <= 302.199\nmse = 636.068\nsamples = 11\nvalue = 493.904"] ;
215 -> 221 ;
222 [label="molecular_weight <= 252.35\nmse = 423.168\nsamples = 8\nvalue = 486.247"] ;
221 -> 222 ;
223 [label="h_bond_donor_count <= 0.5\nmse = 2.779\nsamples = 2\nvalue = 522.594"] ;
222 -> 223 ;
224 [label="mse = 0.0\nsamples = 1\nvalue = 520.927"] ;
223 -> 224 ;
225 [label="mse = -0.0\nsamples = 1\nvalue = 524.261"] ;
223 -> 225 ;
226 [label="molecular_weight <= 276.365\nmse = 236.353\nsamples = 6\nvalue = 480.189"] ;
222 -> 226 ;
227 [label="rotable_bond_count <= 4.0\nmse = 0.801\nsamples = 2\nvalue = 456.579"] ;
226 -> 227 ;
228 [label="mse = 0.0\nsamples = 1\nvalue = 457.212"] ;
227 -> 228 ;
229 [label="mse = 0.0\nsamples = 1\nvalue = 455.313"] ;
227 -> 229 ;
230 [label="h_bond_acceptor_count <= 2.5\nmse = 67.115\nsamples = 4\nvalue = 488.059"] ;
226 -> 230 ;
231 [label="mse = 0.0\nsamples = 1\nvalue = 470.196"] ;
230 -> 231 ;
232 [label="h_bond_acceptor_count <= 4.0\nmse = 30.631\nsamples = 3\nvalue = 490.292"] ;
230 -> 232 ;
233 [label="mse = 0.0\nsamples = 1\nvalue = 499.832"] ;
232 -> 233 ;
234 [label="complexity <= 440.5\nmse = 0.395\nsamples = 2\nvalue = 487.112"] ;
232 -> 234 ;
235 [label="mse = 0.0\nsamples = 1\nvalue = 487.741"] ;
234 -> 235 ;
236 [label="mse = -0.0\nsamples = 1\nvalue = 486.484"] ;
234 -> 236 ;
237 [label="xlogp <= 3.3\nmse = 79.255\nsamples = 3\nvalue = 529.636"] ;
221 -> 237 ;
238 [label="xlogp <= 2.8\nmse = 3.538\nsamples = 2\nvalue = 523.435"] ;
237 -> 238 ;
239 [label="mse = 0.0\nsamples = 1\nvalue = 525.316"] ;
238 -> 239 ;
240 [label="mse = 0.0\nsamples = 1\nvalue = 521.554"] ;
238 -> 240 ;
241 [label="mse = -0.0\nsamples = 1\nvalue = 542.037"] ;
237 -> 241 ;
242 [label="bond_stereo_count <= 0.5\nmse = 2677.651\nsamples = 132\nvalue = 487.489"] ;
16 -> 242 ;
243 [label="atom_stereo_count <= 0.5\nmse = 2475.485\nsamples = 119\nvalue = 484.637"] ;
242 -> 243 ;
244 [label="molecular_weight <= 306.295\nmse = 2247.937\nsamples = 69\nvalue = 476.59"] ;
243 -> 244 ;
245 [label="complexity <= 167.0\nmse = 1213.363\nsamples = 43\nvalue = 487.168"] ;
244 -> 245 ;
246 [label="tpsa <= 75.5\nmse = 79.124\nsamples = 4\nvalue = 515.978"] ;
245 -> 246 ;
247 [label="h_bond_acceptor_count <= 1.5\nmse = 25.198\nsamples = 3\nvalue = 512.881"] ;
246 -> 247 ;
248 [label="mse = 0.0\nsamples = 1\nvalue = 517.705"] ;
247 -> 248 ;
249 [label="h_bond_donor_count <= 3.0\nmse = 3.857\nsamples = 2\nvalue = 508.057"] ;
247 -> 249 ;
250 [label="mse = 0.0\nsamples = 1\nvalue = 509.446"] ;
249 -> 250 ;
251 [label="mse = 0.0\nsamples = 1\nvalue = 505.28"] ;
249 -> 251 ;
252 [label="mse = -0.0\nsamples = 1\nvalue = 534.556"] ;
246 -> 252 ;
253 [label="complexity <= 191.0\nmse = 1238.207\nsamples = 39\nvalue = 483.63"] ;
245 -> 253 ;
254 [label="monoisotopic_mass <= 144.027\nmse = 7.804\nsamples = 2\nvalue = 426.718"] ;
253 -> 254 ;
255 [label="mse = 0.0\nsamples = 1\nvalue = 423.924"] ;
254 -> 255 ;
256 [label="mse = 0.0\nsamples = 1\nvalue = 429.511"] ;
254 -> 256 ;
257 [label="tpsa <= 81.25\nmse = 1068.166\nsamples = 37\nvalue = 487.925"] ;
253 -> 257 ;
258 [label="complexity <= 207.5\nmse = 855.995\nsamples = 19\nvalue = 477.441"] ;
257 -> 258 ;
259 [label="h_bond_acceptor_count <= 1.5\nmse = 191.2\nsamples = 2\nvalue = 523.596"] ;
258 -> 259 ;
260 [label="mse = 0.0\nsamples = 1\nvalue = 509.769"] ;
259 -> 260 ;
261 [label="mse = -0.0\nsamples = 1\nvalue = 537.424"] ;
259 -> 261 ;
262 [label="h_bond_donor_count <= 2.5\nmse = 730.654\nsamples = 17\nvalue = 473.89"] ;
258 -> 262 ;
263 [label="xlogp <= 0.7\nmse = 642.851\nsamples = 16\nvalue = 471.769"] ;
262 -> 263 ;
264 [label="xlogp <= 0.3\nmse = 1955.473\nsamples = 3\nvalue = 450.398"] ;
263 -> 264 ;
265 [label="h_bond_acceptor_count <= 2.0\nmse = 5.379\nsamples = 2\nvalue = 475.903"] ;
264 -> 265 ;
266 [label="mse = 0.0\nsamples = 1\nvalue = 479.183"] ;
265 -> 266 ;
267 [label="mse = -0.0\nsamples = 1\nvalue = 474.263"] ;
265 -> 267 ;
268 [label="mse = 0.0\nsamples = 1\nvalue = 373.885"] ;
264 -> 268 ;
269 [label="h_bond_acceptor_count <= 3.5\nmse = 289.271\nsamples = 13\nvalue = 475.839"] ;
263 -> 269 ;
270 [label="exact_mass <= 264.102\nmse = 92.344\nsamples = 6\nvalue = 484.487"] ;
269 -> 270 ;
271 [label="tpsa <= 53.6\nmse = 41.521\nsamples = 4\nvalue = 480.926"] ;
270 -> 271 ;
272 [label="mse = 0.0\nsamples = 1\nvalue = 488.652"] ;
271 -> 272 ;
273 [label="rotable_bond_count <= 3.0\nmse = 17.516\nsamples = 3\nvalue = 477.063"] ;
271 -> 273 ;
274 [label="xlogp <= 1.75\nmse = 0.004\nsamples = 2\nvalue = 480.023"] ;
273 -> 274 ;
275 [label="mse = 0.0\nsamples = 1\nvalue = 480.083"] ;
274 -> 275 ;
276 [label="mse = -0.0\nsamples = 1\nvalue = 479.962"] ;
274 -> 276 ;
277 [label="mse = -0.0\nsamples = 1\nvalue = 471.145"] ;
273 -> 277 ;
278 [label="molecular_weight <= 281.31\nmse = 7.285\nsamples = 2\nvalue = 500.509"] ;
270 -> 278 ;
279 [label="mse = 0.0\nsamples = 1\nvalue = 497.81"] ;
278 -> 279 ;
280 [label="mse = 0.0\nsamples = 1\nvalue = 503.208"] ;
278 -> 280 ;
281 [label="exact_mass <= 255.588\nmse = 333.151\nsamples = 7\nvalue = 466.327"] ;
269 -> 281 ;
282 [label="molecular_weight <= 247.27\nmse = 76.577\nsamples = 4\nvalue = 478.788"] ;
281 -> 282 ;
283 [label="monoisotopic_mass <= 227.614\nmse = 31.395\nsamples = 3\nvalue = 475.613"] ;
282 -> 283 ;
284 [label="monoisotopic_mass <= 196.554\nmse = 0.436\nsamples = 2\nvalue = 478.399"] ;
283 -> 284 ;
285 [label="mse = 0.0\nsamples = 1\nvalue = 477.255"] ;
284 -> 285 ;
286 [label="mse = 0.0\nsamples = 1\nvalue = 478.78"] ;
284 -> 286 ;
287 [label="mse = -0.0\nsamples = 1\nvalue = 464.469"] ;
283 -> 287 ;
288 [label="mse = 0.0\nsamples = 1\nvalue = 494.665"] ;
282 -> 288 ;
289 [label="monoisotopic_mass <= 283.065\nmse = 135.709\nsamples = 3\nvalue = 447.635"] ;
281 -> 289 ;
290 [label="complexity <= 365.5\nmse = 8.299\nsamples = 2\nvalue = 454.205"] ;
289 -> 290 ;
291 [label="mse = 0.0\nsamples = 1\nvalue = 456.242"] ;
290 -> 291 ;
292 [label="mse = -0.0\nsamples = 1\nvalue = 450.131"] ;
290 -> 292 ;
293 [label="mse = 0.0\nsamples = 1\nvalue = 427.926"] ;
289 -> 293 ;
294 [label="mse = -0.0\nsamples = 1\nvalue = 526.93"] ;
262 -> 294 ;
295 [label="tpsa <= 88.7\nmse = 1044.804\nsamples = 18\nvalue = 499.667"] ;
257 -> 295 ;
296 [label="monoisotopic_mass <= 272.074\nmse = 26.88\nsamples = 3\nvalue = 549.433"] ;
295 -> 296 ;
297 [label="complexity <= 412.0\nmse = 8.14\nsamples = 2\nvalue = 544.657"] ;
296 -> 297 ;
298 [label="mse = 0.0\nsamples = 1\nvalue = 547.51"] ;
297 -> 298 ;
299 [label="mse = 0.0\nsamples = 1\nvalue = 541.804"] ;
297 -> 299 ;
300 [label="mse = 0.0\nsamples = 1\nvalue = 554.209"] ;
296 -> 300 ;
301 [label="xlogp <= -1.75\nmse = 677.103\nsamples = 15\nvalue = 490.188"] ;
295 -> 301 ;
302 [label="mse = 0.0\nsamples = 1\nvalue = 444.266"] ;
301 -> 302 ;
303 [label="h_bond_donor_count <= 2.5\nmse = 503.026\nsamples = 14\nvalue = 495.022"] ;
301 -> 303 ;
304 [label="tpsa <= 106.0\nmse = 28.742\nsamples = 5\nvalue = 513.352"] ;
303 -> 304 ;
305 [label="h_bond_acceptor_count <= 5.0\nmse = 12.527\nsamples = 2\nvalue = 517.964"] ;
304 -> 305 ;
306 [label="mse = 0.0\nsamples = 1\nvalue = 515.461"] ;
305 -> 306 ;
307 [label="mse = 0.0\nsamples = 1\nvalue = 522.969"] ;
305 -> 307 ;
308 [label="tpsa <= 108.5\nmse = 2.422\nsamples = 3\nvalue = 508.74"] ;
304 -> 308 ;
309 [label="mse = 0.0\nsamples = 1\nvalue = 510.925"] ;
308 -> 309 ;
310 [label="heavy_atom_count <= 18.5\nmse = 0.054\nsamples = 2\nvalue = 507.648"] ;
308 -> 310 ;
311 [label="mse = 0.0\nsamples = 1\nvalue = 507.416"] ;
310 -> 311 ;
312 [label="mse = -0.0\nsamples = 1\nvalue = 507.88"] ;
310 -> 312 ;
313 [label="monoisotopic_mass <= 202.083\nmse = 495.286\nsamples = 9\nvalue = 486.562"] ;
303 -> 313 ;
314 [label="complexity <= 230.0\nmse = 88.322\nsamples = 2\nvalue = 530.181"] ;
313 -> 314 ;
315 [label="mse = 0.0\nsamples = 1\nvalue = 539.579"] ;
314 -> 315 ;
316 [label="mse = 0.0\nsamples = 1\nvalue = 520.783"] ;
314 -> 316 ;
317 [label="rotable_bond_count <= 2.5\nmse = 160.455\nsamples = 7\nvalue = 478.631"] ;
313 -> 317 ;
318 [label="complexity <= 455.0\nmse = 50.045\nsamples = 3\nvalue = 460.209"] ;
317 -> 318 ;
319 [label="complexity <= 375.5\nmse = 37.039\nsamples = 2\nvalue = 456.649"] ;
318 -> 319 ;
320 [label="mse = 0.0\nsamples = 1\nvalue = 462.735"] ;
319 -> 320 ;
321 [label="mse = 0.0\nsamples = 1\nvalue = 450.563"] ;
319 -> 321 ;
322 [label="mse = 0.0\nsamples = 1\nvalue = 467.33"] ;
318 -> 322 ;
323 [label="complexity <= 297.5\nmse = 26.869\nsamples = 4\nvalue = 485.54"] ;
317 -> 323 ;
324 [label="monoisotopic_mass <= 253.126\nmse = 2.544\nsamples = 2\nvalue = 480.74"] ;
323 -> 324 ;
325 [label="mse = 0.0\nsamples = 1\nvalue = 482.335"] ;
324 -> 325 ;
326 [label="mse = -0.0\nsamples = 1\nvalue = 479.145"] ;
324 -> 326 ;
327 [label="xlogp <= 1.45\nmse = 5.119\nsamples = 2\nvalue = 490.34"] ;
323 -> 327 ;
328 [label="mse = 0.0\nsamples = 1\nvalue = 488.077"] ;
327 -> 328 ;
329 [label="mse = 0.0\nsamples = 1\nvalue = 492.602"] ;
327 -> 329 ;
330 [label="molecular_weight <= 308.82\nmse = 3484.54\nsamples = 26\nvalue = 458.775"] ;
244 -> 330 ;
331 [label="tpsa <= 93.85\nmse = 23.478\nsamples = 2\nvalue = 375.162"] ;
330 -> 331 ;
332 [label="mse = -0.0\nsamples = 1\nvalue = 377.96"] ;
331 -> 332 ;
333 [label="mse = -0.0\nsamples = 1\nvalue = 366.77"] ;
331 -> 333 ;
334 [label="complexity <= 420.0\nmse = 2972.496\nsamples = 24\nvalue = 468.611"] ;
330 -> 334 ;
335 [label="complexity <= 390.5\nmse = 3528.105\nsamples = 10\nvalue = 439.752"] ;
334 -> 335 ;
336 [label="xlogp <= 1.1\nmse = 858.697\nsamples = 5\nvalue = 490.936"] ;
335 -> 336 ;
337 [label="rotable_bond_count <= 8.0\nmse = 329.15\nsamples = 2\nvalue = 522.711"] ;
336 -> 337 ;
338 [label="mse = 0.0\nsamples = 1\nvalue = 504.568"] ;
337 -> 338 ;
339 [label="mse = -0.0\nsamples = 1\nvalue = 540.853"] ;
337 -> 339 ;
340 [label="h_bond_donor_count <= 2.5\nmse = 89.929\nsamples = 3\nvalue = 469.753"] ;
336 -> 340 ;
341 [label="h_bond_acceptor_count <= 4.5\nmse = 27.217\nsamples = 2\nvalue = 475.744"] ;
340 -> 341 ;
342 [label="mse = 0.0\nsamples = 1\nvalue = 470.527"] ;
341 -> 342 ;
343 [label="mse = -0.0\nsamples = 1\nvalue = 480.961"] ;
341 -> 343 ;
344 [label="mse = 0.0\nsamples = 1\nvalue = 457.771"] ;
340 -> 344 ;
345 [label="monoisotopic_mass <= 334.123\nmse = 2747.109\nsamples = 5\nvalue = 411.317"] ;
335 -> 345 ;
346 [label="rotable_bond_count <= 3.5\nmse = 2569.155\nsamples = 2\nvalue = 354.812"] ;
345 -> 346 ;
347 [label="mse = 0.0\nsamples = 1\nvalue = 318.971"] ;
346 -> 347 ;
348 [label="mse = -0.0\nsamples = 1\nvalue = 426.494"] ;
346 -> 348 ;
349 [label="monoisotopic_mass <= 339.138\nmse = 441.485\nsamples = 3\nvalue = 439.569"] ;
345 -> 349 ;
350 [label="mse = 0.0\nsamples = 1\nvalue = 409.891"] ;
349 -> 350 ;
351 [label="complexity <= 416.0\nmse = 1.624\nsamples = 2\nvalue = 454.408"] ;
349 -> 351 ;
352 [label="mse = 0.0\nsamples = 1\nvalue = 453.134"] ;
351 -> 352 ;
353 [label="mse = 0.0\nsamples = 1\nvalue = 455.683"] ;
351 -> 353 ;
354 [label="xlogp <= 3.3\nmse = 1592.491\nsamples = 14\nvalue = 488.812"] ;
334 -> 354 ;
355 [label="monoisotopic_mass <= 316.581\nmse = 520.069\nsamples = 8\nvalue = 464.029"] ;
354 -> 355 ;
356 [label="heavy_atom_count <= 21.5\nmse = 101.75\nsamples = 2\nvalue = 492.044"] ;
355 -> 356 ;
357 [label="mse = 0.0\nsamples = 1\nvalue = 484.911"] ;
356 -> 357 ;
358 [label="mse = -0.0\nsamples = 1\nvalue = 506.309"] ;
356 -> 358 ;
359 [label="rotable_bond_count <= 3.5\nmse = 218.839\nsamples = 6\nvalue = 452.022"] ;
355 -> 359 ;
360 [label="h_bond_donor_count <= 2.5\nmse = 61.878\nsamples = 4\nvalue = 443.677"] ;
359 -> 360 ;
361 [label="complexity <= 499.5\nmse = 10.135\nsamples = 2\nvalue = 435.062"] ;
360 -> 361 ;
362 [label="mse = 0.0\nsamples = 1\nvalue = 438.246"] ;
361 -> 362 ;
363 [label="mse = 0.0\nsamples = 1\nvalue = 431.879"] ;
361 -> 363 ;
364 [label="exact_mass <= 337.057\nmse = 13.915\nsamples = 2\nvalue = 449.42"] ;
360 -> 364 ;
365 [label="mse = 0.0\nsamples = 1\nvalue = 452.058"] ;
364 -> 365 ;
366 [label="mse = 0.0\nsamples = 1\nvalue = 444.145"] ;
364 -> 366 ;
367 [label="monoisotopic_mass <= 342.659\nmse = 1.867\nsamples = 2\nvalue = 472.886"] ;
359 -> 367 ;
368 [label="mse = 0.0\nsamples = 1\nvalue = 471.519"] ;
367 -> 368 ;
369 [label="mse = 0.0\nsamples = 1\nvalue = 474.252"] ;
367 -> 369 ;
370 [label="heavy_atom_count <= 23.5\nmse = 1436.449\nsamples = 6\nvalue = 513.596"] ;
354 -> 370 ;
371 [label="xlogp <= 3.95\nmse = 0.931\nsamples = 2\nvalue = 458.179"] ;
370 -> 371 ;
372 [label="mse = 0.0\nsamples = 1\nvalue = 459.144"] ;
371 -> 372 ;
373 [label="mse = 0.0\nsamples = 1\nvalue = 457.214"] ;
371 -> 373 ;
374 [label="xlogp <= 3.6\nmse = 835.621\nsamples = 4\nvalue = 527.45"] ;
370 -> 374 ;
375 [label="mse = 0.0\nsamples = 1\nvalue = 557.497"] ;
374 -> 375 ;
376 [label="xlogp <= 4.0\nmse = 712.92\nsamples = 3\nvalue = 517.435"] ;
374 -> 376 ;
377 [label="mse = 0.0\nsamples = 1\nvalue = 457.821"] ;
376 -> 377 ;
378 [label="monoisotopic_mass <= 332.094\nmse = 2.585\nsamples = 2\nvalue = 529.358"] ;
376 -> 378 ;
379 [label="mse = 0.0\nsamples = 1\nvalue = 531.327"] ;
378 -> 379 ;
380 [label="mse = 0.0\nsamples = 1\nvalue = 528.045"] ;
378 -> 380 ;
381 [label="h_bond_acceptor_count <= 4.5\nmse = 2577.468\nsamples = 50\nvalue = 494.181"] ;
243 -> 381 ;
382 [label="complexity <= 262.0\nmse = 1602.178\nsamples = 27\nvalue = 509.036"] ;
381 -> 382 ;
383 [label="xlogp <= 0.2\nmse = 2509.919\nsamples = 5\nvalue = 456.946"] ;
382 -> 383 ;
384 [label="tpsa <= 50.95\nmse = 622.463\nsamples = 4\nvalue = 475.095"] ;
383 -> 384 ;
385 [label="mse = 0.0\nsamples = 1\nvalue = 450.32"] ;
384 -> 385 ;
386 [label="exact_mass <= 147.105\nmse = 17.325\nsamples = 3\nvalue = 499.87"] ;
384 -> 386 ;
387 [label="molecular_weight <= 123.67\nmse = 0.81\nsamples = 2\nvalue = 496.973"] ;
386 -> 387 ;
388 [label="mse = 0.0\nsamples = 1\nvalue = 496.073"] ;
387 -> 388 ;
389 [label="mse = -0.0\nsamples = 1\nvalue = 497.873"] ;
387 -> 389 ;
390 [label="mse = 0.0\nsamples = 1\nvalue = 505.664"] ;
386 -> 390 ;
391 [label="mse = -0.0\nsamples = 1\nvalue = 348.05"] ;
383 -> 391 ;
392 [label="monoisotopic_mass <= 219.095\nmse = 885.391\nsamples = 22\nvalue = 518.151"] ;
382 -> 392 ;
393 [label="molecular_weight <= 215.72\nmse = 129.298\nsamples = 2\nvalue = 564.87"] ;
392 -> 393 ;
394 [label="mse = 0.0\nsamples = 1\nvalue = 545.175"] ;
393 -> 394 ;
395 [label="mse = 0.0\nsamples = 1\nvalue = 571.435"] ;
393 -> 395 ;
396 [label="tpsa <= 67.3\nmse = 699.939\nsamples = 20\nvalue = 512.96"] ;
392 -> 396 ;
397 [label="h_bond_donor_count <= 2.5\nmse = 414.34\nsamples = 9\nvalue = 525.502"] ;
396 -> 397 ;
398 [label="atom_stereo_count <= 3.5\nmse = 357.542\nsamples = 8\nvalue = 528.976"] ;
397 -> 398 ;
399 [label="rotable_bond_count <= 4.5\nmse = 101.57\nsamples = 6\nvalue = 534.256"] ;
398 -> 399 ;
400 [label="h_bond_acceptor_count <= 3.5\nmse = 51.741\nsamples = 5\nvalue = 536.474"] ;
399 -> 400 ;
401 [label="xlogp <= 0.65\nmse = 31.16\nsamples = 4\nvalue = 534.944"] ;
400 -> 401 ;
402 [label="mse = 0.0\nsamples = 1\nvalue = 549.929"] ;
401 -> 402 ;
403 [label="xlogp <= 1.9\nmse = 6.901\nsamples = 3\nvalue = 533.279"] ;
401 -> 403 ;
404 [label="mse = 0.0\nsamples = 1\nvalue = 525.944"] ;
403 -> 404 ;
405 [label="exact_mass <= 267.612\nmse = 0.197\nsamples = 2\nvalue = 534.196"] ;
403 -> 405 ;
406 [label="mse = 0.0\nsamples = 1\nvalue = 534.965"] ;
405 -> 406 ;
407 [label="mse = 0.0\nsamples = 1\nvalue = 533.94"] ;
405 -> 407 ;
408 [label="mse = 0.0\nsamples = 1\nvalue = 551.776"] ;
400 -> 408 ;
409 [label="mse = 0.0\nsamples = 1\nvalue = 509.852"] ;
399 -> 409 ;
410 [label="complexity <= 481.5\nmse = 790.921\nsamples = 2\nvalue = 513.136"] ;
398 -> 410 ;
411 [label="mse = 0.0\nsamples = 1\nvalue = 464.425"] ;
410 -> 411 ;
412 [label="mse = -0.0\nsamples = 1\nvalue = 529.373"] ;
410 -> 412 ;
413 [label="mse = -0.0\nsamples = 1\nvalue = 497.714"] ;
397 -> 413 ;
414 [label="xlogp <= 0.15\nmse = 670.928\nsamples = 11\nvalue = 500.418"] ;
396 -> 414 ;
415 [label="heavy_atom_count <= 17.5\nmse = 465.07\nsamples = 6\nvalue = 511.266"] ;
414 -> 415 ;
416 [label="exact_mass <= 222.082\nmse = 426.746\nsamples = 3\nvalue = 494.504"] ;
415 -> 416 ;
417 [label="mse = 0.0\nsamples = 1\nvalue = 515.136"] ;
416 -> 417 ;
418 [label="molecular_weight <= 233.77\nmse = 2.119\nsamples = 2\nvalue = 473.872"] ;
416 -> 418 ;
419 [label="mse = 0.0\nsamples = 1\nvalue = 474.901"] ;
418 -> 419 ;
420 [label="mse = -0.0\nsamples = 1\nvalue = 471.813"] ;
418 -> 420 ;
421 [label="rotable_bond_count <= 4.0\nmse = 50.64\nsamples = 3\nvalue = 525.634"] ;
415 -> 421 ;
422 [label="molecular_weight <= 295.53\nmse = 15.113\nsamples = 2\nvalue = 520.022"] ;
421 -> 422 ;
423 [label="mse = 0.0\nsamples = 1\nvalue = 523.909"] ;
422 -> 423 ;
424 [label="mse = -0.0\nsamples = 1\nvalue = 516.134"] ;
422 -> 424 ;
425 [label="mse = 0.0\nsamples = 1\nvalue = 533.118"] ;
421 -> 425 ;
426 [label="monoisotopic_mass <= 312.149\nmse = 104.626\nsamples = 5\nvalue = 472.213"] ;
414 -> 426 ;
427 [label="tpsa <= 69.8\nmse = 73.141\nsamples = 3\nvalue = 466.183"] ;
426 -> 427 ;
428 [label="mse = 0.0\nsamples = 1\nvalue = 478.134"] ;
427 -> 428 ;
429 [label="xlogp <= 2.3\nmse = 2.586\nsamples = 2\nvalue = 460.207"] ;
427 -> 429 ;
430 [label="mse = 0.0\nsamples = 1\nvalue = 461.815"] ;
429 -> 430 ;
431 [label="mse = 0.0\nsamples = 1\nvalue = 458.599"] ;
429 -> 431 ;
432 [label="molecular_weight <= 323.9\nmse = 15.504\nsamples = 2\nvalue = 481.258"] ;
426 -> 432 ;
433 [label="mse = 0.0\nsamples = 1\nvalue = 477.32"] ;
432 -> 433 ;
434 [label="mse = 0.0\nsamples = 1\nvalue = 485.195"] ;
432 -> 434 ;
435 [label="covalent_unit_count <= 1.5\nmse = 3166.462\nsamples = 23\nvalue = 476.28"] ;
381 -> 435 ;
436 [label="h_bond_donor_count <= 3.5\nmse = 2162.219\nsamples = 22\nvalue = 486.157"] ;
435 -> 436 ;
437 [label="tpsa <= 87.45\nmse = 1598.134\nsamples = 17\nvalue = 471.616"] ;
436 -> 437 ;
438 [label="heavy_atom_count <= 19.0\nmse = 368.902\nsamples = 3\nvalue = 520.794"] ;
437 -> 438 ;
439 [label="mse = 0.0\nsamples = 1\nvalue = 548.779"] ;
438 -> 439 ;
440 [label="rotable_bond_count <= 6.5\nmse = 143.798\nsamples = 2\nvalue = 511.466"] ;
438 -> 440 ;
441 [label="mse = 0.0\nsamples = 1\nvalue = 519.945"] ;
440 -> 441 ;
442 [label="mse = -0.0\nsamples = 1\nvalue = 494.507"] ;
440 -> 442 ;
443 [label="atom_stereo_count <= 3.5\nmse = 1301.969\nsamples = 14\nvalue = 462.675"] ;
437 -> 443 ;
444 [label="h_bond_acceptor_count <= 5.5\nmse = 1051.914\nsamples = 13\nvalue = 456.796"] ;
443 -> 444 ;
445 [label="tpsa <= 105.5\nmse = 314.889\nsamples = 8\nvalue = 468.559"] ;
444 -> 445 ;
446 [label="tpsa <= 99.0\nmse = 51.76\nsamples = 6\nvalue = 477.513"] ;
445 -> 446 ;
447 [label="tpsa <= 95.9\nmse = 2.605\nsamples = 4\nvalue = 481.81"] ;
446 -> 447 ;
448 [label="atom_stereo_count <= 1.5\nmse = 1.363\nsamples = 2\nvalue = 479.258"] ;
447 -> 448 ;
449 [label="mse = 0.0\nsamples = 1\nvalue = 478.091"] ;
448 -> 449 ;
450 [label="mse = -0.0\nsamples = 1\nvalue = 480.426"] ;
448 -> 450 ;
451 [label="tpsa <= 97.95\nmse = 0.125\nsamples = 2\nvalue = 482.66"] ;
447 -> 451 ;
452 [label="mse = -0.0\nsamples = 1\nvalue = 482.502"] ;
451 -> 452 ;
453 [label="mse = -0.0\nsamples = 1\nvalue = 483.452"] ;
451 -> 453 ;
454 [label="xlogp <= 0.1\nmse = 2.304\nsamples = 2\nvalue = 466.054"] ;
446 -> 454 ;
455 [label="mse = 0.0\nsamples = 1\nvalue = 468.201"] ;
454 -> 455 ;
456 [label="mse = 0.0\nsamples = 1\nvalue = 464.981"] ;
454 -> 456 ;
457 [label="exact_mass <= 246.062\nmse = 211.63\nsamples = 2\nvalue = 443.934"] ;
445 -> 457 ;
458 [label="mse = 0.0\nsamples = 1\nvalue = 418.737"] ;
457 -> 458 ;
459 [label="mse = 0.0\nsamples = 1\nvalue = 452.333"] ;
457 -> 459 ;
460 [label="complexity <= 407.0\nmse = 1602.603\nsamples = 5\nvalue = 421.507"] ;
444 -> 460 ;
461 [label="tpsa <= 98.95\nmse = 646.201\nsamples = 3\nvalue = 393.056"] ;
460 -> 461 ;
462 [label="mse = 0.0\nsamples = 1\nvalue = 429.005"] ;
461 -> 462 ;
463 [label="h_bond_acceptor_count <= 7.0\nmse = 0.035\nsamples = 2\nvalue = 375.081"] ;
461 -> 463 ;
464 [label="mse = 0.0\nsamples = 1\nvalue = 375.268"] ;
463 -> 464 ;
465 [label="mse = -0.0\nsamples = 1\nvalue = 374.894"] ;
463 -> 465 ;
466 [label="h_bond_acceptor_count <= 7.0\nmse = 1.662\nsamples = 2\nvalue = 464.184"] ;
460 -> 466 ;
467 [label="mse = 0.0\nsamples = 1\nvalue = 462.895"] ;
466 -> 467 ;
468 [label="mse = 0.0\nsamples = 1\nvalue = 465.473"] ;
466 -> 468 ;
469 [label="mse = -0.0\nsamples = 1\nvalue = 521.47"] ;
443 -> 469 ;
470 [label="rotable_bond_count <= 5.5\nmse = 1649.929\nsamples = 5\nvalue = 523.962"] ;
436 -> 470 ;
471 [label="tpsa <= 107.0\nmse = 696.111\nsamples = 3\nvalue = 495.336"] ;
470 -> 471 ;
472 [label="mse = 0.0\nsamples = 1\nvalue = 458.334"] ;
471 -> 472 ;
473 [label="xlogp <= 0.3\nmse = 17.306\nsamples = 2\nvalue = 513.837"] ;
471 -> 473 ;
474 [label="mse = 0.0\nsamples = 1\nvalue = 517.997"] ;
473 -> 474 ;
475 [label="mse = 0.0\nsamples = 1\nvalue = 509.677"] ;
473 -> 475 ;
476 [label="atom_stereo_count <= 2.0\nmse = 7.77\nsamples = 2\nvalue = 566.9"] ;
470 -> 476 ;
477 [label="mse = 0.0\nsamples = 1\nvalue = 569.688"] ;
476 -> 477 ;
478 [label="mse = 0.0\nsamples = 1\nvalue = 564.113"] ;
476 -> 478 ;
479 [label="mse = 0.0\nsamples = 1\nvalue = 357.761"] ;
435 -> 479 ;
480 [label="heavy_atom_count <= 25.5\nmse = 3698.655\nsamples = 13\nvalue = 509.826"] ;
242 -> 480 ;
481 [label="rotable_bond_count <= 2.5\nmse = 604.298\nsamples = 12\nvalue = 521.472"] ;
480 -> 481 ;
482 [label="h_bond_donor_count <= 3.5\nmse = 207.78\nsamples = 4\nvalue = 489.867"] ;
481 -> 482 ;
483 [label="exact_mass <= 287.539\nmse = 78.073\nsamples = 3\nvalue = 498.692"] ;
482 -> 483 ;
484 [label="heavy_atom_count <= 16.0\nmse = 22.925\nsamples = 2\nvalue = 506.853"] ;
483 -> 484 ;
485 [label="mse = 0.0\nsamples = 1\nvalue = 502.065"] ;
484 -> 485 ;
486 [label="mse = -0.0\nsamples = 1\nvalue = 511.641"] ;
484 -> 486 ;
487 [label="mse = 0.0\nsamples = 1\nvalue = 490.53"] ;
483 -> 487 ;
488 [label="mse = 0.0\nsamples = 1\nvalue = 472.219"] ;
482 -> 488 ;
489 [label="tpsa <= 100.35\nmse = 267.292\nsamples = 8\nvalue = 532.626"] ;
481 -> 489 ;
490 [label="h_bond_donor_count <= 2.5\nmse = 111.475\nsamples = 6\nvalue = 538.684"] ;
489 -> 490 ;
491 [label="xlogp <= 3.4\nmse = 39.623\nsamples = 4\nvalue = 532.942"] ;
490 -> 491 ;
492 [label="tpsa <= 92.3\nmse = 13.988\nsamples = 3\nvalue = 535.608"] ;
491 -> 492 ;
493 [label="tpsa <= 84.2\nmse = 0.093\nsamples = 2\nvalue = 532.717"] ;
492 -> 493 ;
494 [label="mse = 0.0\nsamples = 1\nvalue = 532.966"] ;
493 -> 494 ;
495 [label="mse = -0.0\nsamples = 1\nvalue = 532.343"] ;
493 -> 495 ;
496 [label="mse = 0.0\nsamples = 1\nvalue = 540.426"] ;
492 -> 496 ;
497 [label="mse = 0.0\nsamples = 1\nvalue = 522.277"] ;
491 -> 497 ;
498 [label="h_bond_acceptor_count <= 4.5\nmse = 2.53\nsamples = 2\nvalue = 553.042"] ;
490 -> 498 ;
499 [label="mse = 0.0\nsamples = 1\nvalue = 551.451"] ;
498 -> 499 ;
500 [label="mse = -0.0\nsamples = 1\nvalue = 554.632"] ;
498 -> 500 ;
501 [label="monoisotopic_mass <= 327.094\nmse = 23.879\nsamples = 2\nvalue = 504.355"] ;
489 -> 501 ;
502 [label="mse = 0.0\nsamples = 1\nvalue = 497.444"] ;
501 -> 502 ;
503 [label="mse = -0.0\nsamples = 1\nvalue = 507.81"] ;
501 -> 503 ;
504 [label="mse = -0.0\nsamples = 1\nvalue = 241.965"] ;
480 -> 504 ;
505 [label="tpsa <= 123.5\nmse = 4705.054\nsamples = 17\nvalue = 462.738"] ;
7 -> 505 ;
506 [label="exact_mass <= 315.139\nmse = 25548.026\nsamples = 2\nvalue = 352.61"] ;
505 -> 506 ;
507 [label="mse = 0.0\nsamples = 1\nvalue = 192.773"] ;
506 -> 507 ;
508 [label="mse = 0.0\nsamples = 1\nvalue = 512.448"] ;
506 -> 508 ;
509 [label="h_bond_donor_count <= 4.5\nmse = 1454.944\nsamples = 15\nvalue = 473.227"] ;
505 -> 509 ;
510 [label="tpsa <= 132.5\nmse = 714.283\nsamples = 13\nvalue = 487.045"] ;
509 -> 510 ;
511 [label="h_bond_donor_count <= 2.5\nmse = 88.148\nsamples = 4\nvalue = 458.352"] ;
510 -> 511 ;
512 [label="h_bond_acceptor_count <= 6.5\nmse = 40.177\nsamples = 2\nvalue = 470.274"] ;
511 -> 512 ;
513 [label="mse = 0.0\nsamples = 1\nvalue = 476.612"] ;
512 -> 513 ;
514 [label="mse = 0.0\nsamples = 1\nvalue = 463.935"] ;
512 -> 514 ;
515 [label="rotable_bond_count <= 3.5\nmse = 5.545\nsamples = 2\nvalue = 452.392"] ;
511 -> 515 ;
516 [label="mse = 0.0\nsamples = 1\nvalue = 451.032"] ;
515 -> 516 ;
517 [label="mse = 0.0\nsamples = 1\nvalue = 456.47"] ;
515 -> 517 ;
518 [label="xlogp <= -2.05\nmse = 361.83\nsamples = 9\nvalue = 502.695"] ;
510 -> 518 ;
519 [label="mse = 0.0\nsamples = 1\nvalue = 468.635"] ;
518 -> 519 ;
520 [label="atom_stereo_count <= 0.5\nmse = 127.154\nsamples = 8\nvalue = 510.264"] ;
518 -> 520 ;
521 [label="monoisotopic_mass <= 305.47\nmse = 59.354\nsamples = 5\nvalue = 518.744"] ;
520 -> 521 ;
522 [label="monoisotopic_mass <= 290.476\nmse = 8.002\nsamples = 3\nvalue = 524.62"] ;
521 -> 522 ;
523 [label="xlogp <= 0.3\nmse = 1.859\nsamples = 2\nvalue = 522.782"] ;
522 -> 523 ;
524 [label="mse = 0.0\nsamples = 1\nvalue = 521.418"] ;
523 -> 524 ;
525 [label="mse = -0.0\nsamples = 1\nvalue = 524.145"] ;
523 -> 525 ;
526 [label="mse = 0.0\nsamples = 1\nvalue = 528.298"] ;
522 -> 526 ;
527 [label="h_bond_donor_count <= 2.5\nmse = 6.88\nsamples = 2\nvalue = 509.929"] ;
521 -> 527 ;
528 [label="mse = 0.0\nsamples = 1\nvalue = 512.552"] ;
527 -> 528 ;
529 [label="mse = 0.0\nsamples = 1\nvalue = 507.306"] ;
527 -> 529 ;
530 [label="h_bond_donor_count <= 3.5\nmse = 9.655\nsamples = 3\nvalue = 499.664"] ;
520 -> 530 ;
531 [label="heavy_atom_count <= 19.0\nmse = 2.185\nsamples = 2\nvalue = 501.298"] ;
530 -> 531 ;
532 [label="mse = 0.0\nsamples = 1\nvalue = 503.389"] ;
531 -> 532 ;
533 [label="mse = 0.0\nsamples = 1\nvalue = 500.253"] ;
531 -> 533 ;
534 [label="mse = -0.0\nsamples = 1\nvalue = 494.76"] ;
530 -> 534 ;
535 [label="monoisotopic_mass <= 301.03\nmse = 342.528\nsamples = 2\nvalue = 414.5"] ;
509 -> 535 ;
536 [label="mse = 0.0\nsamples = 1\nvalue = 395.993"] ;
535 -> 536 ;
537 [label="mse = 0.0\nsamples = 1\nvalue = 433.008"] ;
535 -> 537 ;
538 [label="rotable_bond_count <= 4.0\nmse = 1219.563\nsamples = 8\nvalue = 534.622"] ;
6 -> 538 ;
539 [label="xlogp <= -0.85\nmse = 477.664\nsamples = 4\nvalue = 557.685"] ;
538 -> 539 ;
540 [label="monoisotopic_mass <= 293.088\nmse = 55.335\nsamples = 2\nvalue = 534.571"] ;
539 -> 540 ;
541 [label="mse = 0.0\nsamples = 1\nvalue = 545.091"] ;
540 -> 541 ;
542 [label="mse = -0.0\nsamples = 1\nvalue = 529.311"] ;
540 -> 542 ;
543 [label="molecular_weight <= 307.75\nmse = 93.18\nsamples = 2\nvalue = 575.021"] ;
539 -> 543 ;
544 [label="mse = 0.0\nsamples = 1\nvalue = 584.674"] ;
543 -> 544 ;
545 [label="mse = 0.0\nsamples = 1\nvalue = 565.368"] ;
543 -> 545 ;
546 [label="tpsa <= 147.5\nmse = 470.988\nsamples = 4\nvalue = 502.333"] ;
538 -> 546 ;
547 [label="mse = 0.0\nsamples = 1\nvalue = 545.276"] ;
546 -> 547 ;
548 [label="xlogp <= -3.75\nmse = 12.464\nsamples = 3\nvalue = 491.598"] ;
546 -> 548 ;
549 [label="mse = 0.0\nsamples = 1\nvalue = 485.916"] ;
548 -> 549 ;
550 [label="molecular_weight <= 285.365\nmse = 2.271\nsamples = 2\nvalue = 493.492"] ;
548 -> 550 ;
551 [label="mse = 0.0\nsamples = 1\nvalue = 492.426"] ;
550 -> 551 ;
552 [label="mse = 0.0\nsamples = 1\nvalue = 495.623"] ;
550 -> 552 ;
553 [label="bond_stereo_count <= 0.5\nmse = 2595.207\nsamples = 23\nvalue = 461.325"] ;
5 -> 553 ;
554 [label="tpsa <= 125.5\nmse = 2173.923\nsamples = 22\nvalue = 470.428"] ;
553 -> 554 ;
555 [label="atom_stereo_count <= 5.5\nmse = 1839.361\nsamples = 20\nvalue = 464.954"] ;
554 -> 555 ;
556 [label="h_bond_donor_count <= 2.5\nmse = 1555.327\nsamples = 15\nvalue = 456.175"] ;
555 -> 556 ;
557 [label="tpsa <= 114.0\nmse = 1116.242\nsamples = 13\nvalue = 450.0"] ;
556 -> 557 ;
558 [label="exact_mass <= 349.669\nmse = 845.771\nsamples = 11\nvalue = 459.044"] ;
557 -> 558 ;
559 [label="rotable_bond_count <= 3.5\nmse = 217.221\nsamples = 7\nvalue = 472.81"] ;
558 -> 559 ;
560 [label="h_bond_acceptor_count <= 6.5\nmse = 100.756\nsamples = 6\nvalue = 466.336"] ;
559 -> 560 ;
561 [label="rotable_bond_count <= 0.5\nmse = 13.37\nsamples = 5\nvalue = 463.196"] ;
560 -> 561 ;
562 [label="mse = 0.0\nsamples = 1\nvalue = 469.655"] ;
561 -> 562 ;
563 [label="h_bond_donor_count <= 1.5\nmse = 1.867\nsamples = 4\nvalue = 461.351"] ;
561 -> 563 ;
564 [label="rotable_bond_count <= 2.0\nmse = 0.366\nsamples = 2\nvalue = 459.274"] ;
563 -> 564 ;
565 [label="mse = 0.0\nsamples = 1\nvalue = 458.669"] ;
564 -> 565 ;
566 [label="mse = 0.0\nsamples = 1\nvalue = 459.879"] ;
564 -> 566 ;
567 [label="xlogp <= 2.7\nmse = 0.052\nsamples = 2\nvalue = 462.182"] ;
563 -> 567 ;
568 [label="mse = 0.0\nsamples = 1\nvalue = 462.461"] ;
567 -> 568 ;
569 [label="mse = 0.0\nsamples = 1\nvalue = 461.996"] ;
567 -> 569 ;
570 [label="mse = 0.0\nsamples = 1\nvalue = 494.594"] ;
560 -> 570 ;
571 [label="mse = 0.0\nsamples = 1\nvalue = 494.391"] ;
559 -> 571 ;
572 [label="complexity <= 568.5\nmse = 706.025\nsamples = 4\nvalue = 423.25"] ;
558 -> 572 ;
573 [label="exact_mass <= 353.174\nmse = 150.409\nsamples = 3\nvalue = 411.149"] ;
572 -> 573 ;
574 [label="xlogp <= 3.75\nmse = 9.239\nsamples = 2\nvalue = 404.233"] ;
573 -> 574 ;
575 [label="mse = 0.0\nsamples = 1\nvalue = 408.532"] ;
574 -> 575 ;
576 [label="mse = -0.0\nsamples = 1\nvalue = 402.084"] ;
574 -> 576 ;
577 [label="mse = 0.0\nsamples = 1\nvalue = 431.896"] ;
573 -> 577 ;
578 [label="mse = 0.0\nsamples = 1\nvalue = 471.652"] ;
572 -> 578 ;
579 [label="xlogp <= 1.75\nmse = 309.387\nsamples = 2\nvalue = 409.307"] ;
557 -> 579 ;
580 [label="mse = 0.0\nsamples = 1\nvalue = 378.841"] ;
579 -> 580 ;
581 [label="mse = 0.0\nsamples = 1\nvalue = 419.462"] ;
579 -> 581 ;
582 [label="molecular_weight <= 348.3\nmse = 2445.242\nsamples = 2\nvalue = 501.457"] ;
556 -> 582 ;
583 [label="mse = 0.0\nsamples = 1\nvalue = 466.491"] ;
582 -> 583 ;
584 [label="mse = -0.0\nsamples = 1\nvalue = 571.389"] ;
582 -> 584 ;
585 [label="molecular_weight <= 307.45\nmse = 947.377\nsamples = 5\nvalue = 508.85"] ;
555 -> 585 ;
586 [label="mse = 0.0\nsamples = 1\nvalue = 558.791"] ;
585 -> 586 ;
587 [label="rotable_bond_count <= 0.5\nmse = 404.802\nsamples = 4\nvalue = 496.364"] ;
585 -> 587 ;
588 [label="mse = 0.0\nsamples = 1\nvalue = 461.986"] ;
587 -> 588 ;
589 [label="h_bond_donor_count <= 1.5\nmse = 14.462\nsamples = 3\nvalue = 507.824"] ;
587 -> 589 ;
590 [label="mse = 0.0\nsamples = 1\nvalue = 513.195"] ;
589 -> 590 ;
591 [label="monoisotopic_mass <= 320.647\nmse = 0.055\nsamples = 2\nvalue = 505.138"] ;
589 -> 591 ;
592 [label="mse = 0.0\nsamples = 1\nvalue = 505.373"] ;
591 -> 592 ;
593 [label="mse = 0.0\nsamples = 1\nvalue = 504.903"] ;
591 -> 593 ;
594 [label="heavy_atom_count <= 23.0\nmse = 2.522\nsamples = 2\nvalue = 552.528"] ;
554 -> 594 ;
595 [label="mse = 0.0\nsamples = 1\nvalue = 550.94"] ;
594 -> 595 ;
596 [label="mse = -0.0\nsamples = 1\nvalue = 554.116"] ;
594 -> 596 ;
597 [label="mse = -0.0\nsamples = 1\nvalue = 388.506"] ;
553 -> 597 ;
598 [label="heavy_atom_count <= 22.0\nmse = 43880.596\nsamples = 4\nvalue = 362.787"] ;
4 -> 598 ;
599 [label="atom_stereo_count <= 3.5\nmse = 57546.732\nsamples = 2\nvalue = 239.889"] ;
598 -> 599 ;
600 [label="mse = 0.0\nsamples = 1\nvalue = 479.778"] ;
599 -> 600 ;
601 [label="mse = 0.0\nsamples = 1\nvalue = 0.0"] ;
599 -> 601 ;
602 [label="xlogp <= -3.75\nmse = 6.5\nsamples = 2\nvalue = 485.686"] ;
598 -> 602 ;
603 [label="mse = 0.0\nsamples = 1\nvalue = 488.235"] ;
602 -> 603 ;
604 [label="mse = -0.0\nsamples = 1\nvalue = 483.136"] ;
602 -> 604 ;
605 [label="mse = -0.0\nsamples = 1\nvalue = 207.743"] ;
3 -> 605 ;
606 [label="atom_stereo_count <= 8.0\nmse = 4061.933\nsamples = 128\nvalue = 464.54"] ;
2 -> 606 ;
607 [label="complexity <= 488.0\nmse = 3265.582\nsamples = 126\nvalue = 466.492"] ;
606 -> 607 ;
608 [label="complexity <= 485.5\nmse = 2839.116\nsamples = 42\nvalue = 444.68"] ;
607 -> 608 ;
609 [label="xlogp <= 2.3\nmse = 2666.049\nsamples = 41\nvalue = 448.267"] ;
608 -> 609 ;
610 [label="tpsa <= 123.5\nmse = 899.548\nsamples = 16\nvalue = 469.711"] ;
609 -> 610 ;
611 [label="atom_stereo_count <= 0.5\nmse = 605.876\nsamples = 11\nvalue = 486.188"] ;
610 -> 611 ;
612 [label="complexity <= 411.5\nmse = 65.469\nsamples = 5\nvalue = 501.634"] ;
611 -> 612 ;
613 [label="heavy_atom_count <= 19.5\nmse = 4.892\nsamples = 2\nvalue = 492.628"] ;
612 -> 613 ;
614 [label="mse = 0.0\nsamples = 1\nvalue = 494.192"] ;
613 -> 614 ;
615 [label="mse = 0.0\nsamples = 1\nvalue = 489.5"] ;
613 -> 615 ;
616 [label="covalent_unit_count <= 1.5\nmse = 4.444\nsamples = 3\nvalue = 508.389"] ;
612 -> 616 ;
617 [label="h_bond_donor_count <= 3.0\nmse = 0.096\nsamples = 2\nvalue = 509.596"] ;
616 -> 617 ;
618 [label="mse = 0.0\nsamples = 1\nvalue = 509.158"] ;
617 -> 618 ;
619 [label="mse = 0.0\nsamples = 1\nvalue = 509.815"] ;
617 -> 619 ;
620 [label="mse = -0.0\nsamples = 1\nvalue = 504.767"] ;
616 -> 620 ;
621 [label="h_bond_donor_count <= 3.5\nmse = 696.28\nsamples = 6\nvalue = 474.174"] ;
611 -> 621 ;
622 [label="rotable_bond_count <= 7.5\nmse = 160.995\nsamples = 5\nvalue = 482.489"] ;
621 -> 622 ;
623 [label="tpsa <= 36.35\nmse = 53.139\nsamples = 3\nvalue = 491.222"] ;
622 -> 623 ;
624 [label="mse = 0.0\nsamples = 1\nvalue = 482.669"] ;
623 -> 624 ;
625 [label="exact_mass <= 364.628\nmse = 7.286\nsamples = 2\nvalue = 496.924"] ;
623 -> 625 ;
626 [label="mse = 0.0\nsamples = 1\nvalue = 495.015"] ;
625 -> 626 ;
627 [label="mse = 0.0\nsamples = 1\nvalue = 500.741"] ;
625 -> 627 ;
628 [label="molecular_weight <= 368.65\nmse = 1.815\nsamples = 2\nvalue = 467.934"] ;
622 -> 628 ;
629 [label="mse = 0.0\nsamples = 1\nvalue = 466.029"] ;
628 -> 629 ;
630 [label="mse = 0.0\nsamples = 1\nvalue = 468.887"] ;
628 -> 630 ;
631 [label="mse = -0.0\nsamples = 1\nvalue = 407.65"] ;
621 -> 631 ;
632 [label="xlogp <= 1.4\nmse = 240.142\nsamples = 5\nvalue = 443.35"] ;
610 -> 632 ;
633 [label="molecular_weight <= 404.45\nmse = 161.262\nsamples = 4\nvalue = 440.101"] ;
632 -> 633 ;
634 [label="heavy_atom_count <= 24.0\nmse = 34.256\nsamples = 3\nvalue = 433.899"] ;
633 -> 634 ;
635 [label="mse = 0.0\nsamples = 1\nvalue = 438.805"] ;
634 -> 635 ;
636 [label="covalent_unit_count <= 1.5\nmse = 5.046\nsamples = 2\nvalue = 427.357"] ;
634 -> 636 ;
637 [label="mse = 0.0\nsamples = 1\nvalue = 425.769"] ;
636 -> 637 ;
638 [label="mse = -0.0\nsamples = 1\nvalue = 430.534"] ;
636 -> 638 ;
639 [label="mse = -0.0\nsamples = 1\nvalue = 461.807"] ;
633 -> 639 ;
640 [label="mse = 0.0\nsamples = 1\nvalue = 472.591"] ;
632 -> 640 ;
641 [label="complexity <= 466.0\nmse = 3309.703\nsamples = 25\nvalue = 434.668"] ;
609 -> 641 ;
642 [label="complexity <= 434.5\nmse = 3709.794\nsamples = 17\nvalue = 419.683"] ;
641 -> 642 ;
643 [label="heavy_atom_count <= 24.5\nmse = 76.623\nsamples = 6\nvalue = 454.055"] ;
642 -> 643 ;
644 [label="xlogp <= 4.65\nmse = 29.881\nsamples = 3\nvalue = 446.497"] ;
643 -> 644 ;
645 [label="xlogp <= 3.9\nmse = 1.253\nsamples = 2\nvalue = 449.184"] ;
644 -> 645 ;
646 [label="mse = 0.0\nsamples = 1\nvalue = 447.245"] ;
645 -> 646 ;
647 [label="mse = -0.0\nsamples = 1\nvalue = 449.83"] ;
645 -> 647 ;
648 [label="mse = -0.0\nsamples = 1\nvalue = 435.749"] ;
644 -> 648 ;
649 [label="monoisotopic_mass <= 366.259\nmse = 28.309\nsamples = 3\nvalue = 460.353"] ;
643 -> 649 ;
650 [label="exact_mass <= 362.197\nmse = 7.836\nsamples = 2\nvalue = 458.266"] ;
649 -> 650 ;
651 [label="mse = 0.0\nsamples = 1\nvalue = 455.98"] ;
650 -> 651 ;
652 [label="mse = 0.0\nsamples = 1\nvalue = 461.694"] ;
650 -> 652 ;
653 [label="mse = 0.0\nsamples = 1\nvalue = 470.788"] ;
649 -> 653 ;
654 [label="rotable_bond_count <= 9.0\nmse = 4801.604\nsamples = 11\nvalue = 397.443"] ;
642 -> 654 ;
655 [label="h_bond_acceptor_count <= 4.5\nmse = 1918.973\nsamples = 10\nvalue = 417.801"] ;
654 -> 655 ;
656 [label="molecular_weight <= 367.15\nmse = 1025.045\nsamples = 4\nvalue = 465.848"] ;
655 -> 656 ;
657 [label="mse = 0.0\nsamples = 1\nvalue = 405.829"] ;
656 -> 657 ;
658 [label="molecular_weight <= 468.32\nmse = 155.594\nsamples = 3\nvalue = 480.853"] ;
656 -> 658 ;
659 [label="heavy_atom_count <= 25.5\nmse = 5.563\nsamples = 2\nvalue = 493.214"] ;
658 -> 659 ;
660 [label="mse = 0.0\nsamples = 1\nvalue = 490.856"] ;
659 -> 660 ;
661 [label="mse = -0.0\nsamples = 1\nvalue = 495.573"] ;
659 -> 661 ;
662 [label="mse = -0.0\nsamples = 1\nvalue = 468.491"] ;
658 -> 662 ;
663 [label="heavy_atom_count <= 25.5\nmse = 634.541\nsamples = 6\nvalue = 393.777"] ;
655 -> 663 ;
664 [label="rotable_bond_count <= 3.0\nmse = 97.534\nsamples = 2\nvalue = 362.343"] ;
663 -> 664 ;
665 [label="mse = 0.0\nsamples = 1\nvalue = 376.31"] ;
664 -> 665 ;
666 [label="mse = 0.0\nsamples = 1\nvalue = 355.36"] ;
664 -> 666 ;
667 [label="complexity <= 450.0\nmse = 259.732\nsamples = 4\nvalue = 407.249"] ;
663 -> 667 ;
668 [label="mse = 0.0\nsamples = 1\nvalue = 393.394"] ;
667 -> 668 ;
669 [label="xlogp <= 3.35\nmse = 202.582\nsamples = 3\nvalue = 417.64"] ;
667 -> 669 ;
670 [label="h_bond_donor_count <= 3.5\nmse = 24.263\nsamples = 2\nvalue = 425.48"] ;
669 -> 670 ;
671 [label="mse = 0.0\nsamples = 1\nvalue = 421.997"] ;
670 -> 671 ;
672 [label="mse = -0.0\nsamples = 1\nvalue = 432.446"] ;
670 -> 672 ;
673 [label="mse = -0.0\nsamples = 1\nvalue = 394.121"] ;
669 -> 673 ;
674 [label="mse = -0.0\nsamples = 1\nvalue = 244.757"] ;
654 -> 674 ;
675 [label="monoisotopic_mass <= 386.598\nmse = 922.734\nsamples = 8\nvalue = 466.942"] ;
641 -> 675 ;
676 [label="h_bond_acceptor_count <= 6.5\nmse = 452.811\nsamples = 4\nvalue = 486.219"] ;
675 -> 676 ;
677 [label="rotable_bond_count <= 9.5\nmse = 112.298\nsamples = 3\nvalue = 498.428"] ;
676 -> 677 ;
678 [label="exact_mass <= 367.186\nmse = 38.328\nsamples = 2\nvalue = 493.91"] ;
677 -> 678 ;
679 [label="mse = 0.0\nsamples = 1\nvalue = 500.101"] ;
678 -> 679 ;
680 [label="mse = 0.0\nsamples = 1\nvalue = 487.719"] ;
678 -> 680 ;
681 [label="mse = 0.0\nsamples = 1\nvalue = 516.498"] ;
677 -> 681 ;
682 [label="mse = -0.0\nsamples = 1\nvalue = 455.699"] ;
676 -> 682 ;
683 [label="rotable_bond_count <= 6.5\nmse = 531.584\nsamples = 4\nvalue = 444.451"] ;
675 -> 683 ;
684 [label="monoisotopic_mass <= 402.612\nmse = 24.56\nsamples = 3\nvalue = 434.341"] ;
683 -> 684 ;
685 [label="mse = 0.0\nsamples = 1\nvalue = 429.175"] ;
684 -> 685 ;
686 [label="h_bond_acceptor_count <= 3.5\nmse = 11.284\nsamples = 2\nvalue = 437.784"] ;
684 -> 686 ;
687 [label="mse = 0.0\nsamples = 1\nvalue = 442.535"] ;
686 -> 687 ;
688 [label="mse = 0.0\nsamples = 1\nvalue = 435.409"] ;
686 -> 688 ;
689 [label="mse = 0.0\nsamples = 1\nvalue = 495.004"] ;
683 -> 689 ;
690 [label="mse = -0.0\nsamples = 1\nvalue = 364.574"] ;
608 -> 690 ;
691 [label="molecular_weight <= 516.745\nmse = 3105.653\nsamples = 84\nvalue = 478.058"] ;
607 -> 691 ;
692 [label="monoisotopic_mass <= 387.129\nmse = 2902.842\nsamples = 83\nvalue = 479.368"] ;
691 -> 692 ;
693 [label="rotable_bond_count <= 8.0\nmse = 3380.074\nsamples = 48\nvalue = 469.54"] ;
692 -> 693 ;
694 [label="xlogp <= 2.3\nmse = 2570.778\nsamples = 47\nvalue = 472.893"] ;
693 -> 694 ;
695 [label="complexity <= 742.0\nmse = 3498.636\nsamples = 24\nvalue = 458.616"] ;
694 -> 695 ;
696 [label="exact_mass <= 371.136\nmse = 2456.956\nsamples = 23\nvalue = 463.864"] ;
695 -> 696 ;
697 [label="complexity <= 620.0\nmse = 1468.494\nsamples = 14\nvalue = 481.208"] ;
696 -> 697 ;
698 [label="h_bond_donor_count <= 2.5\nmse = 691.848\nsamples = 9\nvalue = 453.678"] ;
697 -> 698 ;
699 [label="tpsa <= 102.15\nmse = 197.302\nsamples = 3\nvalue = 426.489"] ;
698 -> 699 ;
700 [label="molecular_weight <= 365.42\nmse = 8.922\nsamples = 2\nvalue = 433.384"] ;
699 -> 700 ;
701 [label="mse = 0.0\nsamples = 1\nvalue = 436.371"] ;
700 -> 701 ;
702 [label="mse = -0.0\nsamples = 1\nvalue = 430.397"] ;
700 -> 702 ;
703 [label="mse = -0.0\nsamples = 1\nvalue = 398.909"] ;
699 -> 703 ;
704 [label="tpsa <= 89.05\nmse = 250.122\nsamples = 6\nvalue = 470.672"] ;
698 -> 704 ;
705 [label="mse = 0.0\nsamples = 1\nvalue = 503.756"] ;
704 -> 705 ;
706 [label="xlogp <= -2.45\nmse = 107.15\nsamples = 5\nvalue = 465.946"] ;
704 -> 706 ;
707 [label="mse = 0.0\nsamples = 1\nvalue = 444.959"] ;
706 -> 707 ;
708 [label="exact_mass <= 359.577\nmse = 39.368\nsamples = 4\nvalue = 469.443"] ;
706 -> 708 ;
709 [label="mse = 0.0\nsamples = 1\nvalue = 482.033"] ;
708 -> 709 ;
710 [label="xlogp <= -0.9\nmse = 9.202\nsamples = 3\nvalue = 466.925"] ;
708 -> 710 ;
711 [label="mse = 0.0\nsamples = 1\nvalue = 463.31"] ;
710 -> 711 ;
712 [label="h_bond_acceptor_count <= 5.5\nmse = 0.812\nsamples = 2\nvalue = 469.336"] ;
710 -> 712 ;
713 [label="mse = 0.0\nsamples = 1\nvalue = 468.061"] ;
712 -> 713 ;
714 [label="mse = -0.0\nsamples = 1\nvalue = 469.973"] ;
712 -> 714 ;
715 [label="xlogp <= 0.75\nmse = 432.138\nsamples = 5\nvalue = 513.743"] ;
697 -> 715 ;
716 [label="molecular_weight <= 366.4\nmse = 12.612\nsamples = 2\nvalue = 535.807"] ;
715 -> 716 ;
717 [label="mse = 0.0\nsamples = 1\nvalue = 531.458"] ;
716 -> 717 ;
718 [label="mse = 0.0\nsamples = 1\nvalue = 538.707"] ;
716 -> 718 ;
719 [label="tpsa <= 113.3\nmse = 37.976\nsamples = 3\nvalue = 495.356"] ;
715 -> 719 ;
720 [label="molecular_weight <= 367.95\nmse = 0.363\nsamples = 2\nvalue = 492.611"] ;
719 -> 720 ;
721 [label="mse = 0.0\nsamples = 1\nvalue = 492.31"] ;
720 -> 721 ;
722 [label="mse = 0.0\nsamples = 1\nvalue = 493.817"] ;
720 -> 722 ;
723 [label="mse = -0.0\nsamples = 1\nvalue = 509.081"] ;
719 -> 723 ;
724 [label="molecular_weight <= 371.45\nmse = 2811.534\nsamples = 9\nvalue = 437.847"] ;
696 -> 724 ;
725 [label="mse = 0.0\nsamples = 1\nvalue = 293.519"] ;
724 -> 725 ;
726 [label="h_bond_acceptor_count <= 7.5\nmse = 1517.686\nsamples = 8\nvalue = 447.469"] ;
724 -> 726 ;
727 [label="heavy_atom_count <= 26.5\nmse = 1187.004\nsamples = 5\nvalue = 469.938"] ;
726 -> 727 ;
728 [label="heavy_atom_count <= 23.0\nmse = 664.87\nsamples = 3\nvalue = 451.221"] ;
727 -> 728 ;
729 [label="mse = 0.0\nsamples = 1\nvalue = 486.441"] ;
728 -> 729 ;
730 [label="complexity <= 617.5\nmse = 66.986\nsamples = 2\nvalue = 433.612"] ;
728 -> 730 ;
731 [label="mse = 0.0\nsamples = 1\nvalue = 425.427"] ;
730 -> 731 ;
732 [label="mse = 0.0\nsamples = 1\nvalue = 441.796"] ;
730 -> 732 ;
733 [label="complexity <= 520.0\nmse = 129.466\nsamples = 2\nvalue = 507.37"] ;
727 -> 733 ;
734 [label="mse = 0.0\nsamples = 1\nvalue = 491.279"] ;
733 -> 734 ;
735 [label="mse = -0.0\nsamples = 1\nvalue = 515.416"] ;
733 -> 735 ;
736 [label="rotable_bond_count <= 4.5\nmse = 120.522\nsamples = 3\nvalue = 413.766"] ;
726 -> 736 ;
737 [label="complexity <= 586.5\nmse = 32.821\nsamples = 2\nvalue = 403.562"] ;
736 -> 737 ;
738 [label="mse = 0.0\nsamples = 1\nvalue = 407.613"] ;
737 -> 738 ;
739 [label="mse = -0.0\nsamples = 1\nvalue = 395.46"] ;
737 -> 739 ;
740 [label="mse = 0.0\nsamples = 1\nvalue = 423.969"] ;
736 -> 740 ;
741 [label="mse = -0.0\nsamples = 1\nvalue = 248.701"] ;
695 -> 741 ;
742 [label="h_bond_acceptor_count <= 2.5\nmse = 909.681\nsamples = 23\nvalue = 490.109"] ;
694 -> 742 ;
743 [label="heavy_atom_count <= 27.5\nmse = 1084.089\nsamples = 2\nvalue = 437.718"] ;
742 -> 743 ;
744 [label="mse = 0.0\nsamples = 1\nvalue = 470.644"] ;
743 -> 744 ;
745 [label="mse = 0.0\nsamples = 1\nvalue = 404.793"] ;
743 -> 745 ;
746 [label="xlogp <= 3.75\nmse = 716.509\nsamples = 21\nvalue = 493.384"] ;
742 -> 746 ;
747 [label="complexity <= 538.0\nmse = 779.945\nsamples = 10\nvalue = 505.154"] ;
746 -> 747 ;
748 [label="tpsa <= 96.1\nmse = 716.927\nsamples = 3\nvalue = 550.042"] ;
747 -> 748 ;
749 [label="h_bond_acceptor_count <= 7.0\nmse = 142.146\nsamples = 2\nvalue = 567.68"] ;
748 -> 749 ;
750 [label="mse = 0.0\nsamples = 1\nvalue = 579.602"] ;
749 -> 750 ;
751 [label="mse = 0.0\nsamples = 1\nvalue = 555.757"] ;
749 -> 751 ;
752 [label="mse = 0.0\nsamples = 1\nvalue = 514.767"] ;
748 -> 752 ;
753 [label="complexity <= 573.0\nmse = 269.146\nsamples = 7\nvalue = 495.535"] ;
747 -> 753 ;
754 [label="mse = 0.0\nsamples = 1\nvalue = 452.224"] ;
753 -> 754 ;
755 [label="h_bond_acceptor_count <= 4.5\nmse = 134.456\nsamples = 6\nvalue = 498.866"] ;
753 -> 755 ;
756 [label="mse = 0.0\nsamples = 1\nvalue = 517.999"] ;
755 -> 756 ;
757 [label="rotable_bond_count <= 5.5\nmse = 80.245\nsamples = 5\nvalue = 495.388"] ;
755 -> 757 ;
758 [label="h_bond_acceptor_count <= 6.5\nmse = 42.808\nsamples = 3\nvalue = 490.373"] ;
757 -> 758 ;
759 [label="tpsa <= 108.0\nmse = 16.217\nsamples = 2\nvalue = 495.389"] ;
758 -> 759 ;
760 [label="mse = 0.0\nsamples = 1\nvalue = 491.362"] ;
759 -> 760 ;
761 [label="mse = 0.0\nsamples = 1\nvalue = 499.416"] ;
759 -> 761 ;
762 [label="mse = -0.0\nsamples = 1\nvalue = 483.686"] ;
758 -> 762 ;
763 [label="xlogp <= 2.75\nmse = 24.767\nsamples = 2\nvalue = 504.162"] ;
757 -> 763 ;
764 [label="mse = 0.0\nsamples = 1\nvalue = 501.289"] ;
763 -> 764 ;
765 [label="mse = -0.0\nsamples = 1\nvalue = 512.782"] ;
763 -> 765 ;
766 [label="h_bond_acceptor_count <= 7.0\nmse = 309.684\nsamples = 11\nvalue = 480.045"] ;
746 -> 766 ;
767 [label="h_bond_acceptor_count <= 4.0\nmse = 177.537\nsamples = 9\nvalue = 473.881"] ;
766 -> 767 ;
768 [label="atom_stereo_count <= 0.5\nmse = 0.032\nsamples = 2\nvalue = 494.662"] ;
767 -> 768 ;
769 [label="mse = 0.0\nsamples = 1\nvalue = 494.84"] ;
768 -> 769 ;
770 [label="mse = 0.0\nsamples = 1\nvalue = 494.484"] ;
768 -> 770 ;
771 [label="complexity <= 603.0\nmse = 109.398\nsamples = 7\nvalue = 469.725"] ;
767 -> 771 ;
772 [label="tpsa <= 59.3\nmse = 71.346\nsamples = 6\nvalue = 471.966"] ;
771 -> 772 ;
773 [label="molecular_weight <= 375.5\nmse = 2.031\nsamples = 2\nvalue = 458.661"] ;
772 -> 773 ;
774 [label="mse = 0.0\nsamples = 1\nvalue = 460.086"] ;
773 -> 774 ;
775 [label="mse = -0.0\nsamples = 1\nvalue = 457.236"] ;
773 -> 775 ;
776 [label="complexity <= 536.5\nmse = 26.122\nsamples = 4\nvalue = 475.767"] ;
772 -> 776 ;
777 [label="monoisotopic_mass <= 372.177\nmse = 4.982\nsamples = 2\nvalue = 482.799"] ;
776 -> 777 ;
778 [label="mse = 0.0\nsamples = 1\nvalue = 485.031"] ;
777 -> 778 ;
779 [label="mse = 0.0\nsamples = 1\nvalue = 480.567"] ;
777 -> 779 ;
780 [label="rotable_bond_count <= 3.0\nmse = 6.89\nsamples = 2\nvalue = 472.955"] ;
776 -> 780 ;
781 [label="mse = 0.0\nsamples = 1\nvalue = 475.098"] ;
780 -> 781 ;
782 [label="mse = -0.0\nsamples = 1\nvalue = 469.74"] ;
780 -> 782 ;
783 [label="mse = -0.0\nsamples = 1\nvalue = 449.559"] ;
771 -> 783 ;
784 [label="complexity <= 591.5\nmse = 78.559\nsamples = 2\nvalue = 504.698"] ;
766 -> 784 ;
785 [label="mse = 0.0\nsamples = 1\nvalue = 510.965"] ;
784 -> 785 ;
786 [label="mse = 0.0\nsamples = 1\nvalue = 492.163"] ;
784 -> 786 ;
787 [label="mse = -0.0\nsamples = 1\nvalue = 218.076"] ;
693 -> 787 ;
788 [label="xlogp <= 1.7\nmse = 1925.468\nsamples = 35\nvalue = 492.95"] ;
692 -> 788 ;
789 [label="h_bond_donor_count <= 1.5\nmse = 997.988\nsamples = 16\nvalue = 510.894"] ;
788 -> 789 ;
790 [label="covalent_unit_count <= 1.5\nmse = 166.301\nsamples = 3\nvalue = 537.83"] ;
789 -> 790 ;
791 [label="mse = 0.0\nsamples = 1\nvalue = 556.053"] ;
790 -> 791 ;
792 [label="complexity <= 532.0\nmse = 0.394\nsamples = 2\nvalue = 528.718"] ;
790 -> 792 ;
793 [label="mse = 0.0\nsamples = 1\nvalue = 529.346"] ;
792 -> 793 ;
794 [label="mse = 0.0\nsamples = 1\nvalue = 528.091"] ;
792 -> 794 ;
795 [label="xlogp <= -0.35\nmse = 972.975\nsamples = 13\nvalue = 503.548"] ;
789 -> 795 ;
796 [label="h_bond_acceptor_count <= 10.5\nmse = 2062.297\nsamples = 3\nvalue = 535.943"] ;
795 -> 796 ;
797 [label="heavy_atom_count <= 27.5\nmse = 224.745\nsamples = 2\nvalue = 557.637"] ;
796 -> 797 ;
798 [label="mse = 0.0\nsamples = 1\nvalue = 542.645"] ;
797 -> 798 ;
799 [label="mse = -0.0\nsamples = 1\nvalue = 572.628"] ;
797 -> 799 ;
800 [label="mse = 0.0\nsamples = 1\nvalue = 449.167"] ;
796 -> 800 ;
801 [label="xlogp <= 0.15\nmse = 253.163\nsamples = 10\nvalue = 494.021"] ;
795 -> 801 ;
802 [label="heavy_atom_count <= 26.5\nmse = 94.823\nsamples = 6\nvalue = 483.049"] ;
801 -> 802 ;
803 [label="mse = 0.0\nsamples = 1\nvalue = 456.482"] ;
802 -> 803 ;
804 [label="complexity <= 598.5\nmse = 7.425\nsamples = 5\nvalue = 486.369"] ;
802 -> 804 ;
805 [label="molecular_weight <= 423.4\nmse = 0.317\nsamples = 4\nvalue = 484.287"] ;
804 -> 805 ;
806 [label="molecular_weight <= 399.95\nmse = 0.111\nsamples = 3\nvalue = 484.048"] ;
805 -> 806 ;
807 [label="mse = 0.0\nsamples = 1\nvalue = 483.487"] ;
806 -> 807 ;
808 [label="h_bond_donor_count <= 3.0\nmse = 0.008\nsamples = 2\nvalue = 484.236"] ;
806 -> 808 ;
809 [label="mse = 0.0\nsamples = 1\nvalue = 484.365"] ;
808 -> 809 ;
810 [label="mse = 0.0\nsamples = 1\nvalue = 484.171"] ;
808 -> 810 ;
811 [label="mse = 0.0\nsamples = 1\nvalue = 485.241"] ;
805 -> 811 ;
812 [label="mse = -0.0\nsamples = 1\nvalue = 489.84"] ;
804 -> 812 ;
813 [label="heavy_atom_count <= 27.5\nmse = 143.503\nsamples = 4\nvalue = 506.364"] ;
801 -> 813 ;
814 [label="h_bond_donor_count <= 2.5\nmse = 22.561\nsamples = 2\nvalue = 520.629"] ;
813 -> 814 ;
815 [label="mse = 0.0\nsamples = 1\nvalue = 517.27"] ;
814 -> 815 ;
816 [label="mse = -0.0\nsamples = 1\nvalue = 527.346"] ;
814 -> 816 ;
817 [label="rotable_bond_count <= 7.0\nmse = 20.726\nsamples = 2\nvalue = 497.805"] ;
813 -> 817 ;
818 [label="mse = 0.0\nsamples = 1\nvalue = 494.088"] ;
817 -> 818 ;
819 [label="mse = 0.0\nsamples = 1\nvalue = 503.381"] ;
817 -> 819 ;
820 [label="monoisotopic_mass <= 458.512\nmse = 2207.043\nsamples = 19\nvalue = 474.34"] ;
788 -> 820 ;
821 [label="xlogp <= 4.0\nmse = 1344.04\nsamples = 18\nvalue = 480.265"] ;
820 -> 821 ;
822 [label="atom_stereo_count <= 1.5\nmse = 1284.217\nsamples = 12\nvalue = 464.452"] ;
821 -> 822 ;
823 [label="exact_mass <= 448.015\nmse = 1057.963\nsamples = 11\nvalue = 468.867"] ;
822 -> 823 ;
824 [label="exact_mass <= 431.518\nmse = 935.811\nsamples = 10\nvalue = 462.704"] ;
823 -> 824 ;
825 [label="xlogp <= 3.25\nmse = 507.968\nsamples = 9\nvalue = 472.295"] ;
824 -> 825 ;
826 [label="complexity <= 540.0\nmse = 47.297\nsamples = 5\nvalue = 493.359"] ;
825 -> 826 ;
827 [label="molecular_weight <= 394.2\nmse = 17.322\nsamples = 2\nvalue = 485.985"] ;
826 -> 827 ;
828 [label="mse = 0.0\nsamples = 1\nvalue = 481.823"] ;
827 -> 828 ;
829 [label="mse = -0.0\nsamples = 1\nvalue = 490.147"] ;
827 -> 829 ;
830 [label="exact_mass <= 390.078\nmse = 6.869\nsamples = 3\nvalue = 498.274"] ;
826 -> 830 ;
831 [label="mse = 0.0\nsamples = 1\nvalue = 494.797"] ;
830 -> 831 ;
832 [label="monoisotopic_mass <= 397.084\nmse = 1.234\nsamples = 2\nvalue = 500.013"] ;
830 -> 832 ;
833 [label="mse = 0.0\nsamples = 1\nvalue = 501.124"] ;
832 -> 833 ;
834 [label="mse = -0.0\nsamples = 1\nvalue = 498.902"] ;
832 -> 834 ;
835 [label="molecular_weight <= 414.07\nmse = 214.041\nsamples = 4\nvalue = 454.742"] ;
825 -> 835 ;
836 [label="tpsa <= 116.0\nmse = 0.107\nsamples = 2\nvalue = 440.353"] ;
835 -> 836 ;
837 [label="mse = 0.0\nsamples = 1\nvalue = 440.122"] ;
836 -> 837 ;
838 [label="mse = 0.0\nsamples = 1\nvalue = 440.816"] ;
836 -> 838 ;
839 [label="complexity <= 524.5\nmse = 13.879\nsamples = 2\nvalue = 469.132"] ;
835 -> 839 ;
840 [label="mse = 0.0\nsamples = 1\nvalue = 471.766"] ;
839 -> 840 ;
841 [label="mse = 0.0\nsamples = 1\nvalue = 463.863"] ;
839 -> 841 ;
842 [label="mse = -0.0\nsamples = 1\nvalue = 409.95"] ;
824 -> 842 ;
843 [label="mse = 0.0\nsamples = 1\nvalue = 508.93"] ;
823 -> 843 ;
844 [label="mse = 0.0\nsamples = 1\nvalue = 398.228"] ;
822 -> 844 ;
845 [label="heavy_atom_count <= 27.5\nmse = 399.556\nsamples = 6\nvalue = 505.566"] ;
821 -> 845 ;
846 [label="tpsa <= 88.7\nmse = 105.598\nsamples = 4\nvalue = 520.184"] ;
845 -> 846 ;
847 [label="exact_mass <= 420.478\nmse = 2.49\nsamples = 3\nvalue = 515.634"] ;
846 -> 847 ;
848 [label="mse = 0.0\nsamples = 1\nvalue = 513.842"] ;
847 -> 848 ;
849 [label="h_bond_donor_count <= 1.0\nmse = 0.583\nsamples = 2\nvalue = 516.828"] ;
847 -> 849 ;
850 [label="mse = 0.0\nsamples = 1\nvalue = 517.908"] ;
849 -> 850 ;
851 [label="mse = 0.0\nsamples = 1\nvalue = 516.288"] ;
849 -> 851 ;
852 [label="mse = 0.0\nsamples = 1\nvalue = 542.935"] ;
846 -> 852 ;
853 [label="tpsa <= 109.15\nmse = 39.167\nsamples = 2\nvalue = 483.639"] ;
845 -> 853 ;
854 [label="mse = 0.0\nsamples = 1\nvalue = 487.252"] ;
853 -> 854 ;
855 [label="mse = 0.0\nsamples = 1\nvalue = 472.799"] ;
853 -> 855 ;
856 [label="mse = 0.0\nsamples = 1\nvalue = 320.287"] ;
820 -> 856 ;
857 [label="mse = -0.0\nsamples = 1\nvalue = 306.451"] ;
691 -> 857 ;
858 [label="complexity <= 648.5\nmse = 45264.477\nsamples = 2\nvalue = 267.45"] ;
606 -> 858 ;
859 [label="mse = 0.0\nsamples = 1\nvalue = 480.205"] ;
858 -> 859 ;
860 [label="mse = 0.0\nsamples = 1\nvalue = 54.696"] ;
858 -> 860 ;
861 [label="atom_stereo_count <= 4.5\nmse = 15931.089\nsamples = 8\nvalue = 404.557"] ;
1 -> 861 ;
862 [label="atom_stereo_count <= 3.0\nmse = 1519.0\nsamples = 7\nvalue = 444.784"] ;
861 -> 862 ;
863 [label="h_bond_acceptor_count <= 3.5\nmse = 719.955\nsamples = 5\nvalue = 431.263"] ;
862 -> 863 ;
864 [label="tpsa <= 41.9\nmse = 297.523\nsamples = 3\nvalue = 441.913"] ;
863 -> 864 ;
865 [label="mse = 0.0\nsamples = 1\nvalue = 423.957"] ;
864 -> 865 ;
866 [label="tpsa <= 59.6\nmse = 115.227\nsamples = 2\nvalue = 454.739"] ;
864 -> 866 ;
867 [label="mse = 0.0\nsamples = 1\nvalue = 481.033"] ;
866 -> 867 ;
868 [label="mse = 0.0\nsamples = 1\nvalue = 450.357"] ;
866 -> 868 ;
869 [label="xlogp <= 2.95\nmse = 141.12\nsamples = 2\nvalue = 388.662"] ;
863 -> 869 ;
870 [label="mse = 0.0\nsamples = 1\nvalue = 397.062"] ;
869 -> 870 ;
871 [label="mse = -0.0\nsamples = 1\nvalue = 371.862"] ;
869 -> 871 ;
872 [label="monoisotopic_mass <= 366.241\nmse = 29.624\nsamples = 2\nvalue = 512.39"] ;
862 -> 872 ;
873 [label="mse = 0.0\nsamples = 1\nvalue = 520.087"] ;
872 -> 873 ;
874 [label="mse = 0.0\nsamples = 1\nvalue = 508.541"] ;
872 -> 874 ;
875 [label="mse = 0.0\nsamples = 1\nvalue = 42.513"] ;
861 -> 875 ;
876 [label="rotable_bond_count <= 7.5\nmse = 7694.905\nsamples = 344\nvalue = 436.721"] ;
0 -> 876 [labeldistance=2.5, labelangle=-45, headlabel="False"] ;
877 [label="molecular_weight <= 490.55\nmse = 8925.887\nsamples = 204\nvalue = 423.918"] ;
876 -> 877 ;
878 [label="xlogp <= 5.5\nmse = 6252.404\nsamples = 134\nvalue = 443.984"] ;
877 -> 878 ;
879 [label="tpsa <= 139.0\nmse = 6411.939\nsamples = 119\nvalue = 435.771"] ;
878 -> 879 ;
880 [label="h_bond_donor_count <= 2.5\nmse = 6445.559\nsamples = 107\nvalue = 425.583"] ;
879 -> 880 ;
881 [label="atom_stereo_count <= 0.5\nmse = 6801.342\nsamples = 88\nvalue = 436.751"] ;
880 -> 881 ;
882 [label="rotable_bond_count <= 2.5\nmse = 3967.409\nsamples = 45\nvalue = 457.728"] ;
881 -> 882 ;
883 [label="mse = 0.0\nsamples = 1\nvalue = 170.752"] ;
882 -> 883 ;
884 [label="complexity <= 871.0\nmse = 2722.489\nsamples = 44\nvalue = 462.212"] ;
882 -> 884 ;
885 [label="tpsa <= 22.25\nmse = 1969.951\nsamples = 43\nvalue = 465.739"] ;
884 -> 885 ;
886 [label="mse = 0.0\nsamples = 1\nvalue = 320.821"] ;
885 -> 886 ;
887 [label="tpsa <= 134.0\nmse = 1657.534\nsamples = 42\nvalue = 468.076"] ;
885 -> 887 ;
888 [label="complexity <= 712.5\nmse = 1450.598\nsamples = 41\nvalue = 470.019"] ;
887 -> 888 ;
889 [label="tpsa <= 110.5\nmse = 1495.287\nsamples = 32\nvalue = 475.331"] ;
888 -> 889 ;
890 [label="xlogp <= 5.3\nmse = 1380.145\nsamples = 29\nvalue = 471.822"] ;
889 -> 890 ;
891 [label="xlogp <= 2.55\nmse = 1253.582\nsamples = 28\nvalue = 473.695"] ;
890 -> 891 ;
892 [label="monoisotopic_mass <= 418.66\nmse = 37.09\nsamples = 4\nvalue = 503.225"] ;
891 -> 892 ;
893 [label="mse = 0.0\nsamples = 1\nvalue = 513.915"] ;
892 -> 893 ;
894 [label="covalent_unit_count <= 2.0\nmse = 17.083\nsamples = 3\nvalue = 501.087"] ;
892 -> 894 ;
895 [label="h_bond_acceptor_count <= 7.0\nmse = 2.93\nsamples = 2\nvalue = 503.007"] ;
894 -> 895 ;
896 [label="mse = 0.0\nsamples = 1\nvalue = 500.042"] ;
895 -> 896 ;
897 [label="mse = 0.0\nsamples = 1\nvalue = 503.995"] ;
895 -> 897 ;
898 [label="mse = -0.0\nsamples = 1\nvalue = 493.409"] ;
894 -> 898 ;
899 [label="complexity <= 540.5\nmse = 1286.23\nsamples = 24\nvalue = 469.032"] ;
891 -> 899 ;
900 [label="rotable_bond_count <= 4.5\nmse = 239.395\nsamples = 4\nvalue = 500.925"] ;
899 -> 900 ;
901 [label="mse = 0.0\nsamples = 1\nvalue = 479.248"] ;
900 -> 901 ;
902 [label="molecular_weight <= 411.15\nmse = 110.358\nsamples = 3\nvalue = 508.15"] ;
900 -> 902 ;
903 [label="h_bond_donor_count <= 1.5\nmse = 5.922\nsamples = 2\nvalue = 515.445"] ;
902 -> 903 ;
904 [label="mse = 0.0\nsamples = 1\nvalue = 517.878"] ;
903 -> 904 ;
905 [label="mse = -0.0\nsamples = 1\nvalue = 513.011"] ;
903 -> 905 ;
906 [label="mse = 0.0\nsamples = 1\nvalue = 493.562"] ;
902 -> 906 ;
907 [label="complexity <= 664.0\nmse = 1275.646\nsamples = 20\nvalue = 465.28"] ;
899 -> 907 ;
908 [label="xlogp <= 3.95\nmse = 1015.824\nsamples = 12\nvalue = 453.875"] ;
907 -> 908 ;
909 [label="molecular_weight <= 390.9\nmse = 328.95\nsamples = 4\nvalue = 502.462"] ;
908 -> 909 ;
910 [label="mse = 0.0\nsamples = 1\nvalue = 529.493"] ;
909 -> 910 ;
911 [label="monoisotopic_mass <= 418.653\nmse = 113.844\nsamples = 3\nvalue = 493.451"] ;
909 -> 911 ;
912 [label="molecular_weight <= 403.9\nmse = 12.426\nsamples = 2\nvalue = 500.716"] ;
911 -> 912 ;
913 [label="mse = 0.0\nsamples = 1\nvalue = 504.241"] ;
912 -> 913 ;
914 [label="mse = -0.0\nsamples = 1\nvalue = 497.191"] ;
912 -> 914 ;
915 [label="mse = -0.0\nsamples = 1\nvalue = 478.921"] ;
911 -> 915 ;
916 [label="monoisotopic_mass <= 451.086\nmse = 401.63\nsamples = 8\nvalue = 440.919"] ;
908 -> 916 ;
917 [label="h_bond_acceptor_count <= 5.5\nmse = 38.404\nsamples = 5\nvalue = 450.673"] ;
916 -> 917 ;
918 [label="monoisotopic_mass <= 402.153\nmse = 2.749\nsamples = 3\nvalue = 456.744"] ;
917 -> 918 ;
919 [label="mse = 0.0\nsamples = 1\nvalue = 458.453"] ;
918 -> 919 ;
920 [label="heavy_atom_count <= 32.5\nmse = 1.336\nsamples = 2\nvalue = 455.605"] ;
918 -> 920 ;
921 [label="mse = 0.0\nsamples = 1\nvalue = 456.422"] ;
920 -> 921 ;
922 [label="mse = -0.0\nsamples = 1\nvalue = 453.97"] ;
920 -> 922 ;
923 [label="tpsa <= 83.5\nmse = 0.347\nsamples = 2\nvalue = 444.602"] ;
917 -> 923 ;
924 [label="mse = 0.0\nsamples = 1\nvalue = 444.121"] ;
923 -> 924 ;
925 [label="mse = -0.0\nsamples = 1\nvalue = 445.324"] ;
923 -> 925 ;
926 [label="tpsa <= 90.65\nmse = 557.243\nsamples = 3\nvalue = 421.411"] ;
916 -> 926 ;
927 [label="mse = 0.0\nsamples = 1\nvalue = 393.195"] ;
926 -> 927 ;
928 [label="heavy_atom_count <= 32.5\nmse = 44.124\nsamples = 2\nvalue = 440.222"] ;
926 -> 928 ;
929 [label="mse = 0.0\nsamples = 1\nvalue = 430.828"] ;
928 -> 929 ;
930 [label="mse = 0.0\nsamples = 1\nvalue = 444.919"] ;
928 -> 930 ;
931 [label="complexity <= 675.5\nmse = 1231.313\nsamples = 8\nvalue = 479.726"] ;
907 -> 931 ;
932 [label="complexity <= 669.5\nmse = 257.667\nsamples = 2\nvalue = 524.002"] ;
931 -> 932 ;
933 [label="mse = 0.0\nsamples = 1\nvalue = 540.054"] ;
932 -> 933 ;
934 [label="mse = 0.0\nsamples = 1\nvalue = 507.95"] ;
932 -> 934 ;
935 [label="xlogp <= 3.75\nmse = 613.293\nsamples = 6\nvalue = 463.626"] ;
931 -> 935 ;
936 [label="rotable_bond_count <= 4.5\nmse = 83.001\nsamples = 2\nvalue = 439.298"] ;
935 -> 936 ;
937 [label="mse = 0.0\nsamples = 1\nvalue = 448.408"] ;
936 -> 937 ;
938 [label="mse = 0.0\nsamples = 1\nvalue = 430.187"] ;
936 -> 938 ;
939 [label="molecular_weight <= 451.5\nmse = 384.841\nsamples = 4\nvalue = 477.528"] ;
935 -> 939 ;
940 [label="mse = 0.0\nsamples = 1\nvalue = 524.048"] ;
939 -> 940 ;
941 [label="complexity <= 698.0\nmse = 28.179\nsamples = 3\nvalue = 469.774"] ;
939 -> 941 ;
942 [label="heavy_atom_count <= 33.0\nmse = 5.101\nsamples = 2\nvalue = 464.712"] ;
941 -> 942 ;
943 [label="mse = 0.0\nsamples = 1\nvalue = 466.309"] ;
942 -> 943 ;
944 [label="mse = 0.0\nsamples = 1\nvalue = 461.518"] ;
942 -> 944 ;
945 [label="mse = -0.0\nsamples = 1\nvalue = 474.837"] ;
941 -> 945 ;
946 [label="mse = -0.0\nsamples = 1\nvalue = 389.393"] ;
890 -> 946 ;
947 [label="h_bond_acceptor_count <= 7.5\nmse = 1093.45\nsamples = 3\nvalue = 514.811"] ;
889 -> 947 ;
948 [label="mse = 0.0\nsamples = 1\nvalue = 547.835"] ;
947 -> 948 ;
949 [label="molecular_weight <= 464.55\nmse = 5.664\nsamples = 2\nvalue = 481.786"] ;
947 -> 949 ;
950 [label="mse = 0.0\nsamples = 1\nvalue = 484.166"] ;
949 -> 950 ;
951 [label="mse = 0.0\nsamples = 1\nvalue = 479.406"] ;
949 -> 951 ;
952 [label="complexity <= 771.0\nmse = 682.475\nsamples = 9\nvalue = 448.33"] ;
888 -> 952 ;
953 [label="heavy_atom_count <= 31.0\nmse = 48.18\nsamples = 2\nvalue = 427.613"] ;
952 -> 953 ;
954 [label="mse = 0.0\nsamples = 1\nvalue = 415.591"] ;
953 -> 954 ;
955 [label="mse = 0.0\nsamples = 1\nvalue = 431.621"] ;
953 -> 955 ;
956 [label="h_bond_acceptor_count <= 6.5\nmse = 677.753\nsamples = 7\nvalue = 458.688"] ;
952 -> 956 ;
957 [label="tpsa <= 84.7\nmse = 541.656\nsamples = 4\nvalue = 478.115"] ;
956 -> 957 ;
958 [label="xlogp <= 2.9\nmse = 0.733\nsamples = 2\nvalue = 456.561"] ;
957 -> 958 ;
959 [label="mse = 0.0\nsamples = 1\nvalue = 455.705"] ;
958 -> 959 ;
960 [label="mse = 0.0\nsamples = 1\nvalue = 457.417"] ;
958 -> 960 ;
961 [label="monoisotopic_mass <= 448.15\nmse = 153.45\nsamples = 2\nvalue = 499.668"] ;
957 -> 961 ;
962 [label="mse = 0.0\nsamples = 1\nvalue = 512.056"] ;
961 -> 962 ;
963 [label="mse = 0.0\nsamples = 1\nvalue = 487.281"] ;
961 -> 963 ;
964 [label="rotable_bond_count <= 4.5\nmse = 59.033\nsamples = 3\nvalue = 439.261"] ;
956 -> 964 ;
965 [label="mse = 0.0\nsamples = 1\nvalue = 426.196"] ;
964 -> 965 ;
966 [label="tpsa <= 117.5\nmse = 2.85\nsamples = 2\nvalue = 443.616"] ;
964 -> 966 ;
967 [label="mse = 0.0\nsamples = 1\nvalue = 442.422"] ;
966 -> 967 ;
968 [label="mse = 0.0\nsamples = 1\nvalue = 446.003"] ;
966 -> 968 ;
969 [label="mse = 0.0\nsamples = 1\nvalue = 349.542"] ;
887 -> 969 ;
970 [label="mse = 0.0\nsamples = 1\nvalue = 240.066"] ;
884 -> 970 ;
971 [label="monoisotopic_mass <= 399.228\nmse = 8878.263\nsamples = 43\nvalue = 414.025"] ;
881 -> 971 ;
972 [label="monoisotopic_mass <= 390.637\nmse = 12423.798\nsamples = 5\nvalue = 284.668"] ;
971 -> 972 ;
973 [label="mse = 0.0\nsamples = 1\nvalue = 528.048"] ;
972 -> 973 ;
974 [label="complexity <= 707.0\nmse = 692.44\nsamples = 4\nvalue = 235.992"] ;
972 -> 974 ;
975 [label="molecular_weight <= 395.45\nmse = 53.865\nsamples = 2\nvalue = 256.94"] ;
974 -> 975 ;
976 [label="mse = 0.0\nsamples = 1\nvalue = 251.75"] ;
975 -> 976 ;
977 [label="mse = 0.0\nsamples = 1\nvalue = 267.319"] ;
975 -> 977 ;
978 [label="rotable_bond_count <= 3.5\nmse = 4.785\nsamples = 2\nvalue = 204.57"] ;
974 -> 978 ;
979 [label="mse = 0.0\nsamples = 1\nvalue = 206.758"] ;
978 -> 979 ;
980 [label="mse = 0.0\nsamples = 1\nvalue = 202.383"] ;
978 -> 980 ;
981 [label="xlogp <= 2.55\nmse = 6418.469\nsamples = 38\nvalue = 428.399"] ;
971 -> 981 ;
982 [label="rotable_bond_count <= 4.5\nmse = 1745.358\nsamples = 15\nvalue = 478.815"] ;
981 -> 982 ;
983 [label="tpsa <= 100.6\nmse = 499.984\nsamples = 7\nvalue = 513.918"] ;
982 -> 983 ;
984 [label="h_bond_acceptor_count <= 4.0\nmse = 378.532\nsamples = 4\nvalue = 533.174"] ;
983 -> 984 ;
985 [label="mse = 0.0\nsamples = 1\nvalue = 497.101"] ;
984 -> 985 ;
986 [label="rotable_bond_count <= 2.5\nmse = 66.53\nsamples = 3\nvalue = 542.192"] ;
984 -> 986 ;
987 [label="mse = 0.0\nsamples = 1\nvalue = 530.111"] ;
986 -> 987 ;
988 [label="atom_stereo_count <= 1.5\nmse = 23.842\nsamples = 2\nvalue = 546.219"] ;
986 -> 988 ;
989 [label="mse = 0.0\nsamples = 1\nvalue = 553.124"] ;
988 -> 989 ;
990 [label="mse = 0.0\nsamples = 1\nvalue = 542.766"] ;
988 -> 990 ;
991 [label="xlogp <= 1.2\nmse = 34.707\nsamples = 3\nvalue = 497.871"] ;
983 -> 991 ;
992 [label="mse = 0.0\nsamples = 1\nvalue = 509.959"] ;
991 -> 992 ;
993 [label="h_bond_acceptor_count <= 7.5\nmse = 6.58\nsamples = 2\nvalue = 495.453"] ;
991 -> 993 ;
994 [label="mse = 0.0\nsamples = 1\nvalue = 493.359"] ;
993 -> 994 ;
995 [label="mse = 0.0\nsamples = 1\nvalue = 498.595"] ;
993 -> 995 ;
996 [label="complexity <= 436.0\nmse = 526.322\nsamples = 8\nvalue = 443.712"] ;
982 -> 996 ;
997 [label="mse = 0.0\nsamples = 1\nvalue = 481.726"] ;
996 -> 997 ;
998 [label="xlogp <= 2.4\nmse = 250.797\nsamples = 7\nvalue = 435.265"] ;
996 -> 998 ;
999 [label="h_bond_acceptor_count <= 8.0\nmse = 53.178\nsamples = 4\nvalue = 426.185"] ;
998 -> 999 ;
1000 [label="molecular_weight <= 430.45\nmse = 9.562\nsamples = 3\nvalue = 429.192"] ;
999 -> 1000 ;
1001 [label="mse = 0.0\nsamples = 1\nvalue = 431.715"] ;
1000 -> 1001 ;
1002 [label="h_bond_donor_count <= 1.5\nmse = 0.033\nsamples = 2\nvalue = 425.408"] ;
1000 -> 1002 ;
1003 [label="mse = 0.0\nsamples = 1\nvalue = 425.225"] ;
1002 -> 1003 ;
1004 [label="mse = -0.0\nsamples = 1\nvalue = 425.59"] ;
1002 -> 1004 ;
1005 [label="mse = -0.0\nsamples = 1\nvalue = 411.15"] ;
999 -> 1005 ;
1006 [label="tpsa <= 102.35\nmse = 151.406\nsamples = 3\nvalue = 453.424"] ;
998 -> 1006 ;
1007 [label="monoisotopic_mass <= 432.702\nmse = 0.343\nsamples = 2\nvalue = 444.73"] ;
1006 -> 1007 ;
1008 [label="mse = 0.0\nsamples = 1\nvalue = 445.315"] ;
1007 -> 1008 ;
1009 [label="mse = -0.0\nsamples = 1\nvalue = 444.144"] ;
1007 -> 1009 ;
1010 [label="mse = -0.0\nsamples = 1\nvalue = 470.812"] ;
1006 -> 1010 ;
1011 [label="tpsa <= 84.75\nmse = 6682.336\nsamples = 23\nvalue = 393.737"] ;
981 -> 1011 ;
1012 [label="rotable_bond_count <= 6.0\nmse = 1258.477\nsamples = 10\nvalue = 450.395"] ;
1011 -> 1012 ;
1013 [label="h_bond_donor_count <= 0.5\nmse = 652.093\nsamples = 9\nvalue = 442.644"] ;
1012 -> 1013 ;
1014 [label="exact_mass <= 411.213\nmse = 608.889\nsamples = 3\nvalue = 424.609"] ;
1013 -> 1014 ;
1015 [label="mse = 0.0\nsamples = 1\nvalue = 453.931"] ;
1014 -> 1015 ;
1016 [label="monoisotopic_mass <= 421.185\nmse = 59.478\nsamples = 2\nvalue = 405.06"] ;
1014 -> 1016 ;
1017 [label="mse = 0.0\nsamples = 1\nvalue = 415.967"] ;
1016 -> 1017 ;
1018 [label="mse = -0.0\nsamples = 1\nvalue = 399.607"] ;
1016 -> 1018 ;
1019 [label="h_bond_acceptor_count <= 5.5\nmse = 191.127\nsamples = 6\nvalue = 457.674"] ;
1013 -> 1019 ;
1020 [label="h_bond_acceptor_count <= 4.0\nmse = 19.462\nsamples = 4\nvalue = 466.985"] ;
1019 -> 1020 ;
1021 [label="xlogp <= 4.35\nmse = 1.288\nsamples = 2\nvalue = 471.012"] ;
1020 -> 1021 ;
1022 [label="mse = 0.0\nsamples = 1\nvalue = 472.147"] ;
1021 -> 1022 ;
1023 [label="mse = 0.0\nsamples = 1\nvalue = 469.877"] ;
1021 -> 1023 ;
1024 [label="atom_stereo_count <= 4.0\nmse = 5.203\nsamples = 2\nvalue = 462.958"] ;
1020 -> 1024 ;
1025 [label="mse = 0.0\nsamples = 1\nvalue = 465.239"] ;
1024 -> 1025 ;
1026 [label="mse = 0.0\nsamples = 1\nvalue = 460.677"] ;
1024 -> 1026 ;
1027 [label="molecular_weight <= 458.65\nmse = 14.307\nsamples = 2\nvalue = 439.052"] ;
1019 -> 1027 ;
1028 [label="mse = 0.0\nsamples = 1\nvalue = 442.835"] ;
1027 -> 1028 ;
1029 [label="mse = -0.0\nsamples = 1\nvalue = 435.27"] ;
1027 -> 1029 ;
1030 [label="mse = -0.0\nsamples = 1\nvalue = 535.647"] ;
1012 -> 1030 ;
1031 [label="tpsa <= 103.8\nmse = 6855.0\nsamples = 13\nvalue = 359.743"] ;
1011 -> 1031 ;
1032 [label="molecular_weight <= 450.65\nmse = 2155.235\nsamples = 7\nvalue = 306.454"] ;
1031 -> 1032 ;
1033 [label="tpsa <= 92.65\nmse = 0.299\nsamples = 2\nvalue = 261.982"] ;
1032 -> 1033 ;
1034 [label="mse = 0.0\nsamples = 1\nvalue = 262.428"] ;
1033 -> 1034 ;
1035 [label="mse = 0.0\nsamples = 1\nvalue = 261.312"] ;
1033 -> 1035 ;
1036 [label="complexity <= 651.0\nmse = 1493.366\nsamples = 5\nvalue = 334.249"] ;
1032 -> 1036 ;
1037 [label="mse = 0.0\nsamples = 1\nvalue = 379.849"] ;
1036 -> 1037 ;
1038 [label="h_bond_acceptor_count <= 8.5\nmse = 1067.01\nsamples = 4\nvalue = 319.049"] ;
1036 -> 1038 ;
1039 [label="atom_stereo_count <= 1.5\nmse = 418.758\nsamples = 3\nvalue = 331.033"] ;
1038 -> 1039 ;
1040 [label="mse = 0.0\nsamples = 1\nvalue = 370.83"] ;
1039 -> 1040 ;
1041 [label="h_bond_acceptor_count <= 7.0\nmse = 28.515\nsamples = 2\nvalue = 321.084"] ;
1039 -> 1041 ;
1042 [label="mse = 0.0\nsamples = 1\nvalue = 318.001"] ;
1041 -> 1042 ;
1043 [label="mse = -0.0\nsamples = 1\nvalue = 330.333"] ;
1041 -> 1043 ;
1044 [label="mse = 0.0\nsamples = 1\nvalue = 259.131"] ;
1038 -> 1044 ;
1045 [label="tpsa <= 125.5\nmse = 515.375\nsamples = 6\nvalue = 458.708"] ;
1031 -> 1045 ;
1046 [label="rotable_bond_count <= 6.5\nmse = 185.994\nsamples = 5\nvalue = 466.41"] ;
1045 -> 1046 ;
1047 [label="h_bond_acceptor_count <= 7.0\nmse = 66.851\nsamples = 4\nvalue = 471.515"] ;
1046 -> 1047 ;
1048 [label="mse = 0.0\nsamples = 1\nvalue = 486.33"] ;
1047 -> 1048 ;
1049 [label="xlogp <= 3.3\nmse = 14.972\nsamples = 3\nvalue = 467.811"] ;
1047 -> 1049 ;
1050 [label="h_bond_donor_count <= 1.0\nmse = 3.371\nsamples = 2\nvalue = 469.847"] ;
1049 -> 1050 ;
1051 [label="mse = 0.0\nsamples = 1\nvalue = 472.444"] ;
1050 -> 1051 ;
1052 [label="mse = 0.0\nsamples = 1\nvalue = 468.549"] ;
1050 -> 1052 ;
1053 [label="mse = -0.0\nsamples = 1\nvalue = 461.701"] ;
1049 -> 1053 ;
1054 [label="mse = -0.0\nsamples = 1\nvalue = 440.887"] ;
1046 -> 1054 ;
1055 [label="mse = -0.0\nsamples = 1\nvalue = 412.494"] ;
1045 -> 1055 ;
1056 [label="exact_mass <= 454.19\nmse = 2993.227\nsamples = 19\nvalue = 384.525"] ;
880 -> 1056 ;
1057 [label="complexity <= 556.0\nmse = 2141.871\nsamples = 12\nvalue = 409.609"] ;
1056 -> 1057 ;
1058 [label="monoisotopic_mass <= 413.179\nmse = 226.746\nsamples = 2\nvalue = 321.505"] ;
1057 -> 1058 ;
1059 [label="mse = 0.0\nsamples = 1\nvalue = 332.153"] ;
1058 -> 1059 ;
1060 [label="mse = -0.0\nsamples = 1\nvalue = 300.21"] ;
1058 -> 1060 ;
1061 [label="molecular_weight <= 422.7\nmse = 772.645\nsamples = 10\nvalue = 426.128"] ;
1057 -> 1061 ;
1062 [label="atom_stereo_count <= 0.5\nmse = 197.15\nsamples = 3\nvalue = 385.947"] ;
1061 -> 1062 ;
1063 [label="complexity <= 654.0\nmse = 19.382\nsamples = 2\nvalue = 393.749"] ;
1062 -> 1063 ;
1064 [label="mse = 0.0\nsamples = 1\nvalue = 396.862"] ;
1063 -> 1064 ;
1065 [label="mse = 0.0\nsamples = 1\nvalue = 387.523"] ;
1063 -> 1065 ;
1066 [label="mse = 0.0\nsamples = 1\nvalue = 362.541"] ;
1062 -> 1066 ;
1067 [label="complexity <= 607.0\nmse = 246.902\nsamples = 7\nvalue = 439.522"] ;
1061 -> 1067 ;
1068 [label="h_bond_donor_count <= 3.5\nmse = 6.428\nsamples = 3\nvalue = 450.538"] ;
1067 -> 1068 ;
1069 [label="mse = 0.0\nsamples = 1\nvalue = 448.369"] ;
1068 -> 1069 ;
1070 [label="xlogp <= 2.45\nmse = 3.443\nsamples = 2\nvalue = 452.708"] ;
1068 -> 1070 ;
1071 [label="mse = 0.0\nsamples = 1\nvalue = 455.332"] ;
1070 -> 1071 ;
1072 [label="mse = 0.0\nsamples = 1\nvalue = 451.396"] ;
1070 -> 1072 ;
1073 [label="complexity <= 837.0\nmse = 244.656\nsamples = 4\nvalue = 428.506"] ;
1067 -> 1073 ;
1074 [label="tpsa <= 101.45\nmse = 81.5\nsamples = 3\nvalue = 418.751"] ;
1073 -> 1074 ;
1075 [label="mse = 0.0\nsamples = 1\nvalue = 404.073"] ;
1074 -> 1075 ;
1076 [label="monoisotopic_mass <= 425.664\nmse = 12.917\nsamples = 2\nvalue = 423.643"] ;
1074 -> 1076 ;
1077 [label="mse = 0.0\nsamples = 1\nvalue = 428.726"] ;
1076 -> 1077 ;
1078 [label="mse = 0.0\nsamples = 1\nvalue = 421.102"] ;
1076 -> 1078 ;
1079 [label="mse = -0.0\nsamples = 1\nvalue = 448.016"] ;
1073 -> 1079 ;
1080 [label="monoisotopic_mass <= 464.207\nmse = 2265.091\nsamples = 7\nvalue = 352.752"] ;
1056 -> 1080 ;
1081 [label="atom_stereo_count <= 0.5\nmse = 764.746\nsamples = 3\nvalue = 315.333"] ;
1080 -> 1081 ;
1082 [label="monoisotopic_mass <= 464.153\nmse = 260.589\nsamples = 2\nvalue = 281.99"] ;
1081 -> 1082 ;
1083 [label="mse = 0.0\nsamples = 1\nvalue = 293.405"] ;
1082 -> 1083 ;
1084 [label="mse = -0.0\nsamples = 1\nvalue = 259.161"] ;
1082 -> 1084 ;
1085 [label="mse = 0.0\nsamples = 1\nvalue = 335.338"] ;
1081 -> 1085 ;
1086 [label="exact_mass <= 466.189\nmse = 550.699\nsamples = 4\nvalue = 395.517"] ;
1080 -> 1086 ;
1087 [label="mse = 0.0\nsamples = 1\nvalue = 451.593"] ;
1086 -> 1087 ;
1088 [label="heavy_atom_count <= 33.5\nmse = 31.045\nsamples = 3\nvalue = 386.171"] ;
1086 -> 1088 ;
1089 [label="mse = 0.0\nsamples = 1\nvalue = 378.848"] ;
1088 -> 1089 ;
1090 [label="molecular_weight <= 477.25\nmse = 6.349\nsamples = 2\nvalue = 389.832"] ;
1088 -> 1090 ;
1091 [label="mse = 0.0\nsamples = 1\nvalue = 385.468"] ;
1090 -> 1091 ;
1092 [label="mse = 0.0\nsamples = 1\nvalue = 391.287"] ;
1090 -> 1092 ;
1093 [label="atom_stereo_count <= 4.5\nmse = 1339.489\nsamples = 12\nvalue = 500.567"] ;
879 -> 1093 ;
1094 [label="tpsa <= 168.0\nmse = 943.679\nsamples = 6\nvalue = 531.81"] ;
1093 -> 1094 ;
1095 [label="h_bond_acceptor_count <= 9.5\nmse = 443.252\nsamples = 4\nvalue = 543.112"] ;
1094 -> 1095 ;
1096 [label="exact_mass <= 440.136\nmse = 10.467\nsamples = 2\nvalue = 558.296"] ;
1095 -> 1096 ;
1097 [label="mse = 0.0\nsamples = 1\nvalue = 555.654"] ;
1096 -> 1097 ;
1098 [label="mse = -0.0\nsamples = 1\nvalue = 562.258"] ;
1096 -> 1098 ;
1099 [label="atom_stereo_count <= 2.0\nmse = 139.98\nsamples = 2\nvalue = 517.807"] ;
1095 -> 1099 ;
1100 [label="mse = 0.0\nsamples = 1\nvalue = 534.539"] ;
1099 -> 1100 ;
1101 [label="mse = 0.0\nsamples = 1\nvalue = 509.441"] ;
1099 -> 1101 ;
1102 [label="monoisotopic_mass <= 432.098\nmse = 390.379\nsamples = 2\nvalue = 486.599"] ;
1094 -> 1102 ;
1103 [label="mse = 0.0\nsamples = 1\nvalue = 466.841"] ;
1102 -> 1103 ;
1104 [label="mse = -0.0\nsamples = 1\nvalue = 506.357"] ;
1102 -> 1104 ;
1105 [label="xlogp <= 0.8\nmse = 518.794\nsamples = 6\nvalue = 479.738"] ;
1093 -> 1105 ;
1106 [label="xlogp <= -1.3\nmse = 169.096\nsamples = 4\nvalue = 493.972"] ;
1105 -> 1106 ;
1107 [label="xlogp <= -4.25\nmse = 1.34\nsamples = 2\nvalue = 513.68"] ;
1106 -> 1107 ;
1108 [label="mse = 0.0\nsamples = 1\nvalue = 515.317"] ;
1107 -> 1108 ;
1109 [label="mse = 0.0\nsamples = 1\nvalue = 512.861"] ;
1107 -> 1109 ;
1110 [label="atom_stereo_count <= 8.0\nmse = 3.187\nsamples = 2\nvalue = 485.525"] ;
1106 -> 1110 ;
1111 [label="mse = 0.0\nsamples = 1\nvalue = 481.152"] ;
1110 -> 1111 ;
1112 [label="mse = -0.0\nsamples = 1\nvalue = 486.254"] ;
1110 -> 1112 ;
1113 [label="complexity <= 628.0\nmse = 2.705\nsamples = 2\nvalue = 451.272"] ;
1105 -> 1113 ;
1114 [label="mse = -0.0\nsamples = 1\nvalue = 452.615"] ;
1113 -> 1114 ;
1115 [label="mse = 0.0\nsamples = 1\nvalue = 449.258"] ;
1113 -> 1115 ;
1116 [label="rotable_bond_count <= 6.5\nmse = 1267.835\nsamples = 15\nvalue = 502.106"] ;
878 -> 1116 ;
1117 [label="molecular_weight <= 392.0\nmse = 723.593\nsamples = 13\nvalue = 491.384"] ;
1116 -> 1117 ;
1118 [label="mse = 0.0\nsamples = 1\nvalue = 417.612"] ;
1117 -> 1118 ;
1119 [label="monoisotopic_mass <= 441.097\nmse = 486.551\nsamples = 12\nvalue = 494.897"] ;
1117 -> 1119 ;
1120 [label="molecular_weight <= 412.65\nmse = 376.142\nsamples = 6\nvalue = 504.698"] ;
1119 -> 1120 ;
1121 [label="complexity <= 701.5\nmse = 42.797\nsamples = 3\nvalue = 486.339"] ;
1120 -> 1121 ;
1122 [label="bond_stereo_count <= 0.5\nmse = 0.272\nsamples = 2\nvalue = 490.955"] ;
1121 -> 1122 ;
1123 [label="mse = 0.0\nsamples = 1\nvalue = 491.477"] ;
1122 -> 1123 ;
1124 [label="mse = -0.0\nsamples = 1\nvalue = 490.433"] ;
1122 -> 1124 ;
1125 [label="mse = 0.0\nsamples = 1\nvalue = 477.107"] ;
1121 -> 1125 ;
1126 [label="complexity <= 652.5\nmse = 125.338\nsamples = 3\nvalue = 520.434"] ;
1120 -> 1126 ;
1127 [label="mse = 0.0\nsamples = 1\nvalue = 495.874"] ;
1126 -> 1127 ;
1128 [label="atom_stereo_count <= 4.5\nmse = 28.939\nsamples = 2\nvalue = 524.527"] ;
1126 -> 1128 ;
1129 [label="mse = 0.0\nsamples = 1\nvalue = 529.907"] ;
1128 -> 1129 ;
1130 [label="mse = -0.0\nsamples = 1\nvalue = 519.148"] ;
1128 -> 1130 ;
1131 [label="tpsa <= 53.85\nmse = 256.218\nsamples = 6\nvalue = 478.971"] ;
1119 -> 1131 ;
1132 [label="mse = 0.0\nsamples = 1\nvalue = 446.636"] ;
1131 -> 1132 ;
1133 [label="complexity <= 867.5\nmse = 122.123\nsamples = 5\nvalue = 483.59"] ;
1131 -> 1133 ;
1134 [label="complexity <= 691.5\nmse = 57.195\nsamples = 4\nvalue = 487.08"] ;
1133 -> 1134 ;
1135 [label="xlogp <= 6.25\nmse = 11.218\nsamples = 2\nvalue = 482.174"] ;
1134 -> 1135 ;
1136 [label="mse = 0.0\nsamples = 1\nvalue = 476.373"] ;
1135 -> 1136 ;
1137 [label="mse = 0.0\nsamples = 1\nvalue = 484.108"] ;
1135 -> 1137 ;
1138 [label="exact_mass <= 450.795\nmse = 4.739\nsamples = 2\nvalue = 496.892"] ;
1134 -> 1138 ;
1139 [label="mse = 0.0\nsamples = 1\nvalue = 494.715"] ;
1138 -> 1139 ;
1140 [label="mse = -0.0\nsamples = 1\nvalue = 499.069"] ;
1138 -> 1140 ;
1141 [label="mse = 0.0\nsamples = 1\nvalue = 462.647"] ;
1133 -> 1141 ;
1142 [label="monoisotopic_mass <= 462.063\nmse = 151.069\nsamples = 2\nvalue = 561.079"] ;
1116 -> 1142 ;
1143 [label="mse = 0.0\nsamples = 1\nvalue = 573.37"] ;
1142 -> 1143 ;
1144 [label="mse = 0.0\nsamples = 1\nvalue = 548.788"] ;
1142 -> 1144 ;
1145 [label="tpsa <= 114.5\nmse = 11831.717\nsamples = 70\nvalue = 384.536"] ;
877 -> 1145 ;
1146 [label="exact_mass <= 490.264\nmse = 4527.606\nsamples = 37\nvalue = 440.731"] ;
1145 -> 1146 ;
1147 [label="mse = 0.0\nsamples = 1\nvalue = 218.836"] ;
1146 -> 1147 ;
1148 [label="complexity <= 1105.0\nmse = 3613.712\nsamples = 36\nvalue = 445.169"] ;
1146 -> 1148 ;
1149 [label="complexity <= 816.5\nmse = 2875.476\nsamples = 31\nvalue = 454.436"] ;
1148 -> 1149 ;
1150 [label="complexity <= 807.0\nmse = 3853.773\nsamples = 11\nvalue = 411.601"] ;
1149 -> 1150 ;
1151 [label="rotable_bond_count <= 5.5\nmse = 1173.865\nsamples = 10\nvalue = 432.491"] ;
1150 -> 1151 ;
1152 [label="molecular_weight <= 506.5\nmse = 272.052\nsamples = 2\nvalue = 378.007"] ;
1151 -> 1152 ;
1153 [label="mse = 0.0\nsamples = 1\nvalue = 394.501"] ;
1152 -> 1153 ;
1154 [label="mse = 0.0\nsamples = 1\nvalue = 361.513"] ;
1152 -> 1154 ;
1155 [label="tpsa <= 97.25\nmse = 699.98\nsamples = 8\nvalue = 442.397"] ;
1151 -> 1155 ;
1156 [label="h_bond_acceptor_count <= 5.5\nmse = 455.758\nsamples = 6\nvalue = 433.883"] ;
1155 -> 1156 ;
1157 [label="monoisotopic_mass <= 502.688\nmse = 7.133\nsamples = 2\nvalue = 412.022"] ;
1156 -> 1157 ;
1158 [label="mse = 0.0\nsamples = 1\nvalue = 413.564"] ;
1157 -> 1158 ;
1159 [label="mse = 0.0\nsamples = 1\nvalue = 407.396"] ;
1157 -> 1159 ;
1160 [label="monoisotopic_mass <= 532.684\nmse = 126.476\nsamples = 4\nvalue = 451.372"] ;
1156 -> 1160 ;
1161 [label="complexity <= 695.5\nmse = 7.109\nsamples = 3\nvalue = 456.867"] ;
1160 -> 1161 ;
1162 [label="mse = 0.0\nsamples = 1\nvalue = 454.366"] ;
1161 -> 1162 ;
1163 [label="heavy_atom_count <= 37.5\nmse = 1.708\nsamples = 2\nvalue = 459.368"] ;
1161 -> 1163 ;
1164 [label="mse = 0.0\nsamples = 1\nvalue = 460.675"] ;
1163 -> 1164 ;
1165 [label="mse = 0.0\nsamples = 1\nvalue = 458.061"] ;
1163 -> 1165 ;
1166 [label="mse = 0.0\nsamples = 1\nvalue = 429.391"] ;
1160 -> 1166 ;
1167 [label="h_bond_donor_count <= 1.5\nmse = 5.054\nsamples = 2\nvalue = 480.708"] ;
1155 -> 1167 ;
1168 [label="mse = 0.0\nsamples = 1\nvalue = 482.956"] ;
1167 -> 1168 ;
1169 [label="mse = 0.0\nsamples = 1\nvalue = 478.46"] ;
1167 -> 1169 ;
1170 [label="mse = -0.0\nsamples = 1\nvalue = 275.819"] ;
1150 -> 1170 ;
1171 [label="h_bond_acceptor_count <= 5.5\nmse = 929.506\nsamples = 20\nvalue = 476.592"] ;
1149 -> 1171 ;
1172 [label="covalent_unit_count <= 1.5\nmse = 1700.952\nsamples = 4\nvalue = 437.596"] ;
1171 -> 1172 ;
1173 [label="rotable_bond_count <= 5.5\nmse = 273.688\nsamples = 3\nvalue = 415.267"] ;
1172 -> 1173 ;
1174 [label="mse = 0.0\nsamples = 1\nvalue = 437.395"] ;
1173 -> 1174 ;
1175 [label="h_bond_acceptor_count <= 4.5\nmse = 43.296\nsamples = 2\nvalue = 404.203"] ;
1173 -> 1175 ;
1176 [label="mse = 0.0\nsamples = 1\nvalue = 397.623"] ;
1175 -> 1176 ;
1177 [label="mse = -0.0\nsamples = 1\nvalue = 410.783"] ;
1175 -> 1177 ;
1178 [label="mse = -0.0\nsamples = 1\nvalue = 504.581"] ;
1172 -> 1178 ;
1179 [label="molecular_weight <= 509.95\nmse = 523.824\nsamples = 16\nvalue = 482.832"] ;
1171 -> 1179 ;
1180 [label="rotable_bond_count <= 6.5\nmse = 64.358\nsamples = 3\nvalue = 462.572"] ;
1179 -> 1180 ;
1181 [label="heavy_atom_count <= 34.5\nmse = 29.508\nsamples = 2\nvalue = 465.764"] ;
1180 -> 1181 ;
1182 [label="mse = 0.0\nsamples = 1\nvalue = 475.173"] ;
1181 -> 1182 ;
1183 [label="mse = -0.0\nsamples = 1\nvalue = 462.628"] ;
1181 -> 1183 ;
1184 [label="mse = 0.0\nsamples = 1\nvalue = 449.805"] ;
1180 -> 1184 ;
1185 [label="exact_mass <= 538.746\nmse = 510.427\nsamples = 13\nvalue = 487.897"] ;
1179 -> 1185 ;
1186 [label="complexity <= 915.5\nmse = 17.222\nsamples = 4\nvalue = 510.031"] ;
1185 -> 1186 ;
1187 [label="molecular_weight <= 521.2\nmse = 2.757\nsamples = 2\nvalue = 513.807"] ;
1186 -> 1187 ;
1188 [label="mse = 0.0\nsamples = 1\nvalue = 516.155"] ;
1187 -> 1188 ;
1189 [label="mse = 0.0\nsamples = 1\nvalue = 512.633"] ;
1187 -> 1189 ;
1190 [label="exact_mass <= 529.25\nmse = 3.168\nsamples = 2\nvalue = 506.255"] ;
1186 -> 1190 ;
1191 [label="mse = 0.0\nsamples = 1\nvalue = 508.772"] ;
1190 -> 1191 ;
1192 [label="mse = 0.0\nsamples = 1\nvalue = 504.996"] ;
1190 -> 1192 ;
1193 [label="tpsa <= 52.95\nmse = 421.847\nsamples = 9\nvalue = 478.41"] ;
1185 -> 1193 ;
1194 [label="mse = -0.0\nsamples = 1\nvalue = 508.837"] ;
1193 -> 1194 ;
1195 [label="complexity <= 994.5\nmse = 215.554\nsamples = 8\nvalue = 470.112"] ;
1193 -> 1195 ;
1196 [label="monoisotopic_mass <= 551.724\nmse = 43.728\nsamples = 6\nvalue = 476.394"] ;
1195 -> 1196 ;
1197 [label="mse = 0.0\nsamples = 1\nvalue = 490.989"] ;
1196 -> 1197 ;
1198 [label="molecular_weight <= 585.6\nmse = 15.199\nsamples = 5\nvalue = 474.309"] ;
1196 -> 1198 ;
1199 [label="xlogp <= 5.4\nmse = 2.429\nsamples = 2\nvalue = 477.126"] ;
1198 -> 1199 ;
1200 [label="mse = 0.0\nsamples = 1\nvalue = 478.685"] ;
1199 -> 1200 ;
1201 [label="mse = 0.0\nsamples = 1\nvalue = 475.568"] ;
1199 -> 1201 ;
1202 [label="atom_stereo_count <= 6.0\nmse = 7.536\nsamples = 3\nvalue = 470.553"] ;
1198 -> 1202 ;
1203 [label="monoisotopic_mass <= 611.236\nmse = 0.316\nsamples = 2\nvalue = 468.64"] ;
1202 -> 1203 ;
1204 [label="mse = 0.0\nsamples = 1\nvalue = 468.077"] ;
1203 -> 1204 ;
1205 [label="mse = 0.0\nsamples = 1\nvalue = 469.202"] ;
1203 -> 1205 ;
1206 [label="mse = 0.0\nsamples = 1\nvalue = 474.381"] ;
1202 -> 1206 ;
