digraph Tree {
node [shape=box] ;
0 [label="heavy_atom_count <= 23.5\nmse = 981.651\nsamples = 798\nvalue = [[74.737]\n[78.301]\n[62.499]\n[78.331]\n[76.43]\n[72.463]]"] ;
1 [label="xlogp <= 1.65\nmse = 717.134\nsamples = 266\nvalue = [[86.843]\n[88.962]\n[77.206]\n[84.643]\n[83.903]\n[79.101]]"] ;
0 -> 1 [labeldistance=2.5, labelangle=45, headlabel="True"] ;
2 [label="exact_mass <= 89.035\nmse = 672.249\nsamples = 144\nvalue = [[93.991]\n[93.185]\n[83.882]\n[87.455]\n[87.971]\n[83.895]]"] ;
1 -> 2 ;
3 [label="mse = 0.0\nsamples = 1\nvalue = [[10.098]\n[19.897]\n[5.473]\n[25.799]\n[39.037]\n[36.349]]"] ;
2 -> 3 ;
4 [label="complexity <= 334.5\nmse = 636.4\nsamples = 143\nvalue = [[94.768]\n[93.863]\n[84.608]\n[88.026]\n[88.424]\n[84.335]]"] ;
2 -> 4 ;
5 [label="rotable_bond_count <= 0.5\nmse = 418.039\nsamples = 77\nvalue = [[100.357]\n[97.412]\n[87.774]\n[90.348]\n[94.389]\n[89.837]]"] ;
4 -> 5 ;
6 [label="atom_stereo_count <= 2.5\nmse = 948.255\nsamples = 11\nvalue = [[88.302]\n[86.205]\n[59.103]\n[77.15]\n[83.993]\n[79.508]]"] ;
5 -> 6 ;
7 [label="tpsa <= 80.9\nmse = 382.167\nsamples = 9\nvalue = [[101.921]\n[98.34]\n[68.351]\n[81.693]\n[89.641]\n[85.675]]"] ;
6 -> 7 ;
8 [label="tpsa <= 38.9\nmse = 249.04\nsamples = 8\nvalue = [[102.331]\n[97.617]\n[75.351]\n[74.879]\n[98.904]\n[90.931]]"] ;
7 -> 8 ;
9 [label="mse = -0.0\nsamples = 1\nvalue = [[118.514]\n[101.187]\n[87.317]\n[54.771]\n[60.017]\n[54.929]]"] ;
8 -> 9 ;
10 [label="tpsa <= 61.95\nmse = 202.01\nsamples = 7\nvalue = [[100.533]\n[97.221]\n[74.022]\n[77.113]\n[103.224]\n[94.932]]"] ;
8 -> 10 ;
11 [label="complexity <= 90.55\nmse = 183.805\nsamples = 3\nvalue = [[97.065]\n[96.685]\n[50.333]\n[76.932]\n[110.697]\n[99.676]]"] ;
10 -> 11 ;
12 [label="mse = 0.0\nsamples = 1\nvalue = [[109.626]\n[105.62]\n[54.811]\n[119.405]\n[110.964]\n[107.673]]"] ;
11 -> 12 ;
13 [label="complexity <= 161.5\nmse = 87.621\nsamples = 2\nvalue = [[92.878]\n[93.707]\n[48.84]\n[62.775]\n[110.608]\n[97.011]]"] ;
11 -> 13 ;
14 [label="mse = 0.0\nsamples = 1\nvalue = [[106.834]\n[97.752]\n[54.059]\n[66.716]\n[112.705]\n[94.871]]"] ;
13 -> 14 ;
15 [label="mse = 0.0\nsamples = 1\nvalue = [[64.967]\n[85.618]\n[38.403]\n[54.892]\n[106.414]\n[101.29]]"] ;
13 -> 15 ;
16 [label="xlogp <= 0.05\nmse = 60.13\nsamples = 4\nvalue = [[103.306]\n[97.649]\n[92.973]\n[77.258]\n[97.246]\n[91.136]]"] ;
10 -> 16 ;
17 [label="complexity <= 179.5\nmse = 42.831\nsamples = 3\nvalue = [[103.882]\n[99.609]\n[95.979]\n[76.315]\n[99.47]\n[95.58]]"] ;
16 -> 17 ;
18 [label="covalent_unit_count <= 2.5\nmse = 34.415\nsamples = 2\nvalue = [[109.706]\n[107.126]\n[94.2]\n[80.476]\n[105.57]\n[93.212]]"] ;
17 -> 18 ;
19 [label="mse = 0.0\nsamples = 1\nvalue = [[112.975]\n[105.633]\n[100.9]\n[77.839]\n[108.711]\n[81.728]]"] ;
18 -> 19 ;
20 [label="mse = 0.0\nsamples = 1\nvalue = [[106.438]\n[108.62]\n[87.501]\n[83.114]\n[102.429]\n[104.695]]"] ;
18 -> 20 ;
21 [label="mse = 0.0\nsamples = 1\nvalue = [[98.057]\n[92.092]\n[97.758]\n[72.154]\n[93.369]\n[97.949]]"] ;
17 -> 21 ;
22 [label="mse = 0.0\nsamples = 1\nvalue = [[101.005]\n[89.808]\n[80.946]\n[81.029]\n[88.354]\n[73.358]]"] ;
16 -> 22 ;
23 [label="mse = -0.0\nsamples = 1\nvalue = [[99.872]\n[101.954]\n[33.348]\n[115.766]\n[43.327]\n[59.395]]"] ;
7 -> 23 ;
24 [label="h_bond_donor_count <= 0.5\nmse = 782.828\nsamples = 2\nvalue = [[6.586]\n[13.392]\n[3.617]\n[49.887]\n[50.103]\n[42.508]]"] ;
6 -> 24 ;
25 [label="mse = -0.0\nsamples = 1\nvalue = [[6.792]\n[23.536]\n[4.345]\n[7.698]\n[9.4]\n[8.495]]"] ;
24 -> 25 ;
26 [label="mse = 0.0\nsamples = 1\nvalue = [[6.38]\n[3.248]\n[2.89]\n[92.076]\n[90.806]\n[76.52]]"] ;
24 -> 26 ;
27 [label="complexity <= 80.9\nmse = 306.712\nsamples = 66\nvalue = [[102.012]\n[98.95]\n[91.709]\n[92.16]\n[95.816]\n[91.255]]"] ;
5 -> 27 ;
28 [label="mse = 0.0\nsamples = 1\nvalue = [[104.702]\n[104.099]\n[99.472]\n[14.265]\n[95.041]\n[5.166]]"] ;
27 -> 28 ;
29 [label="rotable_bond_count <= 7.5\nmse = 287.128\nsamples = 65\nvalue = [[101.985]\n[98.899]\n[91.632]\n[92.931]\n[95.824]\n[92.108]]"] ;
27 -> 29 ;
30 [label="complexity <= 327.5\nmse = 241.658\nsamples = 62\nvalue = [[102.855]\n[99.525]\n[93.056]\n[93.155]\n[96.293]\n[92.381]]"] ;
29 -> 30 ;
31 [label="tpsa <= 102.0\nmse = 238.658\nsamples = 57\nvalue = [[102.506]\n[98.973]\n[93.711]\n[90.501]\n[94.979]\n[90.812]]"] ;
30 -> 31 ;
32 [label="h_bond_donor_count <= 3.5\nmse = 225.295\nsamples = 38\nvalue = [[105.231]\n[101.16]\n[95.299]\n[86.793]\n[95.581]\n[91.667]]"] ;
31 -> 32 ;
33 [label="rotable_bond_count <= 5.5\nmse = 210.17\nsamples = 37\nvalue = [[105.706]\n[101.215]\n[95.424]\n[87.065]\n[96.52]\n[92.5]]"] ;
32 -> 33 ;
34 [label="h_bond_acceptor_count <= 3.5\nmse = 205.971\nsamples = 32\nvalue = [[105.765]\n[100.622]\n[94.446]\n[90.725]\n[96.84]\n[91.979]]"] ;
33 -> 34 ;
35 [label="h_bond_donor_count <= 0.5\nmse = 214.767\nsamples = 19\nvalue = [[104.884]\n[99.721]\n[92.367]\n[85.307]\n[93.381]\n[87.702]]"] ;
34 -> 35 ;
36 [label="mse = 0.0\nsamples = 1\nvalue = [[102.793]\n[101.492]\n[88.044]\n[124.833]\n[72.531]\n[66.931]]"] ;
35 -> 36 ;
37 [label="xlogp <= -1.0\nmse = 191.242\nsamples = 18\nvalue = [[105.093]\n[99.544]\n[92.799]\n[81.354]\n[95.466]\n[89.779]]"] ;
35 -> 37 ;
38 [label="molecular_weight <= 191.21\nmse = 83.487\nsamples = 2\nvalue = [[104.267]\n[102.777]\n[95.461]\n[47.342]\n[107.567]\n[92.073]]"] ;
37 -> 38 ;
39 [label="mse = -0.0\nsamples = 1\nvalue = [[110.876]\n[104.469]\n[91.329]\n[52.006]\n[113.49]\n[103.476]]"] ;
38 -> 39 ;
40 [label="mse = -0.0\nsamples = 1\nvalue = [[91.05]\n[99.393]\n[103.726]\n[38.015]\n[95.722]\n[69.268]]"] ;
38 -> 40 ;
41 [label="complexity <= 117.0\nmse = 175.916\nsamples = 16\nvalue = [[105.185]\n[99.185]\n[92.503]\n[85.133]\n[94.122]\n[89.524]]"] ;
37 -> 41 ;
42 [label="mse = -0.0\nsamples = 1\nvalue = [[113.029]\n[102.296]\n[98.754]\n[29.541]\n[96.491]\n[73.2]]"] ;
41 -> 42 ;
43 [label="complexity <= 220.5\nmse = 159.564\nsamples = 15\nvalue = [[104.883]\n[99.065]\n[92.263]\n[87.271]\n[94.031]\n[90.152]]"] ;
41 -> 43 ;
44 [label="complexity <= 207.0\nmse = 218.458\nsamples = 5\nvalue = [[102.391]\n[85.298]\n[87.383]\n[94.838]\n[93.801]\n[90.587]]"] ;
43 -> 44 ;
45 [label="xlogp <= 0.45\nmse = 131.107\nsamples = 4\nvalue = [[102.862]\n[99.685]\n[83.817]\n[98.407]\n[95.056]\n[88.13]]"] ;
44 -> 45 ;
46 [label="molecular_weight <= 210.205\nmse = 28.731\nsamples = 3\nvalue = [[104.11]\n[95.818]\n[97.982]\n[89.529]\n[95.402]\n[94.435]]"] ;
45 -> 46 ;
47 [label="tpsa <= 60.15\nmse = 9.829\nsamples = 2\nvalue = [[105.442]\n[95.889]\n[101.288]\n[93.905]\n[98.605]\n[95.209]]"] ;
46 -> 47 ;
48 [label="mse = -0.0\nsamples = 1\nvalue = [[100.412]\n[99.808]\n[101.438]\n[88.587]\n[92.635]\n[91.556]]"] ;
47 -> 48 ;
49 [label="mse = 0.0\nsamples = 1\nvalue = [[107.957]\n[93.929]\n[101.213]\n[96.564]\n[101.59]\n[97.036]]"] ;
47 -> 49 ;
50 [label="mse = 0.0\nsamples = 1\nvalue = [[100.116]\n[95.606]\n[88.064]\n[76.401]\n[85.792]\n[92.113]]"] ;
46 -> 50 ;
51 [label="mse = -0.0\nsamples = 1\nvalue = [[100.365]\n[107.418]\n[55.486]\n[116.164]\n[94.364]\n[75.521]]"] ;
45 -> 51 ;
52 [label="mse = 0.0\nsamples = 1\nvalue = [[100.978]\n[42.14]\n[98.084]\n[84.13]\n[90.036]\n[97.956]]"] ;
44 -> 52 ;
53 [label="rotable_bond_count <= 1.5\nmse = 103.747\nsamples = 10\nvalue = [[105.991]\n[105.183]\n[94.431]\n[83.908]\n[94.133]\n[89.958]]"] ;
43 -> 53 ;
54 [label="mse = 0.0\nsamples = 1\nvalue = [[111.628]\n[113.379]\n[95.584]\n[58.128]\n[112.863]\n[98.923]]"] ;
53 -> 54 ;
55 [label="tpsa <= 26.85\nmse = 88.682\nsamples = 9\nvalue = [[105.286]\n[104.159]\n[94.287]\n[87.131]\n[91.791]\n[88.837]]"] ;
53 -> 55 ;
56 [label="exact_mass <= 297.661\nmse = 71.876\nsamples = 2\nvalue = [[106.22]\n[102.649]\n[95.112]\n[62.914]\n[95.964]\n[91.066]]"] ;
55 -> 56 ;
57 [label="mse = 0.0\nsamples = 1\nvalue = [[104.874]\n[100.744]\n[100.387]\n[35.384]\n[97.291]\n[82.724]]"] ;
56 -> 57 ;
58 [label="mse = 0.0\nsamples = 1\nvalue = [[106.893]\n[103.602]\n[92.475]\n[76.679]\n[95.3]\n[95.237]]"] ;
56 -> 58 ;
59 [label="monoisotopic_mass <= 199.534\nmse = 63.559\nsamples = 7\nvalue = [[105.07]\n[104.507]\n[94.097]\n[92.719]\n[90.829]\n[88.323]]"] ;
55 -> 59 ;
60 [label="mse = 0.0\nsamples = 1\nvalue = [[107.58]\n[109.441]\n[98.442]\n[78.501]\n[65.124]\n[59.256]]"] ;
59 -> 60 ;
61 [label="h_bond_donor_count <= 1.5\nmse = 42.414\nsamples = 6\nvalue = [[104.861]\n[104.096]\n[93.735]\n[93.904]\n[92.971]\n[90.746]]"] ;
59 -> 61 ;
62 [label="xlogp <= 0.7\nmse = 68.886\nsamples = 2\nvalue = [[111.415]\n[99.829]\n[97.839]\n[95.04]\n[80.255]\n[85.645]]"] ;
61 -> 62 ;
63 [label="mse = 0.0\nsamples = 1\nvalue = [[109.199]\n[107.602]\n[105.632]\n[106.595]\n[56.574]\n[88.142]]"] ;
62 -> 63 ;
64 [label="mse = 0.0\nsamples = 1\nvalue = [[112.523]\n[95.943]\n[93.942]\n[89.262]\n[92.096]\n[84.396]]"] ;
62 -> 64 ;
65 [label="molecular_weight <= 275.095\nmse = 13.814\nsamples = 4\nvalue = [[102.677]\n[105.518]\n[92.367]\n[93.526]\n[97.209]\n[92.446]]"] ;
61 -> 65 ;
66 [label="heavy_atom_count <= 15.0\nmse = 7.272\nsamples = 2\nvalue = [[105.615]\n[105.1]\n[91.428]\n[97.587]\n[98.453]\n[93.941]]"] ;
65 -> 66 ;
67 [label="mse = -0.0\nsamples = 1\nvalue = [[101.462]\n[109.952]\n[88.113]\n[100.009]\n[100.254]\n[96.079]]"] ;
66 -> 67 ;
68 [label="mse = 0.0\nsamples = 1\nvalue = [[108.383]\n[101.866]\n[93.638]\n[95.973]\n[97.253]\n[92.516]]"] ;
66 -> 68 ;
69 [label="molecular_weight <= 363.245\nmse = 7.944\nsamples = 2\nvalue = [[99.004]\n[106.041]\n[93.54]\n[88.449]\n[95.654]\n[90.577]]"] ;
65 -> 69 ;
70 [label="mse = -0.0\nsamples = 1\nvalue = [[100.239]\n[99.308]\n[90.219]\n[79.247]\n[95.481]\n[89.936]]"] ;
69 -> 70 ;
71 [label="mse = 0.0\nsamples = 1\nvalue = [[98.593]\n[108.285]\n[94.647]\n[91.516]\n[95.711]\n[90.79]]"] ;
69 -> 71 ;
72 [label="xlogp <= -2.45\nmse = 138.772\nsamples = 13\nvalue = [[107.295]\n[102.187]\n[98.058]\n[100.136]\n[102.848]\n[99.409]]"] ;
34 -> 72 ;
73 [label="rotable_bond_count <= 3.0\nmse = 101.267\nsamples = 2\nvalue = [[115.339]\n[104.592]\n[94.99]\n[65.404]\n[102.131]\n[99.796]]"] ;
72 -> 73 ;
74 [label="mse = 0.0\nsamples = 1\nvalue = [[106.506]\n[105.765]\n[103.459]\n[94.452]\n[110.567]\n[112.007]]"] ;
73 -> 74 ;
75 [label="mse = -0.0\nsamples = 1\nvalue = [[119.756]\n[104.005]\n[90.755]\n[50.88]\n[97.913]\n[93.69]]"] ;
73 -> 75 ;
76 [label="xlogp <= 0.2\nmse = 98.05\nsamples = 11\nvalue = [[105.786]\n[101.736]\n[98.633]\n[106.648]\n[102.983]\n[99.337]]"] ;
72 -> 76 ;
77 [label="rotable_bond_count <= 1.5\nmse = 55.887\nsamples = 5\nvalue = [[107.18]\n[106.705]\n[103.394]\n[111.995]\n[102.763]\n[98.689]]"] ;
76 -> 77 ;
78 [label="tpsa <= 85.55\nmse = 8.84\nsamples = 2\nvalue = [[108.766]\n[104.788]\n[101.741]\n[96.692]\n[97.728]\n[91.378]]"] ;
77 -> 78 ;
79 [label="mse = 0.0\nsamples = 1\nvalue = [[106.776]\n[106.498]\n[103.563]\n[92.744]\n[96.88]\n[91.272]]"] ;
78 -> 79 ;
80 [label="mse = 0.0\nsamples = 1\nvalue = [[112.746]\n[101.368]\n[98.097]\n[104.588]\n[99.424]\n[91.59]]"] ;
78 -> 80 ;
81 [label="heavy_atom_count <= 13.0\nmse = 39.172\nsamples = 3\nvalue = [[106.387]\n[107.663]\n[104.22]\n[119.647]\n[105.28]\n[102.345]]"] ;
77 -> 81 ;
82 [label="mse = -0.0\nsamples = 1\nvalue = [[111.069]\n[110.067]\n[96.127]\n[125.043]\n[112.797]\n[93.115]]"] ;
81 -> 82 ;
83 [label="molecular_weight <= 323.655\nmse = 25.756\nsamples = 2\nvalue = [[104.046]\n[106.461]\n[108.267]\n[116.949]\n[101.522]\n[106.96]]"] ;
81 -> 83 ;
84 [label="mse = 0.0\nsamples = 1\nvalue = [[101.809]\n[106.626]\n[111.061]\n[112.812]\n[97.831]\n[109.778]]"] ;
83 -> 84 ;
85 [label="mse = 0.0\nsamples = 1\nvalue = [[110.756]\n[105.965]\n[99.885]\n[129.359]\n[112.593]\n[98.505]]"] ;
83 -> 85 ;
86 [label="heavy_atom_count <= 11.5\nmse = 113.882\nsamples = 6\nvalue = [[103.995]\n[95.348]\n[92.513]\n[99.773]\n[103.266]\n[100.17]]"] ;
76 -> 86 ;
87 [label="mse = 0.0\nsamples = 1\nvalue = [[85.796]\n[90.755]\n[56.758]\n[85.469]\n[92.258]\n[97.747]]"] ;
86 -> 87 ;
88 [label="complexity <= 256.5\nmse = 69.269\nsamples = 5\nvalue = [[107.028]\n[96.114]\n[98.472]\n[102.156]\n[105.1]\n[100.574]]"] ;
86 -> 88 ;
89 [label="xlogp <= 1.25\nmse = 37.5\nsamples = 4\nvalue = [[108.178]\n[101.55]\n[99.886]\n[104.358]\n[107.873]\n[100.114]]"] ;
88 -> 89 ;
90 [label="xlogp <= 1.0\nmse = 30.22\nsamples = 2\nvalue = [[116.989]\n[100.666]\n[101.791]\n[114.262]\n[110.249]\n[100.971]]"] ;
89 -> 90 ;
91 [label="mse = 0.0\nsamples = 1\nvalue = [[123.257]\n[100.521]\n[103.0]\n[107.564]\n[113.94]\n[110.03]]"] ;
90 -> 91 ;
92 [label="mse = -0.0\nsamples = 1\nvalue = [[110.722]\n[100.811]\n[100.581]\n[120.96]\n[106.558]\n[91.912]]"] ;
90 -> 92 ;
93 [label="complexity <= 212.5\nmse = 7.811\nsamples = 2\nvalue = [[102.304]\n[102.14]\n[98.617]\n[97.755]\n[106.289]\n[99.543]]"] ;
89 -> 93 ;
94 [label="mse = 0.0\nsamples = 1\nvalue = [[100.531]\n[101.976]\n[100.331]\n[98.183]\n[103.395]\n[96.582]]"] ;
93 -> 94 ;
95 [label="mse = -0.0\nsamples = 1\nvalue = [[105.849]\n[102.468]\n[95.188]\n[96.898]\n[112.077]\n[105.464]]"] ;
93 -> 95 ;
96 [label="mse = 0.0\nsamples = 1\nvalue = [[101.276]\n[68.932]\n[91.399]\n[91.151]\n[91.236]\n[102.872]]"] ;
88 -> 96 ;
97 [label="tpsa <= 15.95\nmse = 84.016\nsamples = 5\nvalue = [[105.271]\n[105.623]\n[102.689]\n[59.88]\n[94.141]\n[96.37]]"] ;
33 -> 97 ;
98 [label="mse = 0.0\nsamples = 1\nvalue = [[101.962]\n[107.282]\n[103.427]\n[101.781]\n[97.376]\n[90.868]]"] ;
97 -> 98 ;
99 [label="h_bond_acceptor_count <= 3.5\nmse = 39.339\nsamples = 4\nvalue = [[105.822]\n[105.346]\n[102.566]\n[52.896]\n[93.602]\n[97.287]]"] ;
97 -> 99 ;
100 [label="atom_stereo_count <= 0.5\nmse = 31.911\nsamples = 2\nvalue = [[103.052]\n[103.836]\n[100.406]\n[58.317]\n[78.994]\n[96.163]]"] ;
99 -> 100 ;
101 [label="mse = 0.0\nsamples = 1\nvalue = [[105.153]\n[99.568]\n[94.304]\n[55.349]\n[89.151]\n[91.735]]"] ;
100 -> 101 ;
102 [label="mse = 0.0\nsamples = 1\nvalue = [[100.951]\n[108.105]\n[106.509]\n[61.286]\n[68.836]\n[100.591]]"] ;
100 -> 102 ;
103 [label="molecular_weight <= 240.77\nmse = 10.719\nsamples = 2\nvalue = [[107.207]\n[106.101]\n[103.646]\n[50.186]\n[100.906]\n[97.849]]"] ;
99 -> 103 ;
104 [label="mse = 0.0\nsamples = 1\nvalue = [[105.151]\n[105.773]\n[104.39]\n[46.302]\n[99.696]\n[97.839]]"] ;
103 -> 104 ;
105 [label="mse = 0.0\nsamples = 1\nvalue = [[113.376]\n[107.086]\n[101.413]\n[61.838]\n[104.535]\n[97.879]]"] ;
103 -> 105 ;
106 [label="mse = -0.0\nsamples = 1\nvalue = [[77.198]\n[97.878]\n[87.94]\n[70.693]\n[40.188]\n[42.515]]"] ;
32 -> 106 ;
107 [label="tpsa <= 103.5\nmse = 230.505\nsamples = 19\nvalue = [[95.966]\n[93.726]\n[89.899]\n[99.401]\n[93.534]\n[88.758]]"] ;
31 -> 107 ;
108 [label="mse = -0.0\nsamples = 1\nvalue = [[45.297]\n[20.838]\n[62.025]\n[83.025]\n[84.566]\n[73.366]]"] ;
107 -> 108 ;
109 [label="complexity <= 288.0\nmse = 173.252\nsamples = 18\nvalue = [[98.077]\n[96.762]\n[91.06]\n[100.084]\n[93.908]\n[89.399]]"] ;
107 -> 109 ;
110 [label="xlogp <= -0.05\nmse = 118.088\nsamples = 11\nvalue = [[101.765]\n[97.281]\n[97.268]\n[99.364]\n[89.567]\n[84.986]]"] ;
109 -> 110 ;
111 [label="h_bond_donor_count <= 4.5\nmse = 113.578\nsamples = 7\nvalue = [[102.447]\n[100.144]\n[98.753]\n[105.136]\n[98.675]\n[92.459]]"] ;
110 -> 111 ;
112 [label="h_bond_donor_count <= 2.5\nmse = 60.548\nsamples = 3\nvalue = [[112.362]\n[110.396]\n[107.944]\n[115.775]\n[111.917]\n[98.528]]"] ;
111 -> 112 ;
113 [label="mse = 0.0\nsamples = 1\nvalue = [[118.871]\n[113.164]\n[111.689]\n[125.72]\n[110.783]\n[77.611]]"] ;
112 -> 113 ;
114 [label="molecular_weight <= 215.21\nmse = 15.603\nsamples = 2\nvalue = [[109.108]\n[109.012]\n[106.072]\n[110.802]\n[112.484]\n[108.986]]"] ;
112 -> 114 ;
115 [label="mse = -0.0\nsamples = 1\nvalue = [[107.685]\n[113.587]\n[106.865]\n[116.923]\n[106.928]\n[110.284]]"] ;
114 -> 115 ;
116 [label="mse = -0.0\nsamples = 1\nvalue = [[110.531]\n[104.436]\n[105.279]\n[104.681]\n[118.041]\n[107.688]]"] ;
114 -> 116 ;
117 [label="xlogp <= -1.0\nmse = 47.275\nsamples = 4\nvalue = [[96.498]\n[93.993]\n[93.238]\n[98.752]\n[90.73]\n[88.818]]"] ;
111 -> 117 ;
118 [label="atom_stereo_count <= 0.5\nmse = 30.251\nsamples = 3\nvalue = [[96.182]\n[93.566]\n[92.582]\n[103.564]\n[89.651]\n[91.913]]"] ;
117 -> 118 ;
119 [label="mse = 0.0\nsamples = 1\nvalue = [[92.683]\n[103.313]\n[82.433]\n[108.673]\n[94.791]\n[86.654]]"] ;
118 -> 119 ;
120 [label="heavy_atom_count <= 15.0\nmse = 18.822\nsamples = 2\nvalue = [[97.349]\n[90.318]\n[95.965]\n[101.862]\n[87.938]\n[93.666]]"] ;
118 -> 120 ;
121 [label="mse = -0.0\nsamples = 1\nvalue = [[103.073]\n[94.149]\n[102.833]\n[107.783]\n[97.514]\n[95.786]]"] ;
120 -> 121 ;
122 [label="mse = 0.0\nsamples = 1\nvalue = [[94.487]\n[88.402]\n[92.531]\n[98.901]\n[83.15]\n[92.606]]"] ;
120 -> 122 ;
123 [label="mse = 0.0\nsamples = 1\nvalue = [[97.761]\n[95.697]\n[95.863]\n[79.503]\n[95.046]\n[76.439]]"] ;
117 -> 123 ;
124 [label="bond_stereo_count <= 0.5\nmse = 61.599\nsamples = 4\nvalue = [[101.083]\n[94.418]\n[95.782]\n[93.593]\n[80.458]\n[77.512]]"] ;
110 -> 124 ;
125 [label="xlogp <= 0.3\nmse = 31.978\nsamples = 3\nvalue = [[99.758]\n[93.45]\n[95.129]\n[96.36]\n[83.888]\n[80.017]]"] ;
124 -> 125 ;
126 [label="covalent_unit_count <= 2.5\nmse = 10.052\nsamples = 2\nvalue = [[98.792]\n[91.977]\n[95.614]\n[96.44]\n[80.182]\n[77.51]]"] ;
125 -> 126 ;
127 [label="mse = -0.0\nsamples = 1\nvalue = [[95.673]\n[89.953]\n[91.376]\n[92.594]\n[78.642]\n[80.882]]"] ;
126 -> 127 ;
128 [label="mse = -0.0\nsamples = 1\nvalue = [[101.912]\n[94.001]\n[99.852]\n[100.285]\n[81.722]\n[74.139]]"] ;
126 -> 128 ;
129 [label="mse = 0.0\nsamples = 1\nvalue = [[105.553]\n[102.29]\n[92.22]\n[95.885]\n[106.123]\n[95.058]]"] ;
125 -> 129 ;
130 [label="mse = 0.0\nsamples = 1\nvalue = [[110.354]\n[101.194]\n[100.355]\n[74.223]\n[56.449]\n[59.975]]"] ;
124 -> 130 ;
131 [label="exact_mass <= 229.071\nmse = 192.336\nsamples = 7\nvalue = [[90.702]\n[95.726]\n[78.645]\n[101.523]\n[102.59]\n[98.227]]"] ;
109 -> 131 ;
132 [label="mse = -0.0\nsamples = 1\nvalue = [[57.072]\n[76.063]\n[52.029]\n[83.543]\n[108.498]\n[90.048]]"] ;
131 -> 132 ;
133 [label="h_bond_donor_count <= 1.5\nmse = 147.674\nsamples = 6\nvalue = [[95.506]\n[98.534]\n[82.448]\n[104.091]\n[101.745]\n[99.395]]"] ;
131 -> 133 ;
134 [label="mse = 0.0\nsamples = 1\nvalue = [[66.743]\n[86.324]\n[39.424]\n[109.357]\n[97.023]\n[93.249]]"] ;
133 -> 134 ;
135 [label="xlogp <= -1.6\nmse = 77.811\nsamples = 5\nvalue = [[100.3]\n[100.57]\n[89.618]\n[103.214]\n[102.533]\n[100.42]]"] ;
133 -> 135 ;
136 [label="mse = 0.0\nsamples = 1\nvalue = [[95.825]\n[99.374]\n[99.537]\n[83.838]\n[89.179]\n[75.83]]"] ;
135 -> 136 ;
137 [label="rotable_bond_count <= 4.5\nmse = 42.245\nsamples = 4\nvalue = [[101.195]\n[100.809]\n[87.635]\n[107.089]\n[105.203]\n[105.338]]"] ;
135 -> 137 ;
138 [label="exact_mass <= 275.598\nmse = 27.523\nsamples = 3\nvalue = [[103.831]\n[97.724]\n[90.257]\n[98.477]\n[105.889]\n[107.563]]"] ;
137 -> 138 ;
139 [label="monoisotopic_mass <= 249.073\nmse = 12.523\nsamples = 2\nvalue = [[105.946]\n[101.168]\n[92.398]\n[95.104]\n[101.998]\n[104.388]]"] ;
138 -> 139 ;
140 [label="mse = 0.0\nsamples = 1\nvalue = [[108.09]\n[103.563]\n[99.709]\n[98.037]\n[103.286]\n[105.432]]"] ;
139 -> 140 ;
141 [label="mse = 0.0\nsamples = 1\nvalue = [[103.802]\n[98.772]\n[85.087]\n[92.171]\n[100.711]\n[103.343]]"] ;
139 -> 141 ;
142 [label="mse = -0.0\nsamples = 1\nvalue = [[99.6]\n[90.836]\n[85.975]\n[105.224]\n[113.671]\n[113.915]]"] ;
138 -> 142 ;
143 [label="mse = -0.0\nsamples = 1\nvalue = [[97.241]\n[105.436]\n[83.701]\n[120.006]\n[104.174]\n[101.999]]"] ;
137 -> 143 ;
144 [label="xlogp <= -0.75\nmse = 161.964\nsamples = 5\nvalue = [[105.133]\n[103.131]\n[88.772]\n[110.509]\n[104.886]\n[102.641]]"] ;
30 -> 144 ;
145 [label="xlogp <= -2.05\nmse = 89.925\nsamples = 3\nvalue = [[102.899]\n[103.471]\n[83.84]\n[101.668]\n[99.66]\n[92.535]]"] ;
144 -> 145 ;
146 [label="mse = -0.0\nsamples = 1\nvalue = [[109.624]\n[107.741]\n[49.815]\n[108.786]\n[102.795]\n[108.147]]"] ;
145 -> 146 ;
147 [label="atom_stereo_count <= 3.0\nmse = 22.228\nsamples = 2\nvalue = [[100.978]\n[102.252]\n[93.561]\n[99.635]\n[98.764]\n[88.074]]"] ;
145 -> 147 ;
148 [label="mse = 0.0\nsamples = 1\nvalue = [[99.725]\n[101.163]\n[79.377]\n[100.406]\n[102.059]\n[98.938]]"] ;
147 -> 148 ;
149 [label="mse = -0.0\nsamples = 1\nvalue = [[101.479]\n[102.687]\n[99.235]\n[99.326]\n[97.446]\n[83.729]]"] ;
147 -> 149 ;
150 [label="atom_stereo_count <= 0.5\nmse = 35.151\nsamples = 2\nvalue = [[110.16]\n[102.366]\n[99.871]\n[130.402]\n[116.644]\n[125.38]]"] ;
144 -> 150 ;
151 [label="mse = 0.0\nsamples = 1\nvalue = [[108.104]\n[101.797]\n[98.994]\n[137.137]\n[117.976]\n[129.605]]"] ;
150 -> 151 ;
152 [label="mse = -0.0\nsamples = 1\nvalue = [[116.326]\n[104.071]\n[102.501]\n[110.198]\n[112.646]\n[112.704]]"] ;
150 -> 152 ;
153 [label="h_bond_donor_count <= 2.0\nmse = 1127.173\nsamples = 3\nvalue = [[73.58]\n[78.449]\n[45.123]\n[85.609]\n[80.483]\n[83.178]]"] ;
29 -> 153 ;
154 [label="heavy_atom_count <= 20.5\nmse = 205.789\nsamples = 2\nvalue = [[98.41]\n[102.282]\n[57.678]\n[107.134]\n[109.649]\n[100.892]]"] ;
153 -> 154 ;
155 [label="mse = -0.0\nsamples = 1\nvalue = [[92.042]\n[104.41]\n[89.601]\n[114.51]\n[115.777]\n[109.761]]"] ;
154 -> 155 ;
156 [label="mse = 0.0\nsamples = 1\nvalue = [[104.778]\n[100.154]\n[25.756]\n[99.758]\n[103.521]\n[92.024]]"] ;
154 -> 156 ;
157 [label="mse = 0.0\nsamples = 1\nvalue = [[23.92]\n[30.782]\n[20.013]\n[42.559]\n[22.152]\n[47.75]]"] ;
153 -> 157 ;
158 [label="heavy_atom_count <= 22.5\nmse = 837.457\nsamples = 66\nvalue = [[88.284]\n[89.748]\n[80.935]\n[85.333]\n[81.505]\n[77.953]]"] ;
4 -> 158 ;
159 [label="h_bond_donor_count <= 6.0\nmse = 945.409\nsamples = 51\nvalue = [[84.917]\n[89.136]\n[79.234]\n[79.269]\n[76.26]\n[73.557]]"] ;
158 -> 159 ;
160 [label="tpsa <= 77.15\nmse = 872.298\nsamples = 50\nvalue = [[86.02]\n[90.293]\n[80.263]\n[80.299]\n[77.25]\n[74.513]]"] ;
159 -> 160 ;
161 [label="covalent_unit_count <= 1.5\nmse = 1217.746\nsamples = 13\nvalue = [[73.885]\n[77.475]\n[69.391]\n[61.482]\n[60.187]\n[55.57]]"] ;
160 -> 161 ;
162 [label="tpsa <= 64.5\nmse = 828.779\nsamples = 9\nvalue = [[91.056]\n[92.643]\n[80.267]\n[75.53]\n[76.898]\n[70.24]]"] ;
161 -> 162 ;
163 [label="tpsa <= 63.45\nmse = 203.217\nsamples = 6\nvalue = [[99.936]\n[105.06]\n[95.02]\n[93.453]\n[92.767]\n[84.371]]"] ;
162 -> 163 ;
164 [label="atom_stereo_count <= 1.0\nmse = 127.092\nsamples = 5\nvalue = [[99.199]\n[105.67]\n[93.532]\n[87.116]\n[99.472]\n[95.665]]"] ;
163 -> 164 ;
165 [label="mse = 0.0\nsamples = 1\nvalue = [[84.178]\n[88.658]\n[63.861]\n[111.525]\n[107.228]\n[98.969]]"] ;
164 -> 165 ;
166 [label="tpsa <= 46.75\nmse = 70.019\nsamples = 4\nvalue = [[102.203]\n[109.073]\n[99.466]\n[82.234]\n[97.921]\n[95.004]]"] ;
164 -> 166 ;
167 [label="xlogp <= 1.3\nmse = 12.858\nsamples = 2\nvalue = [[98.112]\n[106.682]\n[97.454]\n[67.781]\n[95.609]\n[96.893]]"] ;
166 -> 167 ;
168 [label="mse = 0.0\nsamples = 1\nvalue = [[97.39]\n[111.092]\n[99.397]\n[65.271]\n[94.269]\n[99.488]]"] ;
167 -> 168 ;
169 [label="mse = -0.0\nsamples = 1\nvalue = [[99.556]\n[97.862]\n[93.567]\n[72.8]\n[98.29]\n[91.704]]"] ;
167 -> 169 ;
170 [label="xlogp <= 0.45\nmse = 3.065\nsamples = 2\nvalue = [[108.34]\n[112.659]\n[102.484]\n[103.914]\n[101.388]\n[92.17]]"] ;
166 -> 170 ;
171 [label="mse = 0.0\nsamples = 1\nvalue = [[105.683]\n[113.726]\n[102.148]\n[105.628]\n[100.882]\n[89.546]]"] ;
170 -> 171 ;
172 [label="mse = 0.0\nsamples = 1\nvalue = [[110.997]\n[111.592]\n[102.821]\n[102.2]\n[101.894]\n[94.793]]"] ;
170 -> 172 ;
173 [label="mse = -0.0\nsamples = 1\nvalue = [[102.146]\n[103.229]\n[99.486]\n[112.464]\n[72.653]\n[50.489]]"] ;
163 -> 173 ;
174 [label="rotable_bond_count <= 1.5\nmse = 981.409\nsamples = 3\nvalue = [[76.848]\n[72.775]\n[56.661]\n[46.853]\n[51.506]\n[47.632]]"] ;
162 -> 174 ;
175 [label="mse = -0.0\nsamples = 1\nvalue = [[101.099]\n[83.841]\n[75.844]\n[78.181]\n[97.232]\n[94.236]]"] ;
174 -> 175 ;
176 [label="h_bond_acceptor_count <= 3.5\nmse = 464.79\nsamples = 2\nvalue = [[60.681]\n[65.397]\n[43.873]\n[25.967]\n[21.022]\n[16.562]]"] ;
174 -> 176 ;
177 [label="mse = 0.0\nsamples = 1\nvalue = [[96.814]\n[98.093]\n[97.689]\n[31.299]\n[8.583]\n[5.449]]"] ;
176 -> 177 ;
178 [label="mse = 0.0\nsamples = 1\nvalue = [[42.614]\n[49.049]\n[16.965]\n[23.301]\n[27.242]\n[22.119]]"] ;
176 -> 178 ;
179 [label="complexity <= 440.0\nmse = 759.51\nsamples = 4\nvalue = [[41.996]\n[49.307]\n[49.193]\n[35.392]\n[29.153]\n[28.325]]"] ;
161 -> 179 ;
180 [label="rotable_bond_count <= 3.0\nmse = 288.426\nsamples = 2\nvalue = [[64.268]\n[75.002]\n[76.419]\n[49.746]\n[42.781]\n[45.503]]"] ;
179 -> 180 ;
181 [label="mse = 0.0\nsamples = 1\nvalue = [[46.617]\n[71.429]\n[92.425]\n[34.675]\n[13.555]\n[37.213]]"] ;
180 -> 181 ;
182 [label="mse = -0.0\nsamples = 1\nvalue = [[81.918]\n[78.574]\n[60.413]\n[64.818]\n[72.008]\n[53.793]]"] ;
180 -> 182 ;
183 [label="h_bond_donor_count <= 0.5\nmse = 47.6\nsamples = 2\nvalue = [[12.3]\n[15.049]\n[12.893]\n[16.253]\n[10.982]\n[5.42]]"] ;
179 -> 183 ;
184 [label="mse = 0.0\nsamples = 1\nvalue = [[16.822]\n[20.44]\n[18.242]\n[23.383]\n[14.509]\n[6.599]]"] ;
183 -> 184 ;
185 [label="mse = 0.0\nsamples = 1\nvalue = [[3.256]\n[4.266]\n[2.194]\n[1.992]\n[3.928]\n[3.063]]"] ;
183 -> 185 ;
186 [label="complexity <= 408.5\nmse = 637.817\nsamples = 37\nvalue = [[90.278]\n[94.791]\n[84.077]\n[86.901]\n[83.237]\n[81.159]]"] ;
160 -> 186 ;
187 [label="atom_stereo_count <= 2.5\nmse = 851.456\nsamples = 21\nvalue = [[82.644]\n[90.355]\n[74.509]\n[76.16]\n[74.674]\n[71.789]]"] ;
186 -> 187 ;
188 [label="h_bond_acceptor_count <= 4.0\nmse = 375.063\nsamples = 15\nvalue = [[94.666]\n[97.109]\n[87.894]\n[82.922]\n[89.782]\n[87.067]]"] ;
187 -> 188 ;
189 [label="complexity <= 357.5\nmse = 108.461\nsamples = 2\nvalue = [[76.0]\n[75.583]\n[71.854]\n[55.278]\n[69.567]\n[73.305]]"] ;
188 -> 189 ;
190 [label="mse = -0.0\nsamples = 1\nvalue = [[86.664]\n[91.072]\n[79.179]\n[28.899]\n[83.234]\n[69.894]]"] ;
189 -> 190 ;
191 [label="mse = -0.0\nsamples = 1\nvalue = [[70.668]\n[67.839]\n[68.191]\n[68.467]\n[62.734]\n[75.011]]"] ;
189 -> 191 ;
192 [label="complexity <= 385.0\nmse = 337.985\nsamples = 13\nvalue = [[97.959]\n[100.907]\n[90.725]\n[87.8]\n[93.349]\n[89.495]]"] ;
188 -> 192 ;
193 [label="complexity <= 347.0\nmse = 283.157\nsamples = 11\nvalue = [[103.118]\n[101.992]\n[98.535]\n[87.843]\n[97.594]\n[93.006]]"] ;
192 -> 193 ;
194 [label="mse = 0.0\nsamples = 1\nvalue = [[109.333]\n[102.01]\n[104.119]\n[18.6]\n[114.257]\n[83.687]]"] ;
193 -> 194 ;
195 [label="xlogp <= 0.45\nmse = 232.745\nsamples = 10\nvalue = [[102.64]\n[101.99]\n[98.106]\n[93.169]\n[96.312]\n[93.722]]"] ;
193 -> 195 ;
196 [label="monoisotopic_mass <= 241.567\nmse = 107.355\nsamples = 7\nvalue = [[104.095]\n[103.163]\n[98.759]\n[96.407]\n[102.15]\n[98.999]]"] ;
195 -> 196 ;
197 [label="mse = 0.0\nsamples = 1\nvalue = [[104.616]\n[107.339]\n[106.545]\n[117.125]\n[120.934]\n[97.405]]"] ;
196 -> 197 ;
198 [label="rotable_bond_count <= 3.5\nmse = 89.247\nsamples = 6\nvalue = [[103.964]\n[102.119]\n[96.812]\n[91.227]\n[97.454]\n[99.398]]"] ;
196 -> 198 ;
199 [label="monoisotopic_mass <= 250.572\nmse = 76.821\nsamples = 2\nvalue = [[102.447]\n[100.857]\n[106.821]\n[70.667]\n[98.046]\n[94.136]]"] ;
198 -> 199 ;
200 [label="mse = 0.0\nsamples = 1\nvalue = [[99.848]\n[102.081]\n[107.459]\n[89.688]\n[99.636]\n[103.515]]"] ;
199 -> 200 ;
201 [label="mse = -0.0\nsamples = 1\nvalue = [[105.046]\n[99.632]\n[106.182]\n[51.647]\n[96.457]\n[84.758]]"] ;
199 -> 201 ;
202 [label="h_bond_donor_count <= 4.5\nmse = 52.294\nsamples = 4\nvalue = [[104.47]\n[102.539]\n[93.476]\n[98.08]\n[97.256]\n[101.152]]"] ;
198 -> 202 ;
203 [label="heavy_atom_count <= 19.5\nmse = 33.744\nsamples = 3\nvalue = [[111.987]\n[106.844]\n[92.112]\n[109.37]\n[98.767]\n[98.725]]"] ;
202 -> 203 ;
204 [label="mse = 0.0\nsamples = 1\nvalue = [[119.062]\n[110.959]\n[100.161]\n[105.35]\n[103.925]\n[109.277]]"] ;
203 -> 204 ;
205 [label="monoisotopic_mass <= 300.113\nmse = 14.881\nsamples = 2\nvalue = [[108.45]\n[104.786]\n[88.088]\n[111.381]\n[96.188]\n[93.449]]"] ;
203 -> 205 ;
206 [label="mse = 0.0\nsamples = 1\nvalue = [[103.698]\n[103.101]\n[94.352]\n[113.912]\n[93.213]\n[90.388]]"] ;
205 -> 206 ;
207 [label="mse = 0.0\nsamples = 1\nvalue = [[113.202]\n[106.472]\n[81.824]\n[108.849]\n[99.162]\n[96.51]]"] ;
205 -> 207 ;
208 [label="mse = 0.0\nsamples = 1\nvalue = [[96.953]\n[98.235]\n[94.84]\n[86.79]\n[95.746]\n[103.578]]"] ;
202 -> 208 ;
209 [label="tpsa <= 121.0\nmse = 466.957\nsamples = 3\nvalue = [[97.792]\n[98.082]\n[95.928]\n[82.377]\n[76.851]\n[76.133]]"] ;
195 -> 209 ;
210 [label="rotable_bond_count <= 2.5\nmse = 78.071\nsamples = 2\nvalue = [[99.935]\n[93.2]\n[92.253]\n[91.464]\n[103.902]\n[95.842]]"] ;
209 -> 210 ;
211 [label="mse = 0.0\nsamples = 1\nvalue = [[87.509]\n[80.499]\n[84.18]\n[99.1]\n[98.901]\n[93.792]]"] ;
210 -> 211 ;
212 [label="mse = -0.0\nsamples = 1\nvalue = [[112.362]\n[105.9]\n[100.326]\n[83.827]\n[108.904]\n[97.892]]"] ;
210 -> 212 ;
213 [label="mse = -0.0\nsamples = 1\nvalue = [[93.506]\n[107.848]\n[103.278]\n[64.204]\n[22.749]\n[36.714]]"] ;
209 -> 213 ;
214 [label="exact_mass <= 293.113\nmse = 68.783\nsamples = 2\nvalue = [[73.884]\n[95.846]\n[54.276]\n[87.603]\n[73.543]\n[73.113]]"] ;
192 -> 214 ;
215 [label="mse = 0.0\nsamples = 1\nvalue = [[73.246]\n[101.306]\n[58.315]\n[92.67]\n[79.912]\n[82.787]]"] ;
214 -> 215 ;
216 [label="mse = -0.0\nsamples = 1\nvalue = [[75.161]\n[84.926]\n[46.197]\n[77.47]\n[60.805]\n[53.766]]"] ;
214 -> 216 ;
217 [label="heavy_atom_count <= 19.5\nmse = 968.929\nsamples = 6\nvalue = [[60.786]\n[78.076]\n[50.172]\n[63.864]\n[47.204]\n[44.011]]"] ;
187 -> 217 ;
218 [label="complexity <= 384.5\nmse = 957.954\nsamples = 5\nvalue = [[68.43]\n[82.898]\n[58.249]\n[70.861]\n[50.008]\n[50.578]]"] ;
217 -> 218 ;
219 [label="atom_stereo_count <= 3.5\nmse = 899.597\nsamples = 4\nvalue = [[75.598]\n[89.303]\n[62.919]\n[71.228]\n[50.819]\n[52.513]]"] ;
218 -> 219 ;
220 [label="mse = 0.0\nsamples = 1\nvalue = [[90.97]\n[95.202]\n[54.945]\n[111.203]\n[84.76]\n[104.885]]"] ;
219 -> 220 ;
221 [label="exact_mass <= 255.091\nmse = 869.541\nsamples = 3\nvalue = [[73.401]\n[88.46]\n[64.059]\n[65.518]\n[45.971]\n[45.031]]"] ;
219 -> 221 ;
222 [label="mse = 1050.784\nsamples = 2\nvalue = [[67.697]\n[83.812]\n[51.124]\n[69.756]\n[52.02]\n[48.121]]"] ;
221 -> 222 ;
223 [label="mse = -0.0\nsamples = 1\nvalue = [[87.663]\n[100.078]\n[96.396]\n[54.923]\n[30.847]\n[37.308]]"] ;
221 -> 223 ;
224 [label="mse = -0.0\nsamples = 1\nvalue = [[11.093]\n[31.665]\n[20.885]\n[67.924]\n[43.514]\n[35.096]]"] ;
218 -> 224 ;
225 [label="mse = -0.0\nsamples = 1\nvalue = [[26.388]\n[56.373]\n[13.827]\n[32.378]\n[34.589]\n[14.46]]"] ;
217 -> 225 ;
226 [label="monoisotopic_mass <= 303.05\nmse = 188.775\nsamples = 16\nvalue = [[99.38]\n[100.08]\n[95.486]\n[99.709]\n[93.448]\n[92.332]]"] ;
186 -> 226 ;
227 [label="xlogp <= 1.55\nmse = 214.562\nsamples = 11\nvalue = [[96.699]\n[98.968]\n[93.172]\n[94.614]\n[87.177]\n[90.078]]"] ;
226 -> 227 ;
228 [label="atom_stereo_count <= 1.5\nmse = 166.387\nsamples = 10\nvalue = [[99.282]\n[100.536]\n[95.284]\n[96.773]\n[88.58]\n[91.31]]"] ;
227 -> 228 ;
229 [label="atom_stereo_count <= 0.5\nmse = 113.863\nsamples = 7\nvalue = [[96.073]\n[96.616]\n[85.299]\n[96.804]\n[96.904]\n[98.499]]"] ;
228 -> 229 ;
230 [label="h_bond_donor_count <= 4.5\nmse = 66.314\nsamples = 4\nvalue = [[98.953]\n[101.583]\n[95.294]\n[87.572]\n[94.601]\n[88.011]]"] ;
229 -> 230 ;
231 [label="tpsa <= 134.5\nmse = 51.597\nsamples = 3\nvalue = [[105.012]\n[101.343]\n[95.42]\n[85.344]\n[97.187]\n[90.617]]"] ;
230 -> 231 ;
232 [label="mse = 0.0\nsamples = 1\nvalue = [[107.161]\n[105.438]\n[92.489]\n[101.982]\n[102.343]\n[89.827]]"] ;
231 -> 232 ;
233 [label="complexity <= 513.0\nmse = 35.647\nsamples = 2\nvalue = [[103.938]\n[99.296]\n[96.886]\n[77.026]\n[94.609]\n[91.012]]"] ;
231 -> 233 ;
234 [label="mse = 0.0\nsamples = 1\nvalue = [[96.304]\n[94.713]\n[97.892]\n[68.511]\n[96.619]\n[83.459]]"] ;
233 -> 234 ;
235 [label="mse = -0.0\nsamples = 1\nvalue = [[111.571]\n[103.879]\n[95.879]\n[85.54]\n[92.599]\n[98.566]]"] ;
233 -> 235 ;
236 [label="mse = -0.0\nsamples = 1\nvalue = [[80.775]\n[102.302]\n[94.915]\n[94.254]\n[86.842]\n[80.191]]"] ;
230 -> 236 ;
237 [label="h_bond_acceptor_count <= 5.0\nmse = 71.883\nsamples = 3\nvalue = [[93.769]\n[92.643]\n[77.303]\n[104.19]\n[98.747]\n[106.89]]"] ;
229 -> 237 ;
238 [label="h_bond_donor_count <= 1.5\nmse = 43.887\nsamples = 2\nvalue = [[89.253]\n[91.344]\n[72.764]\n[104.79]\n[96.154]\n[95.382]]"] ;
237 -> 238 ;
239 [label="mse = 0.0\nsamples = 1\nvalue = [[78.393]\n[79.427]\n[57.44]\n[100.022]\n[98.893]\n[96.655]]"] ;
238 -> 239 ;
240 [label="mse = 0.0\nsamples = 1\nvalue = [[94.683]\n[97.303]\n[80.426]\n[107.174]\n[94.785]\n[94.745]]"] ;
238 -> 240 ;
241 [label="mse = 0.0\nsamples = 1\nvalue = [[100.544]\n[94.59]\n[84.111]\n[103.291]\n[102.636]\n[124.152]]"] ;
237 -> 241 ;
242 [label="tpsa <= 96.15\nmse = 113.256\nsamples = 3\nvalue = [[103.407]\n[105.575]\n[108.123]\n[96.733]\n[77.878]\n[82.066]]"] ;
228 -> 242 ;
243 [label="mse = -0.0\nsamples = 1\nvalue = [[96.034]\n[102.758]\n[113.978]\n[88.211]\n[103.393]\n[67.363]]"] ;
242 -> 243 ;
244 [label="h_bond_acceptor_count <= 6.5\nmse = 61.828\nsamples = 2\nvalue = [[106.356]\n[106.701]\n[105.781]\n[100.141]\n[67.672]\n[87.947]]"] ;
242 -> 244 ;
245 [label="mse = -0.0\nsamples = 1\nvalue = [[104.937]\n[107.046]\n[107.943]\n[108.391]\n[71.753]\n[89.051]]"] ;
244 -> 245 ;
246 [label="mse = -0.0\nsamples = 1\nvalue = [[112.034]\n[105.323]\n[97.134]\n[67.142]\n[51.346]\n[83.532]]"] ;
244 -> 246 ;
247 [label="mse = -0.0\nsamples = 1\nvalue = [[55.38]\n[73.883]\n[59.377]\n[60.067]\n[64.726]\n[70.376]]"] ;
227 -> 247 ;
248 [label="h_bond_acceptor_count <= 5.5\nmse = 63.545\nsamples = 5\nvalue = [[104.445]\n[102.18]\n[99.856]\n[109.334]\n[105.292]\n[96.588]]"] ;
226 -> 248 ;
249 [label="mse = -0.0\nsamples = 1\nvalue = [[106.56]\n[108.409]\n[97.78]\n[113.77]\n[106.676]\n[119.129]]"] ;
248 -> 249 ;
250 [label="xlogp <= 1.35\nmse = 46.358\nsamples = 4\nvalue = [[103.841]\n[100.4]\n[100.45]\n[108.066]\n[104.897]\n[90.148]]"] ;
248 -> 250 ;
251 [label="covalent_unit_count <= 1.5\nmse = 10.262\nsamples = 2\nvalue = [[105.329]\n[98.738]\n[98.741]\n[93.974]\n[98.921]\n[92.475]]"] ;
250 -> 251 ;
252 [label="mse = 0.0\nsamples = 1\nvalue = [[109.822]\n[97.778]\n[96.309]\n[93.017]\n[100.582]\n[92.769]]"] ;
251 -> 252 ;
253 [label="mse = -0.0\nsamples = 1\nvalue = [[96.343]\n[100.657]\n[103.606]\n[95.888]\n[95.599]\n[91.886]]"] ;
251 -> 253 ;
254 [label="atom_stereo_count <= 1.0\nmse = 19.265\nsamples = 2\nvalue = [[102.724]\n[101.648]\n[101.731]\n[118.636]\n[109.378]\n[88.404]]"] ;
250 -> 254 ;
255 [label="mse = 0.0\nsamples = 1\nvalue = [[110.493]\n[102.189]\n[103.851]\n[121.778]\n[110.068]\n[82.071]]"] ;
254 -> 255 ;
256 [label="mse = -0.0\nsamples = 1\nvalue = [[94.956]\n[101.106]\n[99.611]\n[115.493]\n[108.689]\n[94.736]]"] ;
254 -> 256 ;
257 [label="mse = -0.0\nsamples = 1\nvalue = [[0.0]\n[0.0]\n[0.0]\n[0.0]\n[0.0]\n[0.0]]"] ;
159 -> 257 ;
258 [label="xlogp <= 1.35\nmse = 190.958\nsamples = 15\nvalue = [[100.219]\n[91.917]\n[86.966]\n[106.83]\n[100.102]\n[93.538]]"] ;
158 -> 258 ;
259 [label="h_bond_donor_count <= 2.5\nmse = 100.081\nsamples = 13\nvalue = [[105.524]\n[97.452]\n[91.019]\n[105.868]\n[100.57]\n[92.262]]"] ;
258 -> 259 ;
260 [label="h_bond_acceptor_count <= 2.0\nmse = 64.54\nsamples = 7\nvalue = [[110.197]\n[98.558]\n[94.987]\n[114.146]\n[105.355]\n[94.905]]"] ;
259 -> 260 ;
261 [label="mse = -0.0\nsamples = 1\nvalue = [[102.419]\n[107.671]\n[91.911]\n[136.047]\n[107.83]\n[110.163]]"] ;
260 -> 261 ;
262 [label="xlogp <= -0.15\nmse = 39.428\nsamples = 6\nvalue = [[111.925]\n[96.532]\n[95.671]\n[109.28]\n[104.805]\n[91.514]]"] ;
260 -> 262 ;
263 [label="complexity <= 584.5\nmse = 9.238\nsamples = 2\nvalue = [[116.08]\n[91.676]\n[93.022]\n[112.479]\n[108.015]\n[90.361]]"] ;
262 -> 263 ;
264 [label="mse = -0.0\nsamples = 1\nvalue = [[106.582]\n[93.534]\n[83.024]\n[113.317]\n[113.14]\n[91.416]]"] ;
263 -> 264 ;
265 [label="mse = 0.0\nsamples = 1\nvalue = [[118.454]\n[91.212]\n[95.522]\n[112.269]\n[106.734]\n[90.097]]"] ;
263 -> 265 ;
266 [label="h_bond_acceptor_count <= 3.5\nmse = 44.484\nsamples = 4\nvalue = [[106.732]\n[102.602]\n[98.982]\n[105.281]\n[100.793]\n[92.956]]"] ;
262 -> 266 ;
267 [label="mse = -0.0\nsamples = 1\nvalue = [[103.757]\n[105.1]\n[99.786]\n[106.114]\n[92.105]\n[74.293]]"] ;
266 -> 267 ;
268 [label="h_bond_donor_count <= 1.5\nmse = 26.705\nsamples = 3\nvalue = [[107.724]\n[101.77]\n[98.714]\n[105.003]\n[103.689]\n[99.177]]"] ;
266 -> 268 ;
269 [label="h_bond_acceptor_count <= 7.5\nmse = 8.494\nsamples = 2\nvalue = [[108.982]\n[103.232]\n[102.502]\n[110.197]\n[107.832]\n[98.216]]"] ;
268 -> 269 ;
270 [label="mse = -0.0\nsamples = 1\nvalue = [[106.383]\n[97.18]\n[100.455]\n[109.966]\n[107.132]\n[96.528]]"] ;
269 -> 270 ;
271 [label="mse = -0.0\nsamples = 1\nvalue = [[111.582]\n[109.284]\n[104.548]\n[110.428]\n[108.531]\n[99.904]]"] ;
269 -> 271 ;
272 [label="mse = 0.0\nsamples = 1\nvalue = [[105.208]\n[98.846]\n[91.139]\n[94.616]\n[95.403]\n[101.098]]"] ;
268 -> 272 ;
273 [label="tpsa <= 149.5\nmse = 74.26\nsamples = 6\nvalue = [[99.098]\n[95.931]\n[85.562]\n[94.485]\n[93.991]\n[88.627]]"] ;
259 -> 273 ;
274 [label="molecular_weight <= 319.24\nmse = 71.803\nsamples = 4\nvalue = [[107.493]\n[99.964]\n[78.122]\n[98.36]\n[98.907]\n[91.199]]"] ;
273 -> 274 ;
275 [label="mse = -0.0\nsamples = 1\nvalue = [[96.843]\n[95.053]\n[54.66]\n[91.465]\n[94.148]\n[85.256]]"] ;
274 -> 275 ;
276 [label="xlogp <= -0.95\nmse = 36.957\nsamples = 3\nvalue = [[111.043]\n[101.601]\n[85.943]\n[100.658]\n[100.494]\n[93.181]]"] ;
274 -> 276 ;
277 [label="mse = -0.0\nsamples = 1\nvalue = [[109.383]\n[104.71]\n[83.326]\n[109.032]\n[95.118]\n[79.95]]"] ;
276 -> 277 ;
278 [label="exact_mass <= 322.104\nmse = 18.768\nsamples = 2\nvalue = [[111.873]\n[100.047]\n[87.252]\n[96.471]\n[103.182]\n[99.796]]"] ;
276 -> 278 ;
279 [label="mse = -0.0\nsamples = 1\nvalue = [[111.021]\n[91.491]\n[88.586]\n[102.297]\n[102.0]\n[101.045]]"] ;
278 -> 279 ;
280 [label="mse = 0.0\nsamples = 1\nvalue = [[112.725]\n[108.603]\n[85.917]\n[90.645]\n[104.363]\n[98.547]]"] ;
278 -> 280 ;
281 [label="rotable_bond_count <= 6.0\nmse = 14.083\nsamples = 2\nvalue = [[90.704]\n[91.897]\n[93.003]\n[90.61]\n[89.074]\n[86.055]]"] ;
273 -> 281 ;
282 [label="mse = -0.0\nsamples = 1\nvalue = [[90.805]\n[88.921]\n[92.308]\n[91.757]\n[87.585]\n[82.146]]"] ;
281 -> 282 ;
283 [label="mse = -0.0\nsamples = 1\nvalue = [[90.399]\n[100.825]\n[95.086]\n[87.168]\n[93.543]\n[97.783]]"] ;
281 -> 283 ;
284 [label="molecular_weight <= 331.9\nmse = 162.978\nsamples = 2\nvalue = [[66.625]\n[56.867]\n[61.294]\n[112.92]\n[97.139]\n[101.624]]"] ;
258 -> 284 ;
285 [label="mse = 0.0\nsamples = 1\nvalue = [[55.031]\n[43.196]\n[49.874]\n[114.606]\n[97.928]\n[107.433]]"] ;
284 -> 285 ;
286 [label="mse = 0.0\nsamples = 1\nvalue = [[89.814]\n[84.208]\n[84.133]\n[109.548]\n[95.562]\n[90.006]]"] ;
284 -> 286 ;
287 [label="h_bond_donor_count <= 1.5\nmse = 703.805\nsamples = 122\nvalue = [[78.853]\n[84.241]\n[69.742]\n[81.499]\n[79.355]\n[73.74]]"] ;
1 -> 287 ;
288 [label="exact_mass <= 312.725\nmse = 504.933\nsamples = 72\nvalue = [[89.819]\n[91.693]\n[80.541]\n[86.927]\n[84.238]\n[78.603]]"] ;
287 -> 288 ;
289 [label="heavy_atom_count <= 13.5\nmse = 391.773\nsamples = 60\nvalue = [[92.877]\n[94.107]\n[82.651]\n[89.148]\n[86.845]\n[80.823]]"] ;
288 -> 289 ;
290 [label="exact_mass <= 200.51\nmse = 569.669\nsamples = 2\nvalue = [[17.759]\n[57.218]\n[41.181]\n[82.365]\n[89.826]\n[64.573]]"] ;
289 -> 290 ;
291 [label="mse = 0.0\nsamples = 1\nvalue = [[19.254]\n[90.137]\n[77.182]\n[54.014]\n[82.281]\n[51.332]]"] ;
290 -> 291 ;
292 [label="mse = 0.0\nsamples = 1\nvalue = [[16.264]\n[24.299]\n[5.18]\n[110.716]\n[97.371]\n[77.815]]"] ;
290 -> 292 ;
293 [label="tpsa <= 70.65\nmse = 354.841\nsamples = 58\nvalue = [[94.492]\n[94.901]\n[83.543]\n[89.294]\n[86.781]\n[81.172]]"] ;
289 -> 293 ;
294 [label="monoisotopic_mass <= 242.61\nmse = 337.604\nsamples = 49\nvalue = [[94.776]\n[95.751]\n[83.962]\n[93.7]\n[85.986]\n[80.478]]"] ;
293 -> 294 ;
295 [label="complexity <= 264.5\nmse = 581.796\nsamples = 11\nvalue = [[89.752]\n[92.743]\n[75.495]\n[97.091]\n[77.089]\n[67.089]]"] ;
294 -> 295 ;
296 [label="h_bond_donor_count <= 0.5\nmse = 288.405\nsamples = 7\nvalue = [[96.479]\n[98.308]\n[87.498]\n[100.039]\n[91.708]\n[75.64]]"] ;
295 -> 296 ;
297 [label="heavy_atom_count <= 15.5\nmse = 124.215\nsamples = 3\nvalue = [[101.96]\n[97.086]\n[91.238]\n[80.357]\n[79.484]\n[62.02]]"] ;
296 -> 297 ;
298 [label="monoisotopic_mass <= 206.645\nmse = 24.747\nsamples = 2\nvalue = [[100.434]\n[94.574]\n[90.391]\n[63.245]\n[82.872]\n[65.102]]"] ;
297 -> 298 ;
299 [label="mse = 0.0\nsamples = 1\nvalue = [[101.734]\n[101.089]\n[92.225]\n[70.955]\n[79.165]\n[83.123]]"] ;
298 -> 299 ;
300 [label="mse = -0.0\nsamples = 1\nvalue = [[100.001]\n[92.402]\n[89.78]\n[60.675]\n[84.107]\n[59.095]]"] ;
298 -> 300 ;
301 [label="mse = 0.0\nsamples = 1\nvalue = [[105.011]\n[102.11]\n[92.93]\n[114.581]\n[72.708]\n[55.856]]"] ;
297 -> 301 ;
302 [label="xlogp <= 3.1\nmse = 225.425\nsamples = 4\nvalue = [[91.781]\n[99.355]\n[84.293]\n[116.909]\n[102.187]\n[87.315]]"] ;
296 -> 302 ;
303 [label="exact_mass <= 217.065\nmse = 121.195\nsamples = 3\nvalue = [[94.091]\n[100.971]\n[94.361]\n[117.325]\n[105.082]\n[89.229]]"] ;
302 -> 303 ;
304 [label="tpsa <= 54.35\nmse = 29.698\nsamples = 2\nvalue = [[104.381]\n[102.11]\n[94.331]\n[116.166]\n[103.697]\n[86.929]]"] ;
303 -> 304 ;
305 [label="mse = 0.0\nsamples = 1\nvalue = [[100.332]\n[106.336]\n[94.677]\n[121.604]\n[105.424]\n[72.774]]"] ;
304 -> 305 ;
306 [label="mse = -0.0\nsamples = 1\nvalue = [[107.081]\n[99.293]\n[94.101]\n[112.541]\n[102.546]\n[96.365]]"] ;
304 -> 306 ;
307 [label="mse = 0.0\nsamples = 1\nvalue = [[42.641]\n[95.275]\n[94.511]\n[123.119]\n[112.005]\n[100.731]]"] ;
303 -> 307 ;
308 [label="mse = 0.0\nsamples = 1\nvalue = [[77.916]\n[89.662]\n[23.881]\n[114.41]\n[84.817]\n[75.832]]"] ;
302 -> 308 ;
309 [label="monoisotopic_mass <= 211.584\nmse = 627.607\nsamples = 4\nvalue = [[75.178]\n[80.685]\n[49.488]\n[90.705]\n[45.414]\n[48.56]]"] ;
295 -> 309 ;
310 [label="mse = 0.0\nsamples = 1\nvalue = [[71.686]\n[60.911]\n[5.695]\n[62.142]\n[25.467]\n[20.553]]"] ;
309 -> 310 ;
311 [label="rotable_bond_count <= 1.5\nmse = 401.512\nsamples = 3\nvalue = [[76.924]\n[90.572]\n[71.384]\n[104.987]\n[55.388]\n[62.564]]"] ;
309 -> 311 ;
312 [label="monoisotopic_mass <= 229.068\nmse = 237.831\nsamples = 2\nvalue = [[61.392]\n[92.024]\n[58.743]\n[107.232]\n[86.434]\n[80.551]]"] ;
311 -> 312 ;
313 [label="mse = -0.0\nsamples = 1\nvalue = [[94.123]\n[101.576]\n[51.037]\n[105.087]\n[99.464]\n[86.091]]"] ;
312 -> 313 ;
314 [label="mse = -0.0\nsamples = 1\nvalue = [[28.662]\n[82.472]\n[66.449]\n[109.376]\n[73.404]\n[75.01]]"] ;
312 -> 314 ;
315 [label="mse = 0.0\nsamples = 1\nvalue = [[92.455]\n[89.12]\n[84.026]\n[102.743]\n[24.341]\n[44.577]]"] ;
311 -> 315 ;
316 [label="tpsa <= 12.95\nmse = 235.952\nsamples = 38\nvalue = [[96.341]\n[96.688]\n[86.599]\n[92.644]\n[88.757]\n[84.648]]"] ;
294 -> 316 ;
317 [label="mse = -0.0\nsamples = 1\nvalue = [[86.829]\n[83.969]\n[51.656]\n[78.713]\n[75.221]\n[63.092]]"] ;
316 -> 317 ;
318 [label="complexity <= 406.5\nmse = 227.165\nsamples = 37\nvalue = [[96.833]\n[97.346]\n[88.407]\n[93.364]\n[89.458]\n[85.763]]"] ;
316 -> 318 ;
319 [label="complexity <= 396.5\nmse = 221.119\nsamples = 22\nvalue = [[98.965]\n[97.06]\n[94.223]\n[88.313]\n[87.046]\n[85.271]]"] ;
318 -> 319 ;
320 [label="rotable_bond_count <= 2.5\nmse = 186.559\nsamples = 20\nvalue = [[99.185]\n[97.188]\n[93.518]\n[91.982]\n[86.478]\n[86.08]]"] ;
319 -> 320 ;
321 [label="tpsa <= 61.6\nmse = 100.574\nsamples = 6\nvalue = [[97.572]\n[94.213]\n[84.34]\n[103.846]\n[94.786]\n[88.632]]"] ;
320 -> 321 ;
322 [label="complexity <= 334.0\nmse = 60.576\nsamples = 5\nvalue = [[95.368]\n[92.148]\n[87.856]\n[102.168]\n[95.307]\n[88.663]]"] ;
321 -> 322 ;
323 [label="mse = -0.0\nsamples = 1\nvalue = [[72.689]\n[73.286]\n[78.321]\n[107.036]\n[88.528]\n[89.977]]"] ;
322 -> 323 ;
324 [label="complexity <= 366.0\nmse = 27.302\nsamples = 4\nvalue = [[100.408]\n[96.34]\n[89.975]\n[101.086]\n[96.813]\n[88.371]]"] ;
322 -> 324 ;
325 [label="mse = -0.0\nsamples = 1\nvalue = [[101.209]\n[95.987]\n[95.285]\n[95.531]\n[89.983]\n[79.372]]"] ;
324 -> 325 ;
326 [label="rotable_bond_count <= 1.0\nmse = 17.523\nsamples = 3\nvalue = [[100.007]\n[96.516]\n[87.32]\n[103.864]\n[100.228]\n[92.87]]"] ;
324 -> 326 ;
327 [label="xlogp <= 3.0\nmse = 7.076\nsamples = 2\nvalue = [[101.003]\n[99.232]\n[83.87]\n[107.813]\n[103.742]\n[86.896]]"] ;
326 -> 327 ;
328 [label="mse = 0.0\nsamples = 1\nvalue = [[98.827]\n[97.001]\n[85.052]\n[107.935]\n[105.38]\n[89.62]]"] ;
327 -> 328 ;
329 [label="mse = -0.0\nsamples = 1\nvalue = [[105.354]\n[103.695]\n[81.506]\n[107.57]\n[100.466]\n[81.447]]"] ;
327 -> 329 ;
330 [label="mse = -0.0\nsamples = 1\nvalue = [[99.012]\n[93.8]\n[90.77]\n[99.914]\n[96.714]\n[98.844]]"] ;
326 -> 330 ;
331 [label="mse = -0.0\nsamples = 1\nvalue = [[121.811]\n[116.924]\n[45.661]\n[122.306]\n[89.065]\n[88.289]]"] ;
321 -> 331 ;
332 [label="exact_mass <= 281.592\nmse = 190.135\nsamples = 14\nvalue = [[100.026]\n[98.74]\n[98.307]\n[85.792]\n[82.143]\n[84.748]]"] ;
320 -> 332 ;
333 [label="exact_mass <= 268.126\nmse = 174.174\nsamples = 10\nvalue = [[101.846]\n[99.445]\n[98.117]\n[87.319]\n[87.155]\n[91.252]]"] ;
332 -> 333 ;
334 [label="tpsa <= 41.2\nmse = 57.087\nsamples = 8\nvalue = [[103.511]\n[100.251]\n[96.521]\n[91.426]\n[89.697]\n[89.331]]"] ;
333 -> 334 ;
335 [label="complexity <= 283.0\nmse = 23.812\nsamples = 3\nvalue = [[111.763]\n[103.333]\n[100.339]\n[101.332]\n[83.842]\n[96.423]]"] ;
334 -> 335 ;
336 [label="mse = 0.0\nsamples = 1\nvalue = [[109.457]\n[105.759]\n[95.103]\n[111.83]\n[95.566]\n[90.849]]"] ;
335 -> 336 ;
337 [label="tpsa <= 37.8\nmse = 8.242\nsamples = 2\nvalue = [[112.532]\n[102.525]\n[102.084]\n[97.833]\n[79.933]\n[98.281]]"] ;
335 -> 337 ;
338 [label="mse = 0.0\nsamples = 1\nvalue = [[114.094]\n[104.286]\n[98.891]\n[93.405]\n[83.246]\n[91.03]]"] ;
337 -> 338 ;
339 [label="mse = -0.0\nsamples = 1\nvalue = [[111.751]\n[101.644]\n[103.68]\n[100.047]\n[78.277]\n[101.907]]"] ;
337 -> 339 ;
340 [label="rotable_bond_count <= 3.5\nmse = 42.464\nsamples = 5\nvalue = [[99.843]\n[98.882]\n[94.824]\n[87.024]\n[92.299]\n[86.179]]"] ;
334 -> 340 ;
341 [label="mse = -0.0\nsamples = 1\nvalue = [[101.267]\n[98.73]\n[95.966]\n[72.53]\n[88.887]\n[89.922]]"] ;
340 -> 341 ;
342 [label="rotable_bond_count <= 4.5\nmse = 33.812\nsamples = 4\nvalue = [[99.132]\n[98.957]\n[94.252]\n[94.271]\n[94.005]\n[84.308]]"] ;
340 -> 342 ;
343 [label="mse = 0.0\nsamples = 1\nvalue = [[97.974]\n[98.614]\n[93.014]\n[89.692]\n[91.801]\n[75.776]]"] ;
342 -> 343 ;
344 [label="rotable_bond_count <= 6.5\nmse = 33.758\nsamples = 3\nvalue = [[100.289]\n[99.301]\n[95.491]\n[98.849]\n[96.209]\n[92.839]]"] ;
342 -> 344 ;
345 [label="atom_stereo_count <= 0.5\nmse = 16.712\nsamples = 2\nvalue = [[102.39]\n[99.357]\n[99.317]\n[101.274]\n[98.578]\n[86.732]]"] ;
344 -> 345 ;
346 [label="mse = -0.0\nsamples = 1\nvalue = [[103.7]\n[101.686]\n[98.556]\n[109.162]\n[103.939]\n[85.471]]"] ;
345 -> 346 ;
347 [label="mse = -0.0\nsamples = 1\nvalue = [[101.08]\n[97.027]\n[100.078]\n[93.385]\n[93.218]\n[87.992]]"] ;
345 -> 347 ;
348 [label="mse = 0.0\nsamples = 1\nvalue = [[96.088]\n[99.189]\n[87.839]\n[94.001]\n[91.469]\n[105.054]]"] ;
344 -> 348 ;
349 [label="mse = 554.461\nsamples = 2\nvalue = [[94.631]\n[95.95]\n[105.035]\n[69.519]\n[76.14]\n[99.576]]"] ;
333 -> 349 ;
350 [label="rotable_bond_count <= 4.5\nmse = 134.496\nsamples = 4\nvalue = [[95.866]\n[97.128]\n[98.74]\n[82.301]\n[70.687]\n[69.882]]"] ;
332 -> 350 ;
351 [label="mse = 0.0\nsamples = 1\nvalue = [[89.682]\n[93.369]\n[96.818]\n[89.642]\n[53.622]\n[48.628]]"] ;
350 -> 351 ;
352 [label="xlogp <= 2.25\nmse = 48.794\nsamples = 3\nvalue = [[100.504]\n[99.947]\n[100.182]\n[76.796]\n[83.486]\n[85.823]]"] ;
350 -> 352 ;
353 [label="mse = 0.0\nsamples = 1\nvalue = [[115.353]\n[100.431]\n[95.922]\n[88.828]\n[94.331]\n[88.247]]"] ;
352 -> 353 ;
354 [label="heavy_atom_count <= 21.5\nmse = 27.494\nsamples = 2\nvalue = [[95.555]\n[99.786]\n[101.602]\n[72.785]\n[79.871]\n[85.015]]"] ;
352 -> 354 ;
355 [label="mse = 0.0\nsamples = 1\nvalue = [[91.211]\n[104.264]\n[104.563]\n[78.319]\n[80.026]\n[82.978]]"] ;
354 -> 355 ;
356 [label="mse = 0.0\nsamples = 1\nvalue = [[104.242]\n[90.83]\n[95.68]\n[61.718]\n[79.561]\n[89.088]]"] ;
354 -> 356 ;
357 [label="tpsa <= 44.8\nmse = 16.498\nsamples = 2\nvalue = [[95.122]\n[94.834]\n[106.562]\n[24.102]\n[96.996]\n[71.13]]"] ;
319 -> 357 ;
358 [label="mse = 0.0\nsamples = 1\nvalue = [[87.365]\n[91.356]\n[106.189]\n[28.921]\n[96.123]\n[69.522]]"] ;
357 -> 358 ;
359 [label="mse = -0.0\nsamples = 1\nvalue = [[102.88]\n[98.312]\n[106.934]\n[19.282]\n[97.87]\n[72.737]]"] ;
357 -> 359 ;
360 [label="complexity <= 416.0\nmse = 181.023\nsamples = 15\nvalue = [[93.077]\n[97.849]\n[78.159]\n[102.264]\n[93.706]\n[86.628]]"] ;
318 -> 360 ;
361 [label="molecular_weight <= 287.35\nmse = 128.362\nsamples = 3\nvalue = [[96.255]\n[99.854]\n[49.406]\n[103.07]\n[87.249]\n[80.246]]"] ;
360 -> 361 ;
362 [label="mse = 0.0\nsamples = 1\nvalue = [[98.433]\n[96.105]\n[93.645]\n[122.333]\n[89.645]\n[104.929]]"] ;
361 -> 362 ;
363 [label="rotable_bond_count <= 2.5\nmse = 35.559\nsamples = 2\nvalue = [[95.819]\n[100.603]\n[40.559]\n[99.217]\n[86.77]\n[75.31]]"] ;
361 -> 363 ;
364 [label="mse = 0.0\nsamples = 1\nvalue = [[102.979]\n[107.476]\n[52.342]\n[102.072]\n[101.145]\n[95.342]]"] ;
363 -> 364 ;
365 [label="mse = 0.0\nsamples = 1\nvalue = [[94.029]\n[98.885]\n[37.613]\n[98.503]\n[83.176]\n[70.302]]"] ;
363 -> 365 ;
366 [label="molecular_weight <= 293.85\nmse = 115.858\nsamples = 12\nvalue = [[91.806]\n[97.047]\n[89.66]\n[101.942]\n[96.288]\n[89.181]]"] ;
360 -> 366 ;
367 [label="molecular_weight <= 290.9\nmse = 51.305\nsamples = 5\nvalue = [[87.723]\n[90.919]\n[81.767]\n[93.512]\n[86.938]\n[78.746]]"] ;
366 -> 367 ;
368 [label="exact_mass <= 279.113\nmse = 25.934\nsamples = 4\nvalue = [[84.325]\n[88.709]\n[82.417]\n[97.649]\n[87.633]\n[79.831]]"] ;
367 -> 368 ;
369 [label="exact_mass <= 273.12\nmse = 9.212\nsamples = 2\nvalue = [[81.184]\n[88.131]\n[82.093]\n[92.284]\n[90.625]\n[84.52]]"] ;
368 -> 369 ;
370 [label="mse = 0.0\nsamples = 1\nvalue = [[83.879]\n[85.346]\n[80.724]\n[89.323]\n[91.675]\n[85.452]]"] ;
369 -> 370 ;
371 [label="mse = -0.0\nsamples = 1\nvalue = [[75.794]\n[93.701]\n[84.832]\n[98.207]\n[88.526]\n[82.655]]"] ;
369 -> 371 ;
372 [label="monoisotopic_mass <= 285.178\nmse = 7.255\nsamples = 2\nvalue = [[89.037]\n[89.575]\n[82.902]\n[105.696]\n[83.145]\n[72.799]]"] ;
368 -> 372 ;
373 [label="mse = -0.0\nsamples = 1\nvalue = [[88.386]\n[90.323]\n[88.668]\n[103.755]\n[85.491]\n[72.964]]"] ;
372 -> 373 ;
374 [label="mse = -0.0\nsamples = 1\nvalue = [[89.688]\n[88.828]\n[77.136]\n[107.638]\n[80.799]\n[72.634]]"] ;
372 -> 374 ;
375 [label="mse = 0.0\nsamples = 1\nvalue = [[104.71]\n[101.971]\n[78.516]\n[72.824]\n[83.459]\n[73.32]]"] ;
367 -> 375 ;
376 [label="xlogp <= 4.05\nmse = 87.797\nsamples = 7\nvalue = [[94.529]\n[101.131]\n[94.922]\n[107.563]\n[102.522]\n[96.138]]"] ;
366 -> 376 ;
377 [label="complexity <= 533.0\nmse = 76.591\nsamples = 5\nvalue = [[95.639]\n[98.626]\n[96.826]\n[100.833]\n[100.312]\n[92.038]]"] ;
376 -> 377 ;
378 [label="mse = 0.0\nsamples = 1\nvalue = [[98.522]\n[107.678]\n[99.028]\n[72.442]\n[94.467]\n[83.296]]"] ;
377 -> 378 ;
379 [label="tpsa <= 38.75\nmse = 51.44\nsamples = 4\nvalue = [[95.062]\n[96.816]\n[96.385]\n[106.511]\n[101.482]\n[93.787]]"] ;
377 -> 379 ;
380 [label="mse = -0.0\nsamples = 1\nvalue = [[112.741]\n[103.856]\n[87.079]\n[119.683]\n[103.301]\n[88.318]]"] ;
379 -> 380 ;
381 [label="rotable_bond_count <= 0.5\nmse = 30.164\nsamples = 3\nvalue = [[90.643]\n[95.056]\n[98.712]\n[103.218]\n[101.027]\n[95.154]]"] ;
379 -> 381 ;
382 [label="h_bond_donor_count <= 0.5\nmse = 13.623\nsamples = 2\nvalue = [[91.479]\n[95.433]\n[102.839]\n[101.979]\n[99.472]\n[90.903]]"] ;
381 -> 382 ;
383 [label="mse = 0.0\nsamples = 1\nvalue = [[92.684]\n[94.234]\n[103.028]\n[100.976]\n[104.152]\n[79.171]]"] ;
382 -> 383 ;
384 [label="mse = -0.0\nsamples = 1\nvalue = [[90.876]\n[96.033]\n[102.744]\n[102.48]\n[97.132]\n[96.769]]"] ;
382 -> 384 ;
385 [label="mse = 0.0\nsamples = 1\nvalue = [[88.134]\n[93.925]\n[86.332]\n[106.936]\n[105.691]\n[107.906]]"] ;
381 -> 385 ;
386 [label="exact_mass <= 302.675\nmse = 32.095\nsamples = 2\nvalue = [[92.309]\n[106.141]\n[91.114]\n[121.023]\n[106.942]\n[104.336]]"] ;
376 -> 386 ;
387 [label="mse = 0.0\nsamples = 1\nvalue = [[90.772]\n[103.71]\n[85.131]\n[122.007]\n[109.659]\n[97.713]]"] ;
386 -> 387 ;
388 [label="mse = 0.0\nsamples = 1\nvalue = [[95.384]\n[111.004]\n[103.079]\n[119.054]\n[101.509]\n[117.583]]"] ;
386 -> 388 ;
389 [label="tpsa <= 83.35\nmse = 303.133\nsamples = 9\nvalue = [[92.743]\n[89.668]\n[80.964]\n[62.182]\n[91.675]\n[85.447]]"] ;
293 -> 389 ;
390 [label="monoisotopic_mass <= 295.615\nmse = 203.565\nsamples = 7\nvalue = [[95.152]\n[94.677]\n[88.966]\n[56.817]\n[90.041]\n[84.463]]"] ;
389 -> 390 ;
391 [label="tpsa <= 75.65\nmse = 165.562\nsamples = 5\nvalue = [[93.055]\n[92.466]\n[89.046]\n[72.94]\n[90.385]\n[84.483]]"] ;
390 -> 391 ;
392 [label="monoisotopic_mass <= 274.54\nmse = 156.034\nsamples = 2\nvalue = [[93.93]\n[85.036]\n[63.468]\n[52.393]\n[77.668]\n[74.417]]"] ;
391 -> 392 ;
393 [label="mse = 0.0\nsamples = 1\nvalue = [[97.469]\n[82.675]\n[39.528]\n[57.05]\n[94.492]\n[80.761]]"] ;
392 -> 393 ;
394 [label="mse = -0.0\nsamples = 1\nvalue = [[90.392]\n[87.398]\n[87.407]\n[47.736]\n[60.843]\n[68.072]]"] ;
392 -> 394 ;
395 [label="h_bond_donor_count <= 0.5\nmse = 39.128\nsamples = 3\nvalue = [[92.705]\n[95.438]\n[99.277]\n[81.159]\n[95.472]\n[88.51]]"] ;
391 -> 395 ;
396 [label="molecular_weight <= 289.35\nmse = 5.534\nsamples = 2\nvalue = [[92.418]\n[92.268]\n[102.382]\n[96.23]\n[88.52]\n[82.429]]"] ;
395 -> 396 ;
397 [label="mse = 0.0\nsamples = 1\nvalue = [[91.53]\n[89.055]\n[101.662]\n[100.644]\n[88.836]\n[81.019]]"] ;
396 -> 397 ;
398 [label="mse = 0.0\nsamples = 1\nvalue = [[93.307]\n[95.482]\n[103.103]\n[91.817]\n[88.205]\n[83.839]]"] ;
396 -> 398 ;
399 [label="mse = -0.0\nsamples = 1\nvalue = [[92.896]\n[97.551]\n[97.207]\n[71.111]\n[100.107]\n[92.564]]"] ;
395 -> 399 ;
400 [label="molecular_weight <= 298.345\nmse = 54.013\nsamples = 2\nvalue = [[98.821]\n[98.546]\n[88.825]\n[28.601]\n[89.438]\n[84.428]]"] ;
390 -> 400 ;
401 [label="mse = 0.0\nsamples = 1\nvalue = [[95.559]\n[89.416]\n[65.133]\n[17.024]\n[99.1]\n[74.967]]"] ;
400 -> 401 ;
402 [label="mse = 0.0\nsamples = 1\nvalue = [[99.908]\n[101.59]\n[96.723]\n[32.46]\n[86.217]\n[87.582]]"] ;
400 -> 402 ;
403 [label="xlogp <= 2.8\nmse = 91.996\nsamples = 2\nvalue = [[79.497]\n[62.12]\n[36.953]\n[91.692]\n[100.664]\n[90.858]]"] ;
389 -> 403 ;
404 [label="mse = -0.0\nsamples = 1\nvalue = [[76.777]\n[65.059]\n[58.259]\n[87.891]\n[107.557]\n[86.382]]"] ;
403 -> 404 ;
405 [label="mse = 0.0\nsamples = 1\nvalue = [[82.218]\n[59.182]\n[15.647]\n[95.492]\n[93.77]\n[95.333]]"] ;
403 -> 405 ;
406 [label="xlogp <= 2.1\nmse = 940.67\nsamples = 12\nvalue = [[70.454]\n[76.401]\n[67.179]\n[72.861]\n[67.721]\n[64.541]]"] ;
288 -> 406 ;
407 [label="mse = 0.0\nsamples = 1\nvalue = [[6.622]\n[7.831]\n[11.743]\n[84.178]\n[53.606]\n[59.96]]"] ;
406 -> 407 ;
408 [label="atom_stereo_count <= 0.5\nmse = 724.507\nsamples = 11\nvalue = [[80.274]\n[86.951]\n[75.708]\n[71.12]\n[69.892]\n[65.246]]"] ;
406 -> 408 ;
409 [label="monoisotopic_mass <= 315.583\nmse = 513.88\nsamples = 8\nvalue = [[89.656]\n[87.859]\n[76.511]\n[77.087]\n[90.622]\n[85.973]]"] ;
408 -> 409 ;
410 [label="mse = 0.0\nsamples = 1\nvalue = [[9.795]\n[20.353]\n[25.978]\n[38.52]\n[88.29]\n[74.082]]"] ;
409 -> 410 ;
411 [label="molecular_weight <= 324.65\nmse = 175.79\nsamples = 7\nvalue = [[101.065]\n[97.503]\n[83.73]\n[82.596]\n[90.955]\n[87.672]]"] ;
409 -> 411 ;
412 [label="complexity <= 400.0\nmse = 163.317\nsamples = 3\nvalue = [[94.467]\n[90.823]\n[78.786]\n[63.459]\n[87.018]\n[91.838]]"] ;
411 -> 412 ;
413 [label="mse = 0.0\nsamples = 1\nvalue = [[101.565]\n[86.248]\n[55.55]\n[87.713]\n[86.088]\n[93.452]]"] ;
412 -> 413 ;
414 [label="tpsa <= 94.4\nmse = 94.607\nsamples = 2\nvalue = [[90.918]\n[93.11]\n[90.404]\n[51.332]\n[87.483]\n[91.032]]"] ;
412 -> 414 ;
415 [label="mse = -0.0\nsamples = 1\nvalue = [[90.786]\n[93.262]\n[80.416]\n[41.387]\n[85.943]\n[71.885]]"] ;
414 -> 415 ;
416 [label="mse = 0.0\nsamples = 1\nvalue = [[91.051]\n[92.958]\n[100.391]\n[61.276]\n[89.023]\n[110.178]]"] ;
414 -> 416 ;
417 [label="molecular_weight <= 327.6\nmse = 73.21\nsamples = 4\nvalue = [[106.012]\n[102.513]\n[87.439]\n[96.949]\n[93.908]\n[84.546]]"] ;
411 -> 417 ;
418 [label="rotable_bond_count <= 10.5\nmse = 26.536\nsamples = 2\nvalue = [[104.059]\n[102.955]\n[100.833]\n[94.903]\n[92.003]\n[82.66]]"] ;
417 -> 418 ;
419 [label="mse = 0.0\nsamples = 1\nvalue = [[110.525]\n[104.218]\n[98.521]\n[96.793]\n[84.998]\n[75.057]]"] ;
418 -> 419 ;
420 [label="mse = -0.0\nsamples = 1\nvalue = [[97.592]\n[101.692]\n[103.144]\n[93.013]\n[99.009]\n[90.264]]"] ;
418 -> 420 ;
421 [label="exact_mass <= 328.588\nmse = 54.958\nsamples = 2\nvalue = [[107.966]\n[102.071]\n[74.045]\n[98.996]\n[95.814]\n[86.432]]"] ;
417 -> 421 ;
422 [label="mse = 0.0\nsamples = 1\nvalue = [[105.524]\n[100.327]\n[59.412]\n[107.093]\n[100.447]\n[90.857]]"] ;
421 -> 422 ;
423 [label="mse = 0.0\nsamples = 1\nvalue = [[110.409]\n[103.815]\n[88.678]\n[90.898]\n[91.18]\n[82.008]]"] ;
421 -> 423 ;
424 [label="xlogp <= 4.6\nmse = 378.972\nsamples = 3\nvalue = [[65.263]\n[85.497]\n[74.422]\n[61.574]\n[36.724]\n[32.083]]"] ;
408 -> 424 ;
425 [label="tpsa <= 49.95\nmse = 98.556\nsamples = 2\nvalue = [[64.18]\n[87.672]\n[82.156]\n[54.531]\n[22.566]\n[20.489]]"] ;
424 -> 425 ;
426 [label="mse = 0.0\nsamples = 1\nvalue = [[62.853]\n[89.438]\n[58.343]\n[53.833]\n[25.07]\n[24.048]]"] ;
425 -> 426 ;
427 [label="mse = 0.0\nsamples = 1\nvalue = [[65.507]\n[85.907]\n[105.968]\n[55.229]\n[20.062]\n[16.93]]"] ;
425 -> 427 ;
428 [label="mse = -0.0\nsamples = 1\nvalue = [[69.596]\n[76.794]\n[43.487]\n[89.747]\n[93.357]\n[78.457]]"] ;
424 -> 428 ;
429 [label="xlogp <= 2.15\nmse = 778.41\nsamples = 50\nvalue = [[64.662]\n[74.597]\n[55.767]\n[74.475]\n[73.035]\n[67.448]]"] ;
287 -> 429 ;
430 [label="h_bond_donor_count <= 2.5\nmse = 1049.943\nsamples = 15\nvalue = [[50.729]\n[56.978]\n[48.624]\n[66.425]\n[50.537]\n[48.542]]"] ;
429 -> 430 ;
431 [label="complexity <= 344.5\nmse = 392.884\nsamples = 6\nvalue = [[31.618]\n[32.96]\n[25.108]\n[50.636]\n[32.296]\n[25.14]]"] ;
430 -> 431 ;
432 [label="rotable_bond_count <= 3.5\nmse = 175.816\nsamples = 3\nvalue = [[51.051]\n[50.349]\n[28.274]\n[71.943]\n[46.475]\n[39.607]]"] ;
431 -> 432 ;
433 [label="molecular_weight <= 244.275\nmse = 88.685\nsamples = 2\nvalue = [[47.234]\n[47.905]\n[37.373]\n[61.619]\n[43.586]\n[39.036]]"] ;
432 -> 433 ;
434 [label="mse = 0.0\nsamples = 1\nvalue = [[54.011]\n[56.125]\n[47.392]\n[60.51]\n[36.447]\n[39.02]]"] ;
433 -> 434 ;
435 [label="mse = 0.0\nsamples = 1\nvalue = [[33.681]\n[31.465]\n[17.336]\n[63.836]\n[57.863]\n[39.069]]"] ;
433 -> 435 ;
436 [label="mse = 0.0\nsamples = 1\nvalue = [[62.502]\n[57.68]\n[0.977]\n[102.917]\n[55.142]\n[41.319]]"] ;
432 -> 436 ;
437 [label="complexity <= 472.0\nmse = 91.833\nsamples = 3\nvalue = [[12.185]\n[15.572]\n[21.942]\n[29.328]\n[18.117]\n[10.674]]"] ;
431 -> 437 ;
438 [label="atom_stereo_count <= 2.5\nmse = 17.301\nsamples = 2\nvalue = [[11.451]\n[13.026]\n[12.342]\n[35.088]\n[22.441]\n[13.253]]"] ;
437 -> 438 ;
439 [label="mse = 0.0\nsamples = 1\nvalue = [[14.982]\n[13.343]\n[15.095]\n[30.048]\n[20.86]\n[11.289]]"] ;
438 -> 439 ;
440 [label="mse = -0.0\nsamples = 1\nvalue = [[4.39]\n[12.391]\n[6.835]\n[45.168]\n[25.602]\n[17.18]]"] ;
438 -> 440 ;
441 [label="mse = 0.0\nsamples = 1\nvalue = [[14.385]\n[23.212]\n[50.744]\n[12.049]\n[5.145]\n[2.938]]"] ;
437 -> 441 ;
442 [label="rotable_bond_count <= 7.5\nmse = 1019.422\nsamples = 9\nvalue = [[62.49]\n[71.757]\n[63.095]\n[76.142]\n[61.762]\n[62.943]]"] ;
430 -> 442 ;
443 [label="heavy_atom_count <= 22.5\nmse = 803.252\nsamples = 8\nvalue = [[67.375]\n[77.164]\n[66.806]\n[81.73]\n[66.494]\n[67.242]]"] ;
442 -> 443 ;
444 [label="complexity <= 477.0\nmse = 495.815\nsamples = 6\nvalue = [[85.115]\n[88.156]\n[82.448]\n[98.169]\n[80.3]\n[76.843]]"] ;
443 -> 444 ;
445 [label="rotable_bond_count <= 3.0\nmse = 247.461\nsamples = 5\nvalue = [[93.165]\n[94.399]\n[90.853]\n[105.475]\n[83.594]\n[77.707]]"] ;
444 -> 445 ;
446 [label="xlogp <= 1.8\nmse = 225.588\nsamples = 3\nvalue = [[84.494]\n[85.435]\n[82.309]\n[102.368]\n[68.67]\n[71.21]]"] ;
445 -> 446 ;
447 [label="mse = -0.0\nsamples = 1\nvalue = [[71.555]\n[78.819]\n[49.398]\n[124.232]\n[97.69]\n[82.945]]"] ;
446 -> 447 ;
448 [label="molecular_weight <= 321.7\nmse = 96.92\nsamples = 2\nvalue = [[88.806]\n[87.641]\n[93.279]\n[95.08]\n[58.997]\n[67.299]]"] ;
446 -> 448 ;
449 [label="mse = 0.0\nsamples = 1\nvalue = [[79.009]\n[84.724]\n[100.051]\n[67.753]\n[58.541]\n[83.599]]"] ;
448 -> 449 ;
450 [label="mse = -0.0\nsamples = 1\nvalue = [[93.705]\n[89.099]\n[89.893]\n[108.744]\n[59.225]\n[59.149]]"] ;
448 -> 450 ;
451 [label="exact_mass <= 285.105\nmse = 15.75\nsamples = 2\nvalue = [[104.728]\n[106.35]\n[102.246]\n[109.617]\n[103.492]\n[86.368]]"] ;
445 -> 451 ;
452 [label="mse = 0.0\nsamples = 1\nvalue = [[106.948]\n[103.109]\n[97.676]\n[109.964]\n[100.643]\n[84.727]]"] ;
451 -> 452 ;
453 [label="mse = -0.0\nsamples = 1\nvalue = [[100.288]\n[112.831]\n[111.387]\n[108.922]\n[109.19]\n[89.65]]"] ;
451 -> 453 ;
454 [label="mse = -0.0\nsamples = 1\nvalue = [[28.761]\n[44.461]\n[23.612]\n[47.031]\n[57.243]\n[70.799]]"] ;
444 -> 454 ;
455 [label="exact_mass <= 369.576\nmse = 184.904\nsamples = 2\nvalue = [[31.896]\n[55.18]\n[35.521]\n[48.853]\n[38.882]\n[48.04]]"] ;
443 -> 455 ;
456 [label="mse = 0.0\nsamples = 1\nvalue = [[12.865]\n[21.837]\n[18.329]\n[36.587]\n[23.63]\n[13.752]]"] ;
455 -> 456 ;
457 [label="mse = -0.0\nsamples = 1\nvalue = [[38.24]\n[66.295]\n[41.252]\n[52.941]\n[43.966]\n[59.469]]"] ;
455 -> 457 ;
458 [label="mse = -0.0\nsamples = 1\nvalue = [[3.869]\n[6.873]\n[18.562]\n[9.078]\n[4.98]\n[11.351]]"] ;
442 -> 458 ;
459 [label="bond_stereo_count <= 1.5\nmse = 581.526\nsamples = 35\nvalue = [[69.234]\n[80.379]\n[58.11]\n[77.116]\n[80.418]\n[73.652]]"] ;
429 -> 459 ;
460 [label="complexity <= 330.0\nmse = 514.417\nsamples = 34\nvalue = [[70.303]\n[81.598]\n[59.001]\n[78.171]\n[81.597]\n[74.762]]"] ;
459 -> 460 ;
461 [label="atom_stereo_count <= 0.5\nmse = 414.65\nsamples = 8\nvalue = [[51.889]\n[73.113]\n[56.436]\n[57.344]\n[70.475]\n[61.624]]"] ;
460 -> 461 ;
462 [label="complexity <= 257.5\nmse = 269.027\nsamples = 5\nvalue = [[40.751]\n[66.457]\n[42.204]\n[45.346]\n[61.174]\n[58.506]]"] ;
461 -> 462 ;
463 [label="mse = 0.0\nsamples = 1\nvalue = [[98.229]\n[105.379]\n[94.256]\n[63.562]\n[91.088]\n[79.649]]"] ;
462 -> 463 ;
464 [label="bond_stereo_count <= 0.5\nmse = 152.994\nsamples = 4\nvalue = [[35.961]\n[63.214]\n[37.866]\n[43.828]\n[58.681]\n[56.744]]"] ;
462 -> 464 ;
465 [label="exact_mass <= 260.64\nmse = 74.06\nsamples = 3\nvalue = [[45.671]\n[61.567]\n[36.76]\n[37.413]\n[54.247]\n[50.754]]"] ;
464 -> 465 ;
466 [label="monoisotopic_mass <= 251.14\nmse = 16.957\nsamples = 2\nvalue = [[44.389]\n[69.532]\n[30.161]\n[34.428]\n[35.313]\n[45.972]]"] ;
465 -> 466 ;
467 [label="mse = 0.0\nsamples = 1\nvalue = [[45.398]\n[60.997]\n[30.331]\n[36.07]\n[36.293]\n[50.891]]"] ;
466 -> 467 ;
468 [label="mse = 0.0\nsamples = 1\nvalue = [[43.38]\n[78.067]\n[29.991]\n[32.787]\n[34.333]\n[41.053]]"] ;
466 -> 468 ;
469 [label="mse = -0.0\nsamples = 1\nvalue = [[46.696]\n[55.195]\n[42.04]\n[39.801]\n[69.395]\n[54.58]]"] ;
465 -> 469 ;
470 [label="mse = -0.0\nsamples = 1\nvalue = [[6.832]\n[68.153]\n[41.184]\n[63.072]\n[71.982]\n[74.714]]"] ;
464 -> 470 ;
471 [label="h_bond_donor_count <= 3.0\nmse = 144.675\nsamples = 3\nvalue = [[72.573]\n[85.474]\n[82.867]\n[79.625]\n[87.75]\n[67.415]]"] ;
461 -> 471 ;
472 [label="molecular_weight <= 278.055\nmse = 46.324\nsamples = 2\nvalue = [[93.562]\n[94.0]\n[79.188]\n[77.867]\n[86.366]\n[67.764]]"] ;
471 -> 472 ;
473 [label="mse = -0.0\nsamples = 1\nvalue = [[91.693]\n[91.288]\n[73.426]\n[75.337]\n[83.086]\n[62.157]]"] ;
472 -> 473 ;
474 [label="mse = 0.0\nsamples = 1\nvalue = [[99.17]\n[102.136]\n[96.475]\n[85.456]\n[96.204]\n[84.586]]"] ;
472 -> 474 ;
475 [label="mse = 0.0\nsamples = 1\nvalue = [[44.587]\n[74.105]\n[87.773]\n[81.969]\n[89.595]\n[66.949]]"] ;
471 -> 475 ;
476 [label="complexity <= 363.5\nmse = 430.469\nsamples = 26\nvalue = [[78.867]\n[85.544]\n[60.195]\n[87.857]\n[86.77]\n[80.873]]"] ;
460 -> 476 ;
477 [label="rotable_bond_count <= 7.5\nmse = 278.435\nsamples = 6\nvalue = [[103.608]\n[101.031]\n[78.13]\n[89.091]\n[99.44]\n[93.68]]"] ;
476 -> 477 ;
478 [label="tpsa <= 86.3\nmse = 167.1\nsamples = 5\nvalue = [[101.165]\n[103.523]\n[93.672]\n[88.964]\n[102.96]\n[100.012]]"] ;
477 -> 478 ;
479 [label="heavy_atom_count <= 20.0\nmse = 100.634\nsamples = 4\nvalue = [[103.278]\n[104.117]\n[101.284]\n[83.19]\n[104.275]\n[101.445]]"] ;
478 -> 479 ;
480 [label="tpsa <= 55.7\nmse = 20.04\nsamples = 2\nvalue = [[110.686]\n[108.753]\n[99.519]\n[96.591]\n[103.72]\n[98.341]]"] ;
479 -> 480 ;
481 [label="mse = -0.0\nsamples = 1\nvalue = [[112.544]\n[115.506]\n[100.268]\n[109.738]\n[107.955]\n[98.64]]"] ;
480 -> 481 ;
482 [label="mse = 0.0\nsamples = 1\nvalue = [[109.757]\n[105.377]\n[99.145]\n[90.017]\n[101.603]\n[98.191]]"] ;
480 -> 482 ;
483 [label="heavy_atom_count <= 21.5\nmse = 53.403\nsamples = 2\nvalue = [[92.167]\n[97.163]\n[103.932]\n[63.09]\n[105.106]\n[106.101]]"] ;
479 -> 483 ;
484 [label="mse = 0.0\nsamples = 1\nvalue = [[98.308]\n[93.994]\n[105.452]\n[70.327]\n[113.567]\n[118.2]]"] ;
483 -> 484 ;
485 [label="mse = -0.0\nsamples = 1\nvalue = [[86.025]\n[100.332]\n[102.412]\n[55.853]\n[96.645]\n[94.002]]"] ;
483 -> 485 ;
486 [label="mse = -0.0\nsamples = 1\nvalue = [[90.601]\n[100.551]\n[55.608]\n[117.833]\n[96.39]\n[92.851]]"] ;
478 -> 486 ;
487 [label="mse = -0.0\nsamples = 1\nvalue = [[110.936]\n[93.556]\n[31.506]\n[89.47]\n[88.879]\n[74.683]]"] ;
477 -> 487 ;
488 [label="monoisotopic_mass <= 283.079\nmse = 395.029\nsamples = 20\nvalue = [[73.212]\n[82.004]\n[56.095]\n[87.576]\n[83.874]\n[77.946]]"] ;
476 -> 488 ;
489 [label="atom_stereo_count <= 0.5\nmse = 229.246\nsamples = 5\nvalue = [[71.956]\n[78.761]\n[47.073]\n[68.624]\n[69.218]\n[74.64]]"] ;
488 -> 489 ;
490 [label="xlogp <= 3.4\nmse = 184.057\nsamples = 3\nvalue = [[80.498]\n[88.448]\n[57.304]\n[71.196]\n[67.652]\n[68.937]]"] ;
489 -> 490 ;
491 [label="complexity <= 437.0\nmse = 55.351\nsamples = 2\nvalue = [[78.445]\n[85.672]\n[59.48]\n[64.099]\n[60.617]\n[64.456]]"] ;
490 -> 491 ;
492 [label="mse = 0.0\nsamples = 1\nvalue = [[64.181]\n[80.44]\n[53.915]\n[72.282]\n[78.612]\n[67.863]]"] ;
491 -> 492 ;
493 [label="mse = -0.0\nsamples = 1\nvalue = [[85.577]\n[88.288]\n[62.262]\n[60.007]\n[51.619]\n[62.752]]"] ;
491 -> 493 ;
494 [label="mse = 0.0\nsamples = 1\nvalue = [[92.816]\n[105.103]\n[44.252]\n[113.783]\n[109.866]\n[95.825]]"] ;
490 -> 494 ;
495 [label="xlogp <= 3.15\nmse = 57.219\nsamples = 2\nvalue = [[57.008]\n[61.808]\n[29.169]\n[64.122]\n[71.958]\n[84.62]]"] ;
489 -> 495 ;
496 [label="mse = 0.0\nsamples = 1\nvalue = [[54.52]\n[59.857]\n[11.182]\n[61.964]\n[74.204]\n[84.324]]"] ;
495 -> 496 ;
497 [label="mse = -0.0\nsamples = 1\nvalue = [[59.495]\n[63.76]\n[47.156]\n[66.279]\n[69.712]\n[84.916]]"] ;
495 -> 497 ;
498 [label="exact_mass <= 287.626\nmse = 395.441\nsamples = 15\nvalue = [[73.788]\n[83.49]\n[60.23]\n[96.262]\n[90.591]\n[79.461]]"] ;
488 -> 498 ;
499 [label="h_bond_acceptor_count <= 5.5\nmse = 54.916\nsamples = 3\nvalue = [[94.874]\n[96.951]\n[92.83]\n[120.399]\n[100.382]\n[91.99]]"] ;
498 -> 499 ;
500 [label="monoisotopic_mass <= 285.61\nmse = 21.183\nsamples = 2\nvalue = [[95.838]\n[95.623]\n[91.54]\n[124.947]\n[102.165]\n[97.35]]"] ;
499 -> 500 ;
501 [label="mse = 0.0\nsamples = 1\nvalue = [[90.668]\n[93.806]\n[91.478]\n[128.219]\n[100.974]\n[96.898]]"] ;
500 -> 501 ;
502 [label="mse = 0.0\nsamples = 1\nvalue = [[111.348]\n[101.075]\n[91.728]\n[115.13]\n[105.738]\n[98.708]]"] ;
500 -> 502 ;
503 [label="mse = 0.0\nsamples = 1\nvalue = [[91.02]\n[102.264]\n[97.986]\n[102.206]\n[93.249]\n[70.548]]"] ;
499 -> 503 ;
504 [label="tpsa <= 104.0\nmse = 345.22\nsamples = 12\nvalue = [[68.239]\n[79.948]\n[51.651]\n[89.91]\n[88.015]\n[76.164]]"] ;
498 -> 504 ;
505 [label="heavy_atom_count <= 21.5\nmse = 232.055\nsamples = 8\nvalue = [[69.766]\n[80.353]\n[52.958]\n[97.782]\n[94.803]\n[83.276]]"] ;
504 -> 505 ;
506 [label="tpsa <= 61.2\nmse = 106.225\nsamples = 3\nvalue = [[80.118]\n[89.989]\n[72.897]\n[89.678]\n[99.385]\n[83.434]]"] ;
505 -> 506 ;
507 [label="mse = -0.0\nsamples = 1\nvalue = [[77.084]\n[89.508]\n[52.733]\n[109.641]\n[113.516]\n[81.38]]"] ;
506 -> 507 ;
508 [label="monoisotopic_mass <= 322.998\nmse = 32.032\nsamples = 2\nvalue = [[81.634]\n[90.229]\n[82.98]\n[79.697]\n[92.32]\n[84.461]]"] ;
506 -> 508 ;
509 [label="mse = 0.0\nsamples = 1\nvalue = [[74.192]\n[92.828]\n[81.052]\n[74.655]\n[94.946]\n[94.157]]"] ;
508 -> 509 ;
510 [label="mse = -0.0\nsamples = 1\nvalue = [[89.077]\n[87.63]\n[84.907]\n[84.739]\n[89.693]\n[74.765]]"] ;
508 -> 510 ;
511 [label="xlogp <= 3.15\nmse = 176.744\nsamples = 5\nvalue = [[62.002]\n[73.126]\n[38.004]\n[103.86]\n[91.366]\n[83.157]]"] ;
505 -> 511 ;
512 [label="atom_stereo_count <= 0.5\nmse = 63.907\nsamples = 3\nvalue = [[76.09]\n[86.305]\n[37.596]\n[105.121]\n[96.787]\n[79.324]]"] ;
511 -> 512 ;
513 [label="complexity <= 421.0\nmse = 17.937\nsamples = 2\nvalue = [[73.882]\n[87.21]\n[29.94]\n[107.797]\n[95.39]\n[80.282]]"] ;
512 -> 513 ;
514 [label="mse = -0.0\nsamples = 1\nvalue = [[79.366]\n[88.081]\n[22.004]\n[108.123]\n[92.633]\n[77.81]]"] ;
513 -> 514 ;
515 [label="mse = 0.0\nsamples = 1\nvalue = [[68.399]\n[86.34]\n[37.875]\n[107.47]\n[98.148]\n[82.754]]"] ;
513 -> 515 ;
516 [label="mse = -0.0\nsamples = 1\nvalue = [[84.922]\n[82.684]\n[68.22]\n[94.418]\n[102.371]\n[75.493]]"] ;
512 -> 516 ;
517 [label="complexity <= 483.5\nmse = 55.187\nsamples = 2\nvalue = [[38.522]\n[51.161]\n[38.683]\n[101.758]\n[82.333]\n[89.546]]"] ;
511 -> 517 ;
518 [label="mse = 0.0\nsamples = 1\nvalue = [[36.936]\n[47.012]\n[28.758]\n[95.799]\n[81.26]\n[86.282]]"] ;
517 -> 518 ;
519 [label="mse = -0.0\nsamples = 1\nvalue = [[41.695]\n[59.46]\n[58.534]\n[113.676]\n[84.479]\n[96.074]]"] ;
517 -> 519 ;
520 [label="complexity <= 453.0\nmse = 373.323\nsamples = 4\nvalue = [[63.963]\n[78.814]\n[47.992]\n[67.869]\n[69.007]\n[56.25]]"] ;
504 -> 520 ;
521 [label="complexity <= 393.0\nmse = 307.471\nsamples = 2\nvalue = [[36.968]\n[64.207]\n[21.978]\n[62.772]\n[75.421]\n[56.046]]"] ;
520 -> 521 ;
522 [label="mse = -0.0\nsamples = 1\nvalue = [[40.024]\n[68.648]\n[4.244]\n[88.634]\n[100.086]\n[71.014]]"] ;
521 -> 522 ;
523 [label="mse = 0.0\nsamples = 1\nvalue = [[33.912]\n[59.767]\n[39.713]\n[36.909]\n[50.756]\n[41.079]]"] ;
521 -> 523 ;
524 [label="bond_stereo_count <= 0.5\nmse = 105.006\nsamples = 2\nvalue = [[81.96]\n[88.552]\n[65.334]\n[71.267]\n[64.731]\n[56.386]]"] ;
520 -> 524 ;
525 [label="mse = 0.0\nsamples = 1\nvalue = [[82.936]\n[97.714]\n[75.555]\n[66.029]\n[55.447]\n[52.917]]"] ;
524 -> 525 ;
526 [label="mse = -0.0\nsamples = 1\nvalue = [[80.009]\n[70.228]\n[44.893]\n[81.743]\n[83.299]\n[63.324]]"] ;
524 -> 526 ;
527 [label="mse = 0.0\nsamples = 1\nvalue = [[1.892]\n[3.609]\n[1.977]\n[10.688]\n[6.11]\n[3.713]]"] ;
459 -> 527 ;
528 [label="monoisotopic_mass <= 460.195\nmse = 1036.556\nsamples = 532\nvalue = [[68.75]\n[73.027]\n[55.224]\n[75.208]\n[72.734]\n[69.18]]"] ;
0 -> 528 [labeldistance=2.5, labelangle=-45, headlabel="False"] ;
529 [label="complexity <= 568.5\nmse = 936.59\nsamples = 310\nvalue = [[74.509]\n[77.088]\n[60.785]\n[77.095]\n[75.704]\n[72.911]]"] ;
528 -> 529 ;
530 [label="atom_stereo_count <= 0.5\nmse = 943.379\nsamples = 157\nvalue = [[71.358]\n[74.628]\n[57.742]\n[70.121]\n[71.027]\n[68.071]]"] ;
529 -> 530 ;
531 [label="h_bond_donor_count <= 1.5\nmse = 973.417\nsamples = 94\nvalue = [[66.683]\n[71.128]\n[49.302]\n[64.243]\n[68.704]\n[64.27]]"] ;
530 -> 531 ;
532 [label="complexity <= 497.5\nmse = 872.837\nsamples = 37\nvalue = [[79.988]\n[78.476]\n[56.489]\n[69.878]\n[75.934]\n[72.169]]"] ;
531 -> 532 ;
533 [label="exact_mass <= 351.092\nmse = 578.886\nsamples = 16\nvalue = [[97.305]\n[91.714]\n[66.262]\n[77.035]\n[83.635]\n[80.197]]"] ;
532 -> 533 ;
534 [label="heavy_atom_count <= 25.5\nmse = 718.677\nsamples = 5\nvalue = [[73.664]\n[58.751]\n[47.616]\n[56.492]\n[57.066]\n[70.283]]"] ;
533 -> 534 ;
535 [label="exact_mass <= 347.624\nmse = 427.8\nsamples = 4\nvalue = [[79.954]\n[78.586]\n[56.744]\n[63.279]\n[76.158]\n[78.318]]"] ;
534 -> 535 ;
536 [label="complexity <= 458.0\nmse = 194.654\nsamples = 3\nvalue = [[89.661]\n[87.891]\n[65.971]\n[65.54]\n[85.717]\n[85.077]]"] ;
535 -> 536 ;
537 [label="molecular_weight <= 332.8\nmse = 16.86\nsamples = 2\nvalue = [[91.754]\n[85.113]\n[55.369]\n[75.397]\n[92.363]\n[94.988]]"] ;
536 -> 537 ;
538 [label="mse = 0.0\nsamples = 1\nvalue = [[87.97]\n[83.222]\n[65.124]\n[77.092]\n[90.186]\n[85.951]]"] ;
537 -> 538 ;
539 [label="mse = -0.0\nsamples = 1\nvalue = [[93.646]\n[86.059]\n[50.492]\n[74.549]\n[93.451]\n[99.506]]"] ;
537 -> 539 ;
540 [label="mse = 0.0\nsamples = 1\nvalue = [[83.384]\n[96.224]\n[97.775]\n[35.972]\n[65.779]\n[55.345]]"] ;
536 -> 540 ;
541 [label="mse = -0.0\nsamples = 1\nvalue = [[41.123]\n[41.365]\n[19.838]\n[54.234]\n[37.925]\n[51.282]]"] ;
535 -> 541 ;
542 [label="mse = -0.0\nsamples = 1\nvalue = [[57.939]\n[9.164]\n[24.797]\n[39.524]\n[9.334]\n[50.196]]"] ;
534 -> 542 ;
543 [label="xlogp <= 3.05\nmse = 357.896\nsamples = 11\nvalue = [[103.671]\n[100.589]\n[71.282]\n[82.566]\n[90.789]\n[82.867]]"] ;
533 -> 543 ;
544 [label="xlogp <= 1.3\nmse = 255.33\nsamples = 3\nvalue = [[114.484]\n[107.495]\n[46.389]\n[107.196]\n[93.261]\n[75.014]]"] ;
543 -> 544 ;
545 [label="mse = 0.0\nsamples = 1\nvalue = [[61.066]\n[92.062]\n[11.737]\n[39.654]\n[87.944]\n[74.167]]"] ;
544 -> 545 ;
546 [label="xlogp <= 2.8\nmse = 9.996\nsamples = 2\nvalue = [[123.387]\n[110.068]\n[52.164]\n[118.454]\n[94.147]\n[75.156]]"] ;
544 -> 546 ;
547 [label="mse = 0.0\nsamples = 1\nvalue = [[121.071]\n[106.672]\n[49.484]\n[121.934]\n[89.78]\n[72.984]]"] ;
546 -> 547 ;
548 [label="mse = -0.0\nsamples = 1\nvalue = [[125.703]\n[113.463]\n[54.845]\n[114.973]\n[98.514]\n[77.327]]"] ;
546 -> 548 ;
549 [label="tpsa <= 55.35\nmse = 273.115\nsamples = 8\nvalue = [[99.687]\n[98.044]\n[80.453]\n[73.492]\n[89.878]\n[85.759]]"] ;
543 -> 549 ;
550 [label="exact_mass <= 373.668\nmse = 157.913\nsamples = 3\nvalue = [[94.193]\n[95.034]\n[53.139]\n[88.714]\n[91.084]\n[84.114]]"] ;
549 -> 550 ;
551 [label="mse = -0.0\nsamples = 1\nvalue = [[86.267]\n[100.724]\n[23.861]\n[108.445]\n[109.083]\n[91.004]]"] ;
550 -> 551 ;
552 [label="tpsa <= 23.5\nmse = 83.65\nsamples = 2\nvalue = [[96.835]\n[93.137]\n[62.898]\n[82.136]\n[85.084]\n[81.818]]"] ;
550 -> 552 ;
553 [label="mse = 0.0\nsamples = 1\nvalue = [[91.797]\n[98.164]\n[74.636]\n[68.504]\n[90.69]\n[91.626]]"] ;
552 -> 553 ;
554 [label="mse = -0.0\nsamples = 1\nvalue = [[101.873]\n[88.11]\n[51.16]\n[95.769]\n[79.478]\n[72.01]]"] ;
552 -> 554 ;
555 [label="exact_mass <= 355.093\nmse = 143.098\nsamples = 5\nvalue = [[103.682]\n[100.233]\n[100.318]\n[62.421]\n[89.001]\n[86.956]]"] ;
549 -> 555 ;
556 [label="mse = 0.0\nsamples = 1\nvalue = [[67.155]\n[77.356]\n[75.96]\n[69.819]\n[58.519]\n[66.803]]"] ;
555 -> 556 ;
557 [label="complexity <= 462.0\nmse = 86.991\nsamples = 4\nvalue = [[107.335]\n[102.521]\n[102.754]\n[61.682]\n[92.049]\n[88.971]]"] ;
555 -> 557 ;
558 [label="monoisotopic_mass <= 374.593\nmse = 56.794\nsamples = 2\nvalue = [[104.762]\n[108.392]\n[106.169]\n[45.919]\n[86.67]\n[79.296]]"] ;
557 -> 558 ;
559 [label="mse = 0.0\nsamples = 1\nvalue = [[100.156]\n[102.053]\n[107.153]\n[15.373]\n[84.709]\n[84.094]]"] ;
558 -> 559 ;
560 [label="mse = 0.0\nsamples = 1\nvalue = [[106.297]\n[110.505]\n[105.841]\n[56.101]\n[87.324]\n[77.696]]"] ;
558 -> 560 ;
561 [label="exact_mass <= 385.626\nmse = 28.649\nsamples = 2\nvalue = [[109.05]\n[98.607]\n[100.477]\n[72.19]\n[95.634]\n[95.422]]"] ;
557 -> 561 ;
562 [label="mse = 0.0\nsamples = 1\nvalue = [[112.869]\n[98.867]\n[97.298]\n[61.894]\n[89.255]\n[94.768]]"] ;
561 -> 562 ;
563 [label="mse = -0.0\nsamples = 1\nvalue = [[105.231]\n[98.347]\n[103.656]\n[82.486]\n[102.014]\n[96.075]]"] ;
561 -> 563 ;
564 [label="xlogp <= 3.05\nmse = 912.63\nsamples = 21\nvalue = [[61.554]\n[64.384]\n[46.085]\n[62.258]\n[67.735]\n[63.622]]"] ;
532 -> 564 ;
565 [label="h_bond_acceptor_count <= 6.5\nmse = 1059.882\nsamples = 7\nvalue = [[39.847]\n[49.409]\n[30.232]\n[49.247]\n[48.084]\n[42.812]]"] ;
564 -> 565 ;
566 [label="h_bond_acceptor_count <= 5.5\nmse = 149.933\nsamples = 4\nvalue = [[14.629]\n[30.116]\n[8.914]\n[34.706]\n[28.473]\n[26.542]]"] ;
565 -> 566 ;
567 [label="xlogp <= 1.45\nmse = 54.452\nsamples = 3\nvalue = [[6.828]\n[17.76]\n[12.241]\n[26.424]\n[19.644]\n[13.753]]"] ;
566 -> 567 ;
568 [label="mse = -0.0\nsamples = 1\nvalue = [[1.372]\n[3.343]\n[1.619]\n[13.872]\n[18.58]\n[5.23]]"] ;
567 -> 568 ;
569 [label="exact_mass <= 382.139\nmse = 29.508\nsamples = 2\nvalue = [[8.646]\n[22.566]\n[15.781]\n[30.608]\n[19.999]\n[16.594]]"] ;
567 -> 569 ;
570 [label="mse = -0.0\nsamples = 1\nvalue = [[2.673]\n[23.164]\n[1.78]\n[30.167]\n[29.397]\n[22.383]]"] ;
569 -> 570 ;
571 [label="mse = 0.0\nsamples = 1\nvalue = [[11.633]\n[22.267]\n[22.782]\n[30.828]\n[15.3]\n[13.7]]"] ;
569 -> 571 ;
572 [label="mse = 0.0\nsamples = 1\nvalue = [[25.03]\n[46.591]\n[4.478]\n[45.748]\n[40.245]\n[43.593]]"] ;
566 -> 572 ;
573 [label="complexity <= 534.5\nmse = 171.297\nsamples = 3\nvalue = [[98.69]\n[94.427]\n[79.973]\n[83.176]\n[93.842]\n[80.776]]"] ;
565 -> 573 ;
574 [label="mse = 0.0\nsamples = 1\nvalue = [[105.555]\n[98.877]\n[47.899]\n[79.264]\n[88.996]\n[87.044]]"] ;
573 -> 574 ;
575 [label="complexity <= 551.0\nmse = 110.226\nsamples = 2\nvalue = [[95.258]\n[92.202]\n[96.01]\n[85.132]\n[96.266]\n[77.642]]"] ;
573 -> 575 ;
576 [label="mse = 0.0\nsamples = 1\nvalue = [[105.139]\n[103.237]\n[100.286]\n[65.926]\n[98.453]\n[70.572]]"] ;
575 -> 576 ;
577 [label="mse = -0.0\nsamples = 1\nvalue = [[85.376]\n[81.166]\n[91.734]\n[104.338]\n[94.078]\n[84.713]]"] ;
575 -> 577 ;
578 [label="h_bond_donor_count <= 0.5\nmse = 615.779\nsamples = 14\nvalue = [[71.89]\n[71.515]\n[53.634]\n[68.454]\n[77.092]\n[73.531]]"] ;
564 -> 578 ;
579 [label="exact_mass <= 379.147\nmse = 151.873\nsamples = 4\nvalue = [[95.22]\n[92.141]\n[71.27]\n[64.4]\n[95.577]\n[96.233]]"] ;
578 -> 579 ;
580 [label="xlogp <= 4.3\nmse = 66.624\nsamples = 2\nvalue = [[96.577]\n[84.511]\n[64.583]\n[45.664]\n[91.887]\n[91.27]]"] ;
579 -> 580 ;
581 [label="mse = 0.0\nsamples = 1\nvalue = [[106.718]\n[78.638]\n[58.53]\n[44.16]\n[94.238]\n[95.526]]"] ;
580 -> 581 ;
582 [label="mse = -0.0\nsamples = 1\nvalue = [[76.296]\n[96.257]\n[76.69]\n[48.671]\n[87.186]\n[82.757]]"] ;
580 -> 582 ;
583 [label="bond_stereo_count <= 0.5\nmse = 72.436\nsamples = 2\nvalue = [[93.863]\n[99.77]\n[77.957]\n[83.136]\n[99.267]\n[101.196]]"] ;
579 -> 583 ;
584 [label="mse = -0.0\nsamples = 1\nvalue = [[97.35]\n[102.813]\n[52.12]\n[90.0]\n[106.609]\n[110.099]]"] ;
583 -> 584 ;
585 [label="mse = 0.0\nsamples = 1\nvalue = [[92.12]\n[98.249]\n[90.875]\n[79.704]\n[95.596]\n[96.744]]"] ;
583 -> 585 ;
586 [label="monoisotopic_mass <= 353.203\nmse = 600.282\nsamples = 10\nvalue = [[62.558]\n[63.264]\n[46.579]\n[70.076]\n[69.699]\n[64.451]]"] ;
578 -> 586 ;
587 [label="heavy_atom_count <= 25.0\nmse = 169.691\nsamples = 3\nvalue = [[71.307]\n[78.764]\n[83.884]\n[94.839]\n[99.97]\n[100.97]]"] ;
586 -> 587 ;
588 [label="tpsa <= 59.65\nmse = 100.006\nsamples = 2\nvalue = [[50.532]\n[71.568]\n[87.195]\n[109.541]\n[97.217]\n[100.858]]"] ;
587 -> 588 ;
589 [label="mse = -0.0\nsamples = 1\nvalue = [[64.388]\n[90.097]\n[86.953]\n[109.039]\n[89.333]\n[99.366]]"] ;
588 -> 589 ;
590 [label="mse = -0.0\nsamples = 1\nvalue = [[36.675]\n[53.038]\n[87.437]\n[110.043]\n[105.101]\n[102.349]]"] ;
588 -> 590 ;
591 [label="mse = 0.0\nsamples = 1\nvalue = [[92.082]\n[85.961]\n[80.572]\n[80.136]\n[102.723]\n[101.083]]"] ;
587 -> 591 ;
592 [label="rotable_bond_count <= 4.5\nmse = 379.043\nsamples = 7\nvalue = [[59.377]\n[57.628]\n[33.014]\n[61.071]\n[58.691]\n[51.171]]"] ;
586 -> 592 ;
593 [label="heavy_atom_count <= 27.5\nmse = 338.498\nsamples = 3\nvalue = [[65.674]\n[53.567]\n[42.271]\n[79.941]\n[82.436]\n[73.194]]"] ;
592 -> 593 ;
594 [label="mse = -0.0\nsamples = 1\nvalue = [[91.423]\n[87.737]\n[81.908]\n[90.477]\n[86.979]\n[81.918]]"] ;
593 -> 594 ;
595 [label="exact_mass <= 379.134\nmse = 183.967\nsamples = 2\nvalue = [[57.092]\n[42.177]\n[29.059]\n[76.43]\n[80.922]\n[70.286]]"] ;
593 -> 595 ;
596 [label="mse = 0.0\nsamples = 1\nvalue = [[51.179]\n[63.512]\n[5.568]\n[43.725]\n[90.583]\n[68.64]]"] ;
595 -> 596 ;
597 [label="mse = 0.0\nsamples = 1\nvalue = [[60.048]\n[31.509]\n[40.804]\n[92.782]\n[76.092]\n[71.109]]"] ;
595 -> 597 ;
598 [label="molecular_weight <= 391.95\nmse = 170.717\nsamples = 4\nvalue = [[55.779]\n[59.949]\n[27.725]\n[50.288]\n[45.122]\n[38.587]]"] ;
592 -> 598 ;
599 [label="h_bond_acceptor_count <= 4.0\nmse = 194.64\nsamples = 2\nvalue = [[46.64]\n[60.903]\n[37.434]\n[49.508]\n[25.95]\n[16.214]]"] ;
598 -> 599 ;
600 [label="mse = -0.0\nsamples = 1\nvalue = [[24.732]\n[37.829]\n[37.443]\n[43.782]\n[33.427]\n[24.382]]"] ;
599 -> 600 ;
601 [label="mse = 0.0\nsamples = 1\nvalue = [[68.549]\n[83.978]\n[37.425]\n[55.235]\n[18.472]\n[8.046]]"] ;
599 -> 601 ;
602 [label="heavy_atom_count <= 28.0\nmse = 63.39\nsamples = 2\nvalue = [[59.434]\n[59.567]\n[23.841]\n[50.599]\n[52.791]\n[47.536]]"] ;
598 -> 602 ;
603 [label="mse = 0.0\nsamples = 1\nvalue = [[56.083]\n[53.204]\n[30.849]\n[58.258]\n[43.232]\n[49.179]]"] ;
602 -> 603 ;
604 [label="mse = 0.0\nsamples = 1\nvalue = [[64.46]\n[69.112]\n[13.329]\n[39.111]\n[67.129]\n[45.071]]"] ;
602 -> 604 ;
605 [label="xlogp <= 0.25\nmse = 955.442\nsamples = 57\nvalue = [[56.781]\n[65.659]\n[43.954]\n[60.049]\n[63.324]\n[58.392]]"] ;
531 -> 605 ;
606 [label="rotable_bond_count <= 9.5\nmse = 649.229\nsamples = 9\nvalue = [[83.051]\n[83.237]\n[72.445]\n[70.315]\n[83.804]\n[80.142]]"] ;
605 -> 606 ;
607 [label="tpsa <= 79.3\nmse = 294.396\nsamples = 8\nvalue = [[90.087]\n[89.206]\n[83.546]\n[75.849]\n[93.251]\n[86.103]]"] ;
606 -> 607 ;
608 [label="h_bond_acceptor_count <= 3.5\nmse = 257.22\nsamples = 3\nvalue = [[79.693]\n[72.799]\n[50.604]\n[53.942]\n[77.775]\n[71.396]]"] ;
607 -> 608 ;
609 [label="mse = 0.0\nsamples = 1\nvalue = [[63.727]\n[65.369]\n[28.119]\n[6.307]\n[55.073]\n[54.626]]"] ;
608 -> 609 ;
610 [label="rotable_bond_count <= 4.5\nmse = 55.447\nsamples = 2\nvalue = [[85.015]\n[75.276]\n[58.099]\n[69.821]\n[85.342]\n[76.986]]"] ;
608 -> 610 ;
611 [label="mse = 0.0\nsamples = 1\nvalue = [[84.207]\n[83.116]\n[48.534]\n[72.473]\n[87.664]\n[76.427]]"] ;
610 -> 611 ;
612 [label="mse = 0.0\nsamples = 1\nvalue = [[86.632]\n[59.596]\n[77.228]\n[64.516]\n[80.698]\n[78.105]]"] ;
610 -> 612 ;
613 [label="h_bond_donor_count <= 4.5\nmse = 54.332\nsamples = 5\nvalue = [[94.707]\n[96.498]\n[98.186]\n[85.586]\n[100.129]\n[92.64]]"] ;
607 -> 613 ;
614 [label="complexity <= 531.5\nmse = 42.705\nsamples = 4\nvalue = [[98.029]\n[100.671]\n[101.172]\n[91.56]\n[102.167]\n[92.02]]"] ;
613 -> 614 ;
615 [label="molecular_weight <= 402.5\nmse = 34.757\nsamples = 3\nvalue = [[101.105]\n[97.621]\n[98.687]\n[95.734]\n[100.676]\n[88.277]]"] ;
614 -> 615 ;
616 [label="h_bond_donor_count <= 3.0\nmse = 16.147\nsamples = 2\nvalue = [[100.731]\n[96.406]\n[97.54]\n[99.583]\n[104.504]\n[91.868]]"] ;
615 -> 616 ;
617 [label="mse = 0.0\nsamples = 1\nvalue = [[98.656]\n[91.974]\n[96.591]\n[95.723]\n[105.659]\n[94.58]]"] ;
616 -> 617 ;
618 [label="mse = 0.0\nsamples = 1\nvalue = [[104.881]\n[105.269]\n[99.438]\n[107.304]\n[102.193]\n[86.443]]"] ;
616 -> 618 ;
619 [label="mse = -0.0\nsamples = 1\nvalue = [[102.226]\n[101.266]\n[102.127]\n[84.187]\n[89.191]\n[77.505]]"] ;
615 -> 619 ;
620 [label="mse = 0.0\nsamples = 1\nvalue = [[91.877]\n[106.771]\n[106.141]\n[83.211]\n[105.15]\n[99.507]]"] ;
614 -> 620 ;
621 [label="mse = -0.0\nsamples = 1\nvalue = [[88.063]\n[88.152]\n[92.216]\n[73.638]\n[96.053]\n[93.878]]"] ;
613 -> 621 ;
622 [label="mse = 0.0\nsamples = 1\nvalue = [[37.316]\n[44.438]\n[0.291]\n[34.342]\n[22.399]\n[41.393]]"] ;
606 -> 622 ;
623 [label="h_bond_donor_count <= 3.5\nmse = 900.344\nsamples = 48\nvalue = [[51.231]\n[61.946]\n[37.935]\n[57.88]\n[58.998]\n[53.797]]"] ;
605 -> 623 ;
624 [label="molecular_weight <= 354.05\nmse = 853.492\nsamples = 45\nvalue = [[54.764]\n[65.394]\n[39.874]\n[61.386]\n[62.14]\n[57.062]]"] ;
623 -> 624 ;
625 [label="exact_mass <= 329.64\nmse = 844.895\nsamples = 21\nvalue = [[63.546]\n[71.564]\n[49.333]\n[62.706]\n[70.77]\n[60.963]]"] ;
624 -> 625 ;
626 [label="molecular_weight <= 319.9\nmse = 516.024\nsamples = 6\nvalue = [[48.021]\n[58.684]\n[37.243]\n[43.878]\n[46.413]\n[38.062]]"] ;
625 -> 626 ;
627 [label="rotable_bond_count <= 2.5\nmse = 168.107\nsamples = 2\nvalue = [[14.519]\n[20.644]\n[10.282]\n[26.801]\n[28.514]\n[20.45]]"] ;
626 -> 627 ;
628 [label="mse = 0.0\nsamples = 1\nvalue = [[4.38]\n[6.44]\n[3.97]\n[10.514]\n[16.357]\n[4.603]]"] ;
627 -> 628 ;
629 [label="mse = 0.0\nsamples = 1\nvalue = [[24.658]\n[34.849]\n[16.594]\n[43.089]\n[40.672]\n[36.298]]"] ;
627 -> 629 ;
630 [label="rotable_bond_count <= 3.5\nmse = 428.209\nsamples = 4\nvalue = [[54.112]\n[65.6]\n[42.145]\n[46.982]\n[49.667]\n[41.264]]"] ;
626 -> 630 ;
631 [label="xlogp <= 3.15\nmse = 167.092\nsamples = 2\nvalue = [[77.181]\n[71.253]\n[84.582]\n[77.021]\n[83.547]\n[55.61]]"] ;
630 -> 631 ;
632 [label="mse = 0.0\nsamples = 1\nvalue = [[69.668]\n[86.669]\n[84.477]\n[44.128]\n[58.626]\n[52.783]]"] ;
631 -> 632 ;
633 [label="mse = -0.0\nsamples = 1\nvalue = [[80.938]\n[63.545]\n[84.635]\n[93.467]\n[96.008]\n[57.024]]"] ;
631 -> 633 ;
634 [label="xlogp <= 3.5\nmse = 129.009\nsamples = 2\nvalue = [[45.461]\n[63.48]\n[26.232]\n[35.718]\n[36.962]\n[35.885]]"] ;
630 -> 634 ;
635 [label="mse = 0.0\nsamples = 1\nvalue = [[50.199]\n[65.986]\n[35.571]\n[34.563]\n[48.44]\n[50.561]]"] ;
634 -> 635 ;
636 [label="mse = 0.0\nsamples = 1\nvalue = [[37.565]\n[59.304]\n[10.666]\n[37.643]\n[17.831]\n[11.424]]"] ;
634 -> 636 ;
637 [label="rotable_bond_count <= 3.5\nmse = 710.164\nsamples = 15\nvalue = [[73.157]\n[79.537]\n[56.817]\n[74.361]\n[85.848]\n[75.14]]"] ;
625 -> 637 ;
638 [label="molecular_weight <= 333.35\nmse = 622.928\nsamples = 7\nvalue = [[44.873]\n[59.355]\n[29.839]\n[57.596]\n[70.647]\n[59.626]]"] ;
637 -> 638 ;
639 [label="mse = -0.0\nsamples = 1\nvalue = [[32.244]\n[87.482]\n[21.471]\n[142.203]\n[126.157]\n[108.511]]"] ;
638 -> 639 ;
640 [label="monoisotopic_mass <= 350.613\nmse = 380.874\nsamples = 6\nvalue = [[46.451]\n[55.84]\n[30.884]\n[47.021]\n[63.708]\n[53.515]]"] ;
638 -> 640 ;
641 [label="complexity <= 421.5\nmse = 286.244\nsamples = 5\nvalue = [[41.674]\n[53.194]\n[25.333]\n[40.776]\n[60.231]\n[53.277]]"] ;
640 -> 641 ;
642 [label="monoisotopic_mass <= 345.592\nmse = 216.896\nsamples = 3\nvalue = [[31.753]\n[38.809]\n[19.746]\n[50.669]\n[78.61]\n[70.824]]"] ;
641 -> 642 ;
643 [label="tpsa <= 55.75\nmse = 49.302\nsamples = 2\nvalue = [[41.738]\n[43.474]\n[10.886]\n[65.619]\n[67.807]\n[67.369]]"] ;
642 -> 643 ;
644 [label="mse = 0.0\nsamples = 1\nvalue = [[33.935]\n[39.325]\n[12.05]\n[57.509]\n[57.224]\n[61.156]]"] ;
643 -> 644 ;
645 [label="mse = 0.0\nsamples = 1\nvalue = [[49.54]\n[47.623]\n[9.722]\n[73.728]\n[78.39]\n[73.582]]"] ;
643 -> 645 ;
646 [label="mse = -0.0\nsamples = 1\nvalue = [[11.783]\n[29.478]\n[37.466]\n[20.77]\n[100.215]\n[77.734]]"] ;
642 -> 646 ;
647 [label="tpsa <= 59.65\nmse = 101.979\nsamples = 2\nvalue = [[49.115]\n[63.983]\n[29.524]\n[33.356]\n[46.448]\n[40.117]]"] ;
641 -> 647 ;
648 [label="mse = 0.0\nsamples = 1\nvalue = [[47.514]\n[77.04]\n[51.897]\n[49.867]\n[64.183]\n[64.093]]"] ;
647 -> 648 ;
649 [label="mse = -0.0\nsamples = 1\nvalue = [[49.649]\n[59.631]\n[22.066]\n[27.852]\n[40.536]\n[32.125]]"] ;
647 -> 649 ;
650 [label="mse = 0.0\nsamples = 1\nvalue = [[79.89]\n[74.358]\n[69.743]\n[90.735]\n[88.048]\n[55.182]]"] ;
640 -> 650 ;
651 [label="bond_stereo_count <= 0.5\nmse = 187.598\nsamples = 8\nvalue = [[94.371]\n[94.673]\n[77.051]\n[86.935]\n[97.249]\n[86.776]]"] ;
637 -> 651 ;
652 [label="xlogp <= 3.0\nmse = 112.114\nsamples = 7\nvalue = [[92.533]\n[93.401]\n[76.299]\n[97.053]\n[99.085]\n[88.084]]"] ;
651 -> 652 ;
653 [label="rotable_bond_count <= 5.0\nmse = 114.388\nsamples = 2\nvalue = [[79.365]\n[92.394]\n[56.086]\n[103.848]\n[92.991]\n[65.018]]"] ;
652 -> 653 ;
654 [label="mse = 0.0\nsamples = 1\nvalue = [[73.428]\n[86.746]\n[55.515]\n[80.963]\n[98.953]\n[72.736]]"] ;
653 -> 654 ;
655 [label="mse = 0.0\nsamples = 1\nvalue = [[85.302]\n[98.041]\n[56.658]\n[126.734]\n[87.029]\n[57.3]]"] ;
653 -> 655 ;
656 [label="xlogp <= 4.25\nmse = 49.135\nsamples = 5\nvalue = [[95.825]\n[93.653]\n[81.352]\n[95.354]\n[100.608]\n[93.85]]"] ;
652 -> 656 ;
657 [label="exact_mass <= 345.134\nmse = 34.851\nsamples = 2\nvalue = [[99.369]\n[97.125]\n[82.778]\n[106.414]\n[103.207]\n[92.916]]"] ;
656 -> 657 ;
658 [label="mse = -0.0\nsamples = 1\nvalue = [[100.141]\n[102.604]\n[94.798]\n[101.926]\n[110.484]\n[105.955]]"] ;
657 -> 658 ;
659 [label="mse = -0.0\nsamples = 1\nvalue = [[98.983]\n[94.385]\n[76.768]\n[108.658]\n[99.568]\n[86.397]]"] ;
657 -> 659 ;
660 [label="rotable_bond_count <= 9.0\nmse = 32.649\nsamples = 3\nvalue = [[93.698]\n[91.57]\n[80.496]\n[88.717]\n[99.049]\n[94.41]]"] ;
656 -> 660 ;
661 [label="monoisotopic_mass <= 343.66\nmse = 18.269\nsamples = 2\nvalue = [[90.04]\n[89.638]\n[81.599]\n[86.028]\n[100.268]\n[94.382]]"] ;
660 -> 661 ;
662 [label="mse = 0.0\nsamples = 1\nvalue = [[88.62]\n[86.476]\n[83.776]\n[92.51]\n[99.503]\n[87.294]]"] ;
661 -> 662 ;
663 [label="mse = -0.0\nsamples = 1\nvalue = [[91.46]\n[92.801]\n[79.421]\n[79.545]\n[101.033]\n[101.471]]"] ;
661 -> 663 ;
664 [label="mse = 0.0\nsamples = 1\nvalue = [[108.331]\n[99.297]\n[76.087]\n[99.477]\n[94.175]\n[94.522]]"] ;
660 -> 664 ;
665 [label="mse = 0.0\nsamples = 1\nvalue = [[103.56]\n[101.03]\n[80.81]\n[36.348]\n[88.068]\n[80.238]]"] ;
651 -> 665 ;
666 [label="molecular_weight <= 397.65\nmse = 749.431\nsamples = 24\nvalue = [[45.133]\n[58.628]\n[29.499]\n[59.937]\n[52.675]\n[52.783]]"] ;
624 -> 666 ;
667 [label="tpsa <= 117.5\nmse = 668.118\nsamples = 17\nvalue = [[31.397]\n[50.107]\n[26.734]\n[46.317]\n[39.529]\n[44.486]]"] ;
666 -> 667 ;
668 [label="rotable_bond_count <= 7.5\nmse = 465.463\nsamples = 13\nvalue = [[22.996]\n[46.408]\n[22.313]\n[42.52]\n[35.212]\n[40.356]]"] ;
667 -> 668 ;
669 [label="complexity <= 551.0\nmse = 417.56\nsamples = 9\nvalue = [[27.105]\n[52.078]\n[26.084]\n[47.251]\n[41.272]\n[49.075]]"] ;
668 -> 669 ;
670 [label="exact_mass <= 372.201\nmse = 377.29\nsamples = 8\nvalue = [[24.323]\n[45.513]\n[24.118]\n[54.252]\n[45.568]\n[47.808]]"] ;
669 -> 670 ;
671 [label="exact_mass <= 369.676\nmse = 161.289\nsamples = 4\nvalue = [[23.532]\n[50.685]\n[22.935]\n[39.464]\n[33.168]\n[38.777]]"] ;
670 -> 671 ;
672 [label="monoisotopic_mass <= 358.184\nmse = 110.348\nsamples = 3\nvalue = [[27.632]\n[52.037]\n[26.972]\n[38.537]\n[39.245]\n[42.012]]"] ;
671 -> 672 ;
673 [label="mse = 0.0\nsamples = 1\nvalue = [[31.39]\n[59.976]\n[4.321]\n[41.101]\n[43.428]\n[47.638]]"] ;
672 -> 673 ;
674 [label="tpsa <= 99.15\nmse = 64.296\nsamples = 2\nvalue = [[25.127]\n[46.744]\n[42.072]\n[36.828]\n[36.456]\n[38.262]]"] ;
672 -> 674 ;
675 [label="mse = 0.0\nsamples = 1\nvalue = [[16.199]\n[39.964]\n[37.679]\n[35.497]\n[36.947]\n[45.036]]"] ;
674 -> 675 ;
676 [label="mse = -0.0\nsamples = 1\nvalue = [[42.984]\n[60.304]\n[50.859]\n[39.489]\n[35.474]\n[24.713]]"] ;
674 -> 676 ;
677 [label="mse = 0.0\nsamples = 1\nvalue = [[3.031]\n[43.924]\n[2.749]\n[44.098]\n[2.781]\n[22.6]]"] ;
671 -> 677 ;
678 [label="h_bond_acceptor_count <= 5.5\nmse = 399.529\nsamples = 4\nvalue = [[25.509]\n[37.755]\n[25.893]\n[76.435]\n[64.17]\n[61.356]]"] ;
670 -> 678 ;
679 [label="mse = 0.0\nsamples = 1\nvalue = [[54.218]\n[73.46]\n[50.504]\n[99.863]\n[86.12]\n[82.555]]"] ;
678 -> 679 ;
680 [label="tpsa <= 70.15\nmse = 222.715\nsamples = 3\nvalue = [[15.94]\n[25.853]\n[17.689]\n[68.625]\n[56.853]\n[54.289]]"] ;
678 -> 680 ;
681 [label="mse = -0.0\nsamples = 1\nvalue = [[6.704]\n[19.699]\n[4.384]\n[46.847]\n[88.026]\n[73.986]]"] ;
680 -> 681 ;
682 [label="heavy_atom_count <= 27.5\nmse = 67.294\nsamples = 2\nvalue = [[20.558]\n[28.93]\n[24.341]\n[79.514]\n[41.266]\n[44.441]]"] ;
680 -> 682 ;
683 [label="mse = 0.0\nsamples = 1\nvalue = [[17.367]\n[30.438]\n[30.629]\n[77.762]\n[29.555]\n[29.896]]"] ;
682 -> 683 ;
684 [label="mse = -0.0\nsamples = 1\nvalue = [[23.748]\n[27.423]\n[18.053]\n[81.267]\n[52.977]\n[58.986]]"] ;
682 -> 684 ;
685 [label="mse = -0.0\nsamples = 1\nvalue = [[41.013]\n[84.906]\n[35.913]\n[12.246]\n[19.792]\n[55.406]]"] ;
669 -> 685 ;
686 [label="bond_stereo_count <= 1.5\nmse = 212.434\nsamples = 4\nvalue = [[10.671]\n[29.397]\n[10.999]\n[28.326]\n[17.033]\n[14.201]]"] ;
668 -> 686 ;
687 [label="xlogp <= 3.7\nmse = 57.59\nsamples = 3\nvalue = [[8.411]\n[24.71]\n[13.435]\n[12.732]\n[9.213]\n[15.287]]"] ;
686 -> 687 ;
688 [label="h_bond_acceptor_count <= 5.0\nmse = 9.982\nsamples = 2\nvalue = [[5.106]\n[16.75]\n[18.864]\n[9.77]\n[6.183]\n[9.712]]"] ;
687 -> 688 ;
689 [label="mse = 0.0\nsamples = 1\nvalue = [[6.747]\n[22.012]\n[23.866]\n[7.891]\n[5.826]\n[10.622]]"] ;
688 -> 689 ;
690 [label="mse = -0.0\nsamples = 1\nvalue = [[3.465]\n[11.487]\n[13.862]\n[11.65]\n[6.54]\n[8.803]]"] ;
688 -> 690 ;
691 [label="mse = 0.0\nsamples = 1\nvalue = [[15.022]\n[40.632]\n[2.578]\n[18.656]\n[15.274]\n[26.437]]"] ;
687 -> 691 ;
692 [label="mse = -0.0\nsamples = 1\nvalue = [[17.45]\n[43.457]\n[3.691]\n[75.105]\n[40.493]\n[10.943]]"] ;
686 -> 692 ;
693 [label="rotable_bond_count <= 7.0\nmse = 965.662\nsamples = 4\nvalue = [[65.001]\n[64.902]\n[44.421]\n[61.507]\n[56.797]\n[61.007]]"] ;
667 -> 693 ;
694 [label="h_bond_acceptor_count <= 8.5\nmse = 333.957\nsamples = 3\nvalue = [[53.33]\n[51.409]\n[26.766]\n[41.875]\n[43.048]\n[45.975]]"] ;
693 -> 694 ;
695 [label="mse = 0.0\nsamples = 1\nvalue = [[83.623]\n[88.334]\n[33.647]\n[73.877]\n[41.939]\n[64.454]]"] ;
694 -> 695 ;
696 [label="monoisotopic_mass <= 383.162\nmse = 39.023\nsamples = 2\nvalue = [[38.183]\n[32.946]\n[23.325]\n[25.874]\n[43.602]\n[36.736]]"] ;
694 -> 696 ;
697 [label="mse = 0.0\nsamples = 1\nvalue = [[41.731]\n[31.16]\n[24.401]\n[29.753]\n[53.905]\n[46.534]]"] ;
696 -> 697 ;
698 [label="mse = -0.0\nsamples = 1\nvalue = [[34.635]\n[34.733]\n[22.25]\n[21.995]\n[33.299]\n[26.938]]"] ;
696 -> 698 ;
699 [label="mse = -0.0\nsamples = 1\nvalue = [[100.015]\n[105.38]\n[97.386]\n[120.404]\n[98.044]\n[106.102]]"] ;
693 -> 699 ;
700 [label="xlogp <= 2.75\nmse = 302.849\nsamples = 7\nvalue = [[70.106]\n[74.12]\n[34.527]\n[84.701]\n[76.575]\n[67.867]]"] ;
666 -> 700 ;
701 [label="xlogp <= 1.65\nmse = 106.833\nsamples = 2\nvalue = [[98.076]\n[95.788]\n[66.218]\n[106.618]\n[87.256]\n[78.872]]"] ;
700 -> 701 ;
702 [label="mse = 0.0\nsamples = 1\nvalue = [[98.344]\n[87.71]\n[78.88]\n[101.589]\n[88.865]\n[98.557]]"] ;
701 -> 702 ;
703 [label="mse = -0.0\nsamples = 1\nvalue = [[97.807]\n[103.867]\n[53.557]\n[111.646]\n[85.648]\n[59.188]]"] ;
701 -> 703 ;
704 [label="monoisotopic_mass <= 426.525\nmse = 211.887\nsamples = 5\nvalue = [[63.891]\n[69.305]\n[27.484]\n[79.831]\n[74.201]\n[65.422]]"] ;
700 -> 704 ;
705 [label="exact_mass <= 419.565\nmse = 141.27\nsamples = 2\nvalue = [[66.839]\n[72.182]\n[6.66]\n[98.712]\n[93.506]\n[63.116]]"] ;
704 -> 705 ;
706 [label="mse = 0.0\nsamples = 1\nvalue = [[95.58]\n[85.575]\n[0.548]\n[87.597]\n[80.76]\n[82.259]]"] ;
705 -> 706 ;
707 [label="mse = 0.0\nsamples = 1\nvalue = [[52.469]\n[65.485]\n[9.716]\n[104.27]\n[99.879]\n[53.544]]"] ;
705 -> 707 ;
708 [label="tpsa <= 82.45\nmse = 99.057\nsamples = 3\nvalue = [[62.417]\n[67.866]\n[37.897]\n[70.391]\n[64.549]\n[66.575]]"] ;
704 -> 708 ;
709 [label="mse = 0.0\nsamples = 1\nvalue = [[73.093]\n[69.83]\n[26.25]\n[42.826]\n[68.957]\n[60.095]]"] ;
708 -> 709 ;
710 [label="xlogp <= 3.9\nmse = 14.246\nsamples = 2\nvalue = [[57.079]\n[66.884]\n[43.72]\n[84.173]\n[62.345]\n[69.815]]"] ;
708 -> 710 ;
711 [label="mse = -0.0\nsamples = 1\nvalue = [[58.018]\n[74.925]\n[44.787]\n[85.06]\n[61.367]\n[73.944]]"] ;
710 -> 711 ;
712 [label="mse = -0.0\nsamples = 1\nvalue = [[56.139]\n[58.843]\n[42.653]\n[83.286]\n[63.323]\n[65.685]]"] ;
710 -> 712 ;
713 [label="tpsa <= 88.05\nmse = 105.518\nsamples = 3\nvalue = [[12.952]\n[24.586]\n[16.928]\n[19.907]\n[24.958]\n[18.427]]"] ;
623 -> 713 ;
714 [label="mse = -0.0\nsamples = 1\nvalue = [[6.603]\n[8.519]\n[7.842]\n[9.462]\n[6.371]\n[4.642]]"] ;
713 -> 714 ;
715 [label="monoisotopic_mass <= 381.134\nmse = 30.076\nsamples = 2\nvalue = [[16.126]\n[32.62]\n[21.47]\n[25.13]\n[34.251]\n[25.319]]"] ;
713 -> 715 ;
716 [label="mse = 0.0\nsamples = 1\nvalue = [[15.994]\n[33.496]\n[26.035]\n[21.706]\n[30.149]\n[28.478]]"] ;
715 -> 716 ;
717 [label="mse = 0.0\nsamples = 1\nvalue = [[16.523]\n[29.993]\n[7.776]\n[35.402]\n[46.558]\n[15.843]]"] ;
715 -> 717 ;
718 [label="complexity <= 554.5\nmse = 802.47\nsamples = 63\nvalue = [[78.234]\n[79.777]\n[70.155]\n[78.765]\n[74.442]\n[73.661]]"] ;
530 -> 718 ;
719 [label="xlogp <= 1.7\nmse = 708.386\nsamples = 56\nvalue = [[81.657]\n[84.715]\n[73.651]\n[81.229]\n[76.039]\n[75.789]]"] ;
718 -> 719 ;
720 [label="tpsa <= 119.5\nmse = 381.811\nsamples = 21\nvalue = [[93.345]\n[96.655]\n[82.282]\n[87.022]\n[85.21]\n[81.893]]"] ;
719 -> 720 ;
721 [label="complexity <= 419.5\nmse = 206.19\nsamples = 17\nvalue = [[97.625]\n[98.814]\n[81.976]\n[89.156]\n[91.087]\n[90.092]]"] ;
720 -> 721 ;
722 [label="monoisotopic_mass <= 347.202\nmse = 104.726\nsamples = 4\nvalue = [[81.226]\n[91.31]\n[54.678]\n[83.582]\n[84.013]\n[77.648]]"] ;
721 -> 722 ;
723 [label="mse = -0.0\nsamples = 1\nvalue = [[75.994]\n[90.203]\n[39.067]\n[78.729]\n[78.978]\n[65.661]]"] ;
722 -> 723 ;
724 [label="atom_stereo_count <= 3.5\nmse = 88.454\nsamples = 3\nvalue = [[84.714]\n[92.048]\n[65.085]\n[86.817]\n[87.369]\n[85.639]]"] ;
722 -> 724 ;
725 [label="atom_stereo_count <= 2.0\nmse = 44.298\nsamples = 2\nvalue = [[90.452]\n[100.873]\n[72.348]\n[90.012]\n[86.604]\n[84.08]]"] ;
724 -> 725 ;
726 [label="mse = 0.0\nsamples = 1\nvalue = [[89.301]\n[101.616]\n[77.286]\n[81.903]\n[77.581]\n[74.469]]"] ;
725 -> 726 ;
727 [label="mse = -0.0\nsamples = 1\nvalue = [[91.602]\n[100.13]\n[67.411]\n[98.12]\n[95.626]\n[93.692]]"] ;
725 -> 727 ;
728 [label="mse = 0.0\nsamples = 1\nvalue = [[73.24]\n[74.399]\n[50.559]\n[80.427]\n[88.901]\n[88.756]]"] ;
724 -> 728 ;
729 [label="complexity <= 492.5\nmse = 170.626\nsamples = 13\nvalue = [[101.19]\n[100.445]\n[87.91]\n[90.368]\n[92.625]\n[92.798]]"] ;
721 -> 729 ;
730 [label="tpsa <= 38.4\nmse = 79.997\nsamples = 5\nvalue = [[105.58]\n[96.393]\n[83.267]\n[105.096]\n[96.088]\n[97.336]]"] ;
729 -> 730 ;
731 [label="mse = 0.0\nsamples = 1\nvalue = [[90.293]\n[90.606]\n[87.995]\n[88.531]\n[80.437]\n[82.197]]"] ;
730 -> 731 ;
732 [label="tpsa <= 45.15\nmse = 50.781\nsamples = 4\nvalue = [[108.978]\n[97.679]\n[82.216]\n[108.777]\n[99.567]\n[100.7]]"] ;
730 -> 732 ;
733 [label="mse = 0.0\nsamples = 1\nvalue = [[115.043]\n[101.132]\n[93.032]\n[97.024]\n[97.439]\n[101.228]]"] ;
732 -> 733 ;
734 [label="complexity <= 481.0\nmse = 37.59\nsamples = 3\nvalue = [[105.945]\n[95.953]\n[76.808]\n[114.654]\n[100.63]\n[100.436]]"] ;
732 -> 734 ;
735 [label="rotable_bond_count <= 3.0\nmse = 17.224\nsamples = 2\nvalue = [[107.51]\n[92.211]\n[77.226]\n[109.675]\n[95.545]\n[97.114]]"] ;
